-0.0016262682812552879,-0.005585072223075764,-0.004509997741813698,0.013608913583088446,-0.007803902377594361,-0.011306288166295798,-0.0014584244308751622,-0.007169991839089014,-0.0060325188042082015,-0.0048884647886857,0.02163313222929865,-0.005787677900888271,-0.011572749847224076,0.006185638103146301,-0.001426173918692034,-0.0011325976869069256,-0.019094630496653314,0.0005737677048739707,0.01804665655235425,0.013368223875123755,-0.007072880851231523,-0.0091473857947847,0.001504922184177057,-0.0028761046063601084,-0.003402100684630632,0.0014008515075493214,-0.002994053294847453,0.0010824023002940044,-0.009189977202388032,0.011784103100136434,0.0005079446106270781,-0.01759790696382,-0.010186970926942268,0.001453438549292758,-0.005169083343031081,-0.0016370082741577598,-0.0035516723928202265,-0.017886259347853074,-0.007749149185007223,-0.014154280455534725,-0.008051477762341034,-0.011526773814276917,-0.0012921539512670904,0.009174722321605775,7.467770411563964e-05,-0.0008119885358938017,-0.02013152245469729,0.0013227918337492398,0.0011337965210835722,-0.02807371932189942,0.005994347450802715,0.0082129089384306,0.0030260178724646346,-0.008772134819351528,-0.00022333865702787233,-0.005779138651025378,0.0002886972261735687,-0.004744119845801534,-0.019048939773751564,-0.012260715679634089,-0.0007748359401724294,0.008393862559630564,-0.006763258484536826,-0.0014020389116600352,-0.009836138224432814,0.0032579480945170384,-0.004886572379476337,-0.02224784371131711,-0.002181267376190938,-0.01055616747971505,0.006958050361004203,0.0038388377071253794,-0.016652358415423136,-0.021437701149329382,0.006412904137095898,-0.026854288181348072,0.006244694791663707,-0.004511495402379429,-0.014772459273180029,-0.003264162668842757,0.001798272139591053,0.008964487504053854,0.010098986880521754,-0.00706163904435006,-0.005356114339094297,-0.0016446805593543995,-0.0009900526144617982,-0.00837382853818126,-0.0024270234139889355,-0.01954677485619241,-0.007466375667462921,0.009494319137855535,0.008341144731737063,0.0037870581778159953,-0.00484469469097284,-0.01429657119127933,0.019877657460523477,-0.0049930658195170285,-0.0015849395027819244,0.0012217421465925366,0.008132682329360999,-0.01099405349449318,-0.01208015539909622,-0.008796487480011488,-0.013232760577581125,0.00035658068885954564,-0.01985635557229304,0.01663634624063062,-0.004420304228115226,-0.030108927529393585,0.008271492317101174,-0.005264714651855356,0.005174015469217619,-0.002214041135341608,-0.0046783853422287525,-0.007463166245704325,-0.011885444988255747,0.0026167745857265654,-0.0016645875818477704,-0.007156911666313727,-0.009691078275839905,-0.013134294765720528,-0.009274164514249478,0.009806451910918439,-0.014268032869574418,0.0005007874292392694,0.0017692487980431545,0.0007857962757463469,0.0070465962162088586,0.012351741089839887,-0.0037804331849488,0.00870492548726119,0.00184935304725718,-0.006356335892404795,-0.003725525858456326,-0.0028177345894678262,0.001281841775119592,-0.0005154095415289082,-0.008297672127595027,9.333617213234945e-05,0.0036802503676984094,-0.0005469602620452054,-0.017298287103600866,-0.0132668732041738,0.003366737324208397,-0.004839822714525669,-0.006812957958725467,-0.005621349298334436,-0.0016978657683537758,-0.016543030795931328,-0.005775786139634136,-0.006426335205114115,-0.018221110606750225,0.009123665826541637,-0.00705605084465814,0.007991654613817768,0.005876201247951355,-0.00028898463608318384,-0.0068157964009152,0.011768204804213013,0.00262560725201038,-0.0008108241324342489,-0.010369331054639844,0.000599161608163227,0.004227366391265958,-0.011312054289377916,-0.01605339998408253,0.005865413476979963,-0.03128575749609662,-0.00484025052343536,-0.012543385591650118,0.002423866376021905,-0.0021014000702401533,0.011903729108532242,0.0153484128486268,-0.007943669686636947,-0.0013869171971151568,0.005108892681283833,0.005092127227612575,0.017092018523364717,0.011912388873622549,0.004277900078937776,0.0012736613079154684,0.01622181622934146,0.0013760055195594712,-0.011142823018919095,-0.0048070087502507025,-0.00926129958162915,-0.006888883696578462,0.012929956244110028,0.008759835676678892,-0.006091934410703016,-0.00013726352627627965,-0.0023194615349630128,0.015781697754742106,0.0049676798154316745,-0.019976675626930257,-0.007783614503479707,0.0061969177922936115,-0.011550563094116834,-0.0038082746159258715,-0.02179844670877042,-0.005106173776210719,0.017527243960427392,0.012205244261647197,-0.011577760667969004,0.024263450430761144,0.020089510354082508,-0.009719033910536579,0.0011174029991810172,-0.012703344200852697,-0.02459780895110486,0.0007657951415487229,0.0070750992881640235,0.0003239513726384405,0.0032404470816358084,0.0033034403297591817,0.0021838056088666034,0.002234063984444565,-0.000662230893699712,-0.004723426131059401,-0.0008492231483386186,-0.014507668657060917,-0.015335477212362978,0.003872468622624832,-0.008911122085674184,-0.012289732749243444,-0.00028373485734143803,0.0008063496475311627,0.012012336895657894,0.0023460808063756325,0.006937930137471606,0.006588476500334036,-0.006680302247510407,-0.009424563801415887,0.0061281753051954805,0.010383172604947298,0.008577694717679336,-0.0007846080611575576,-0.00045783353483303874,-0.006201749779577876,0.011706474333842344,-0.008988822042857511,-0.003191172782314131,-0.014444431042424906,0.006138845853675318,-0.0043677125728102525,-0.0020539432519721943,-0.0030918919657874277,0.03279553421813128,0.00033935672497887475,0.006474640352796506,-0.005252958198430213,0.010267018504242323,0.017447215558622105,-0.00021589225620117648,0.010671948615341103,-2.1238060874521053e-05,0.012632141927331194,0.020499054838895924,0.010746832080018818,0.008571410075988276,0.007896902826887119,0.019255542652704842,-0.0021675609705518327,-0.01707064318780662,-0.0007643866539341714,-0.004193838060290151,0.013458004863427714,0.00023651334543045485,0.022671197337200816,-0.0009322763548253622,0.00424302751108748,-0.002436233297809157,0.01809434482280591,-0.008497075075614778,0.005109730178438655,0.003386095327058822,-0.005305500635101095,0.0005890383388925172,0.002132435934740369,0.007177968151187673,-0.0025623965432982013,0.00853207725819256,-0.0029335636222824336,-0.004746753576302006,0.013669518490648541,-0.007159919711574438,-0.0088946824579272,-0.0017366978672980528,-0.007381764315591278,-0.013003910089656243,0.011617016135375106,0.0017410344143520779,-0.011805864079764122,-0.005702859434946601,-0.006743670837272581,0.015489946748505155,-0.0021550594164021566,-0.0017545503638301486,0.009132172872356641,-0.011123017776899398,-0.019092410096553485,0.005127225931947451,0.00439489974542846,0.002877215253584149,-0.021833790146630675,-0.005432105528470076,-0.004656698806349956,0.009639758602684501,-0.010778974519286067,0.007368930896262974,-0.005049221259424484,-0.012017992796357228,-0.005439549062111238,-0.02350499605744369,0.00043199699366009846,0.002742450954688671,-0.002073577169292851,-0.014160614016232047,-0.0028828277272369457,-0.003519012475373453,0.02543504232945888,0.017043277402489836,0.011282238492351361,0.0042899970388056655,-0.0008488962243766557,0.0006393071539946281,0.00045179458721003677,0.00816790769219836,-0.00662472801709454,-0.0007722804576043791,-0.0004190945013616555,0.0062010653536134774,-0.0015633451403108223,-0.01117697413587583,0.0007564340965246947,-0.005739566875932526,-0.0013335738022749216,0.0015228026827384825,0.008125012798356233,0.010552195879816541,-0.007330423691150865,0.02269360887149844,0.0020453422465244986,0.0017972169639916067,0.008499235709046607,0.011053723450564556,-0.012153802853592346,-0.007165502260592419,0.010276060809315033,-0.0038776139224088813,-0.0031828698749810716,0.012487816667567769,-5.0935824857520516e-05,0.004603858310139813,-0.01769905070417979,-0.005563993320404092,-0.0014283882445134768,-0.008491432390757435,0.0019135939712790603,-0.006411539551995891,-0.0036869981899806128,0.0020758567353895687,-0.0012993429702877137,-0.015955093257818805,-0.010112526748300146,0.0017325349334552241,-0.002501166519275829,-0.006447922212995224,-0.003604834294592545,-0.0009898647782085536,0.015545564092024943,-0.009599180031456095,-0.0049410343118810205,-0.004573331783249114,0.0003945098640160994,0.019037741990032338,-0.006516885054875144,-0.01413477603931409,0.01576672982400487,0.010277053500084303,-0.002729220783922094,-0.017976170771666772,0.015517989902545859,-0.002342136004301702,-0.004327832054819553,0.0006131404441413684,0.003228969174558504,-0.007123646127095037,-0.014561411575606071,0.004060235321652227,-0.0013171873419639544,0.007396445021964353,0.007904669465387223,0.001085481725256499,-0.011302051180611585,-0.013512888809374748,-0.009100403499872435,0.0064163735394185874,0.006108053793429226,0.005751537099174246,-0.004400563892155267,0.019259836768351014,-0.007451511791525281,-0.0010877632991834873,0.0048822851244715556,0.011494000786622322,0.007187916615083382,0.009339909434038597,-0.0007390382427545041,0.006911815105860728,-0.006523641459938229,0.007251509105333951,-0.001029857355050817,0.016600819502901216,-0.0008615668848586487,-0.020198483898440995,0.008747623335693181,-0.011966798900441535,0.01969804759109219,0.0047260066219060185,0.0002096305614046558,0.010409926888600747,0.001255384084846045,0.0060550549331388984,0.0027903126782113214,0.0030058167518336597,-0.0018147413743421987,0.0051392269380794685,0.006479552482641626,-0.013362760999839162,0.0026756602448270647,0.0071549596138931835,0.020790835724385108,0.009390831691098786,0.014548016692810455,-0.011536729192463922,-0.0030535351556647303,-0.0019974606701445175,-0.02154346770163725,0.00854013081111431,-0.007759986705389429,-0.00166030857899525,0.005622651696006563,0.00045740983101769144,0.009774589523274329,0.007051303331555741,-0.0008458043160666489,-0.0017236915386430812,-0.0024071903896906825,0.0163885199023536,0.003160630481216051,-0.0019598653688030422,-0.005914659545907243,0.01409773829767585,-0.00021015186392231766,-0.0041162918636897085,0.005549851717167831,0.020383595539881106,-0.010539598872493245,0.007644867100802998,0.0037980484205341098,0.006792242909089425,-0.008245217097568206,0.004135676333733023,-0.006791382574873436,-0.002097790368850837,-0.0026194469847951314,0.0010970454538130124,0.014486275061650468,-0.0035801286718748124,-0.011997153814811675,0.02039923673995176,0.006761277354176105,-0.005834576428995211,0.014848359551212404,0.009705778547527905,0.004159133623168806,-0.007709970010562844,0.012300304938679823,-0.001594677186843712,-0.016350675675972128,-0.00026027950420669195,0.0024557984472540055,-0.01485522674089863,0.006397936414707455,0.003367185020978049,0.0046864373514242256,-0.0003299677760855882,0.003955120060189217,0.002834705287217114,-0.00312471057951356,0.011176575848130752,-0.010842072734006208,0.0008826182902712514,0.000498220752604981,0.010523961105324775,0.001249409686540177,-0.025276542346097726,0.0018760479357190288,0.005617406042047297,-0.005004233911920247,0.003897330047553199,-0.0006703503367906747,0.005450506265394785,0.005231945732033045,0.0031962388980482648,-0.010079303718801013,0.005459810701722818,0.012782513062207082,0.000746821222388353,-0.0036484904467959794,0.011326048040502832,0.02190569211132807,0.009336921828317277,0.0003441039148973786,-5.7939075988766734e-05,-0.006162682229414024,-0.02366482746207826,0.003752343652388644,0.007008972228061169,0.0045783579257248535,-0.00532334349869007,0.025152724577188635,-0.0021954612412666105,0.0016082230183478115,-0.005355380732863842,-0.014069060611322301,-0.016909409291048845,-0.007034784002090805,0.000600743810492857,0.012599260073798543,0.008610022454112992,-0.00777452552852256,-0.019223040289765108,0.0047581453659895565,-0.007471862677580015,-0.0016219708550000772,-0.014513517474643267,0.0009439086457356722,-0.0024851827665094573,-0.004617210590851123,-0.016477328288848767,0.012802609699769726,-0.0041528366302723075,0.0014566605042604073,-0.0003499089664637003,0.0023301721975408475,-0.0032619174419267374,0.019699892871086887,-0.0008404477632825007,-0.0023180515218584733,-0.006427691490581254,-0.0004258029084165101,-0.0006139826190409699,0.01455466686100525,0.012129207218146018,-0.017760043484182125,-0.003242843818108685,0.018618479443725897,0.0028203514110207964,0.017700682656711084,-0.007990565202781717,-0.0010364364736601581,-0.0027101979537745217,0.0031121450309903797,0.013392074812463647,0.004629981449617209,-0.0238438072249981,-0.013266821188610308,0.02242002396637489,-0.006968654936465534,0.003106364737537534,0.0016534170397910985,0.025215664553070564,-0.006133640961437193,0.002099428759280651,-0.0062079456731123075,0.0100879589137592,0.006525976192712086,-0.01188109779373171,0.0048955114910639135,0.004456557666438042,-0.002628792571903278,0.0033664008572245087,0.0037496895568642874,-0.00040665406785922914,0.009587058146009592,-0.003061006168756993,-0.007228573734379362,0.006038336463254009,-0.020544894021673074,-0.01313966477642181,-0.0012252808698534165,0.010782450466269033,-0.006435392937500993,0.02095482113586935,-0.007619115911975343,0.006055522417884368,0.005525790176295963,0.008870171822978792,-0.010402950460926028,0.016808640308949366,0.0032208718913433994,0.0016957065767547396,-0.007316148523061567,0.0262406154431949,0.011223619900434002,-0.009589229884466768,0.007871764656185597,0.0012326366676079531,-0.008062317770074308,0.000521900644924861,-0.0004438343319255678,0.0018315484155565775,-0.006707652332308101,-0.010438278598100174,0.0043182146704705505,0.004917606724154097,-0.015871581779397834,0.0019589923993412438,-0.005025942432784635,0.002101982248188384,0.012696006660606746,-0.002359011298147267,0.017501535531657616,-0.00877102095706634,0.0024962610271052833,-0.005984346568735405,0.0016862470146014482,-0.01644775746906578,-0.008988638196635701,-0.007949720867863065,0.005910207093008442,-0.012955772400253519,-0.015039959761920966,0.00505600304304563,-0.017061184946611862,0.01800933549949795,0.00522512889168502,0.0032913283530739733,0.009182933052201381,0.0030434389679533306,0.011519065063548337,-0.004714465285950318,-0.010756067130504421,-0.008718618999262108,-0.026778316149141484,0.00018588853639773335,0.00802254523317271,0.0026635225539906452,-0.012116211102067245,-0.012419383848559404,-0.01083954810643947,-0.0016639803500747806,-0.00788260350678581,-0.00015504932591718263,-0.0058080526346104,0.0037049865378625396,3.5056704069371856e-07,0.012700575188884348,0.012407684047422362,0.002919166166533408,0.00029230323053318206,0.0006905919652486757,-0.010475107142231379,-0.003140370587256749,-0.0029561284241303165,0.021810670672472356,-0.02389682799717296,0.004819577265035965,-0.008342890260281855,-0.026928060213599975,0.010910605222860659,0.006051990915766995,0.005216850202709292,0.000995453010325696,-0.0013927906242449416,-0.019784157830581614,-0.004602311857767167,-0.015343152268158132,-0.006632334482366892,0.006892269988111777,-0.01075747943793754,-0.006885242083328213,0.004290310860891139,-0.014250390568437668,-0.012534750867929075,0.002088771371050695,0.0011641872779741265,-0.0026093251841827706,0.004733896286430239,0.02085695030595264,-0.037476103386393685,-0.0001384986634206211,-0.004895282175625542,0.004438962005986446,-0.0027327432816697567,0.007528042770616937,0.0010933383527045506,0.027446239844072316,-0.016300476064787694,0.0034470343358892356,-0.009162890503947621,-0.0028770241231991806,0.011186534246769722,-0.0074366535905579555,-0.0013808748083219198,-0.02058536740923938,-0.0004667285097545966,-0.007003274849936844,-0.012556575187322923,-0.0012290253795333617,0.0014542867224996627,-0.004404360578886269,0.006175913531418609,0.003307060205923639,0.0033724000754015767,-0.004533266002577113,-0.0003016937598855801,0.020864463980232492,-0.003570812005266169,-0.00377084682719738,-0.009086143701395398,-0.014117704858594194,-0.0033437667770719105,-0.0024587909870882464,-0.004799823169411447,-0.014851483236336923,0.00491643834382805,0.010809340054201854,0.006723662816735432,-0.007351388151191183,-0.009421816633449154,-0.007546385677199036,-0.0001621551035495461,0.012609268428093122,0.012255910888850098,0.0072840622091673605,-0.017831457334066683,0.0018842649593671453,-0.013129230550873776,0.009263616950205224,-0.00875120766720463,-0.009365068769084467,0.012677226808393857,0.008082614103782713,-0.012473698646013028,-0.02135722841300139,-0.0236121267074429,-0.014870371645250683,-0.020322430487310462,-0.004389813341243802,-0.016291170021055148,0.0041106616986625235,0.008085781727551995,-0.018814237679559795,0.0003967374342339313,0.008460777083814462,0.00026687784279800413,-0.008598112759637264,0.01428382495137138,-0.007561254860775498,0.001742940257710292,0.0053318651162923775,-0.004550128829993978,0.0009062635711071772,-0.010406682232976552,0.01175086866438946,0.0032423005680431017,-0.006607420130153129,-0.002683523883750961,-0.012934678060218873,0.01755981634890666,-0.005667672554994592,-0.0076001998204743475,-0.005783964210931462,-0.021437985066211755,-0.0021104758989399755,0.012777600538548779,-0.009884319639992777,-0.00263104345417239,-0.016536351954316197
0.005513926409931551,0.008452374133883717,-0.0018275906556536497,-0.011401504794201734,-0.006390973895337423,0.008338058188958837,0.016795169661646743,-0.004418314198447861,0.004127610865727362,-0.0008756379694067226,0.00022927776690883606,0.007388791118832671,-0.02365113358495363,-0.007602064234989291,-0.009082269497039313,0.0007113250647674096,-0.005910542714942971,0.005010704581845752,0.00579419475907936,0.002220967452309428,0.0021132169081577758,-0.011245967804885166,-0.006397875420984295,-0.004473756800444889,-0.010682709085763487,0.012711416293828551,-0.0006062513390876103,0.0009266715910248568,-2.608280094972932e-05,-0.0041043191431238465,0.01406101154043449,0.013430772667325135,0.001810247341271832,0.007552219901322421,-0.006428549737455402,-0.0020285484810551075,-0.007626724831373006,-0.011445188094493727,0.013594441198128953,0.003365737284921745,0.0010600134111812271,-0.002176805719877138,-0.02101202346872803,-0.012013161141108024,-0.007172002645853371,-0.0006728909799747538,-0.00898818228113112,0.006696420384154553,0.005825264592654623,-0.016436729497654533,0.0068114987949074194,-0.0069872072191015135,-0.002079846273241391,-0.008440042714767006,0.0082789757384543,0.0077787602194707905,-0.006379108185744319,0.0075596856089926445,-0.005030463023106143,0.014354133827946548,-0.01987350173488688,0.003149521498481111,0.018107515593103272,-0.0067278252150419745,-0.015581278599181682,-0.007794116170081505,-0.014168254340674894,0.002496816989054848,-0.0017472360060510391,0.0032261420115441905,-0.0012761425741053597,0.000778473225517433,0.007648799668371601,-0.01053077547895137,0.011114751369397097,-0.0032029406553205357,-0.00808222728739165,-0.0064208455496426375,0.012004732911592389,-0.009697392017807985,0.001615858192405574,0.0013506339840756326,0.0036640219975283515,0.0161099277138126,0.007704399598578345,0.011435788839645758,-0.0018688798780017932,-0.005974779134769612,0.003922728565664357,-0.005205877362818764,0.007064491531105402,-0.009322297623985244,0.0005280712758075839,-0.013931805784833717,-0.0037149741078247,-0.002740835309994632,-0.01510141371695915,0.004689018372084642,0.006683515886742702,0.0037189070131768446,-0.02057034023109811,-0.015747751125701488,-0.0034611557236514648,0.008692031457844543,-0.0013518821945255233,-0.019408284103724787,-0.016174648967301305,0.019395624763497456,-0.00531553347341761,-0.0011644464541518682,-0.009141048275787081,0.0073840535773686145,-0.008320475986571936,0.008292684229987765,-0.0009181171705687368,0.013687958700110858,-0.0023478891316854127,0.007438218383290635,0.002662782638665833,0.008353949112640443,0.011545201810097539,-0.0012829143165008947,-0.0019767782004323606,-0.008857757219039007,0.016922329982183463,-0.013931772485292438,-0.005311057971738481,-0.002651924888699747,0.023630717863133203,0.0062549234155629425,-0.013329416454477817,0.0026095195866743712,-0.0007562347203157356,0.00273637339179554,-0.004945559140128385,-0.00253668159497133,0.01118023076157123,0.014164016454871076,0.011254615563964614,0.0019390876752111395,-0.0016882744807845801,-0.004874505719482233,0.022105774749774196,0.0032588923321039765,-0.00427364455396946,-0.0033211758702104727,-0.00424453038286417,0.004524161448401314,0.013182277115160075,-0.007506995118606659,-0.00925302760687737,-0.01771465684431135,0.0023074089416331334,-0.0004812525032339728,0.008277871764987751,-0.013863731149481506,0.007079086000076692,0.012298033031786218,0.01834141389222325,7.501547545392706e-05,0.013618249054733966,0.006110083039229802,0.00588587034214793,0.014744205211569926,-0.0004553136713603026,0.00905945396275536,0.005169856742239596,0.012755654407509323,0.003972828990634368,0.0030154038234623277,-0.0078637922204075,-0.010529537371929236,0.0018184021379937824,0.0008153467669932259,0.0025431798254921976,-0.02284268820995447,-0.0053196245105972964,-0.004274885772435769,0.012482472924756733,0.006853226498282707,-0.014905619551807378,0.012110637937775764,-0.01058083761520316,0.008686084760282778,0.010678320875339058,-0.004298532458224103,-0.011068126420303815,0.0251101114230341,-0.0212331774937413,0.006942889066992625,0.0030543127558734003,0.006803292034478917,0.0006198093732841452,-0.0013520604642121464,-0.008652622973273807,0.0007832891124412486,0.0017405022925686292,0.001135302264860116,0.0031477201791855107,-0.012965888663877656,0.0012767260368191727,-0.004697315710198373,-0.0016608099381709889,-0.004217691777678528,-0.0028309265374854356,0.00018101707361029254,0.025282453883655843,-0.004228265325474827,-0.009462671640526615,0.010561277339270253,0.01759333036723501,0.012408188153354913,0.011731510863433922,0.0090580843434134,-0.0043051789727214206,-0.0015721959368831479,0.0036476348339931773,0.01454485428876524,-0.004990778001156682,0.005728757837014211,-0.00937458632670981,0.0038825687497984858,7.895236236938173e-05,-0.01603320614545979,0.010952821617318653,-0.013461840747982763,-0.013194296666408383,-0.0076223801255998445,-0.02320703657779822,-0.01831178864655569,0.0004424996824552646,-0.021464944853973312,0.013064329102873263,0.019306764740895117,0.0007514797397772585,-0.011824483488658076,0.006328369560619955,-0.010440288479170983,-0.003383479162599065,-0.004178968511151522,0.0050476160580412745,-0.001416238118680303,-0.011220887679469051,-0.008846770664462045,0.00033158970899226705,-0.005248885304177906,0.004583632964156577,-0.00268339658089414,0.006359838799477032,-0.01314278098821402,0.01113622762754109,0.005342120843866047,-0.018418197883771106,0.008760799170099746,0.003166670296040659,0.010461484626266256,-0.0167551027736629,0.012225481580992955,0.003570934427398837,9.35377180369778e-05,-0.006651164537601562,-0.0007684435335352101,0.004725707207392532,-0.0022363285815873387,0.006397589420441636,0.02165860282615578,-0.011096038763338775,0.0019340190748324078,0.010952062439034968,0.012258729071817019,0.006157798232029183,-0.012486595768681363,0.012174079362190594,0.006096524933031064,-0.005705688824672218,-0.01809440075460145,0.014323335987682395,0.007514801332694475,0.0014014593380474107,-0.0012863919748636317,0.0004308490835750981,-0.01573961459542208,0.01908913792605477,-0.006822580295899665,-0.01923971118527603,0.01017721471768228,-0.006396219758329432,-0.00125777076264885,-0.012953437468238429,0.004554462281096674,-0.00018442282327810054,-0.0012907945419133823,0.005768684105006772,-0.00892683826086864,-0.0001428434829311912,0.001717723836406142,-0.01152314902790853,-0.0015626457403901531,-0.0059119409492687,-0.0009189018290946522,0.0019054703119278909,-0.018474642448576415,0.01026762472711875,0.018860835470174146,0.006809724970988074,0.010629480073570187,-0.012062951563615618,0.0006240139417805337,-0.01678475732988833,-0.00017384704103784622,-0.0202898125141279,0.002886092612833407,-0.006565027353886504,-0.003738300746144905,0.0013828384250440097,0.01228570278600287,0.01324554104628899,-0.00016023350418648506,0.016829086312270262,-0.001166834468683706,-0.00821318410589913,0.012323455934313382,-0.016548491435222433,-0.00161836174309414,-0.0003110431214564589,-0.006599844425772445,0.0052586750085825956,0.010651090210144251,0.012929535524126649,-0.015991384804485958,-0.004145851532900049,-0.003141684987843898,0.023126518946993017,0.012192183402168126,-0.0036609276453097184,0.00819942417918763,-0.012013829853703731,-0.004185135754122909,-0.002237206908264134,-0.008732039555096362,0.007820036163144618,-0.006497879786818355,-0.0013744828547924692,-0.005371284135016936,0.0017661815457106604,0.013266781195143533,-0.007913288347260848,0.0020576851968451197,0.004364752143028411,0.0002474891764288361,0.0012863605488206158,0.000881983506055465,0.006238522012855249,-0.017125949954497458,-0.00010681265635633336,-0.011444107071197343,0.010194241129969086,0.01296169009999758,-0.0006296134698355969,0.0066882198607343905,0.015292365353385252,-0.007976149402465514,0.005756065018685528,-0.00529204748748982,-0.01280073726363194,-0.00946415666849402,0.0013843050829135829,-0.0030454397858883596,-0.000542447031924109,-0.0003481743557374288,-0.017050045884229575,-0.011866238535873127,0.009149135293326097,0.009194348188004874,0.025388079162352417,-0.003531977331252906,0.009669411720507037,0.003122649641920919,0.002881889753613266,0.0015950624428010365,0.006618459585886117,0.006082090508376131,-0.012573631788179903,0.006175605259761439,-0.0019626595796536483,0.010071451925725804,-0.006957315828897923,-0.022462633400891753,-0.008261967716640145,-0.009300033339110718,-0.00013829045492753396,0.010551616668710734,0.008530434506744082,0.008840923037141112,0.00946765897277099,0.0068606259965437845,-0.007016515476797452,0.016074773469331425,-0.00011786991691205871,0.005100691651128169,0.008037191774634557,-0.0189109221555999,-0.0010434809121038704,-0.012659036099876767,0.004932264835023543,-0.009654857311382157,0.002584978234042362,0.0007577226827366548,-0.002673912447431558,-0.009928220950913497,0.0027246285794153367,0.020976503421884552,-0.012922867894387197,-0.009083124724644622,0.0005082529510964754,-0.006943622930506327,-0.018555367413805746,0.007242531398577495,-0.011743028045121047,0.0075620913526367505,-0.0013970311658155485,0.007142280115730359,-0.014261479434877804,0.004459516857968507,0.006103281893939207,-0.017829181435095355,-0.014714540678577729,-0.011440997657956418,-0.003730500712216447,0.011079588145679867,-0.024165169038493455,0.018356702480848062,0.017733114068813113,0.004208564284746061,0.014522412266149686,0.009898091686851514,0.004097715320323726,-0.030323146988544623,0.007257524393166569,0.005628724424448101,-0.010276317339963594,0.004727363526450551,-0.001082401379827636,-0.008381067157254047,0.008600228600276181,0.0016651751503064718,-0.0009056067856822383,-0.01198923378212452,0.008792334533105519,0.002412971960474169,-0.0018314661511674728,-0.0025207704551761336,0.01694257283790722,0.016173187582380868,0.003492857146601432,0.006781235759766566,-0.013577742710365348,-0.000603782237609195,0.011267145923032811,0.003012846105518751,0.005656734158674626,0.011007530316932097,-0.004267935778107462,-0.004639818888158579,0.00278059150703067,0.005154712503795972,0.009574662480892336,-0.004978031144580537,0.011859164092972498,0.004034299874194682,-0.002786013169944779,-0.011658431698625692,0.00795349566273234,-0.014355257668894197,0.002296611329331291,-0.0005576063245721481,-0.007776201876396858,0.015283856030608113,-0.01759408449959468,-0.00398008737482902,0.013611405568380553,-0.0037280303572828737,-0.0162728090717938,-0.01042565141648351,0.010152512343412978,0.009187093841676205,0.0042694316494357835,-0.002601402201939124,-0.017209016600455887,0.013708078425935494,-0.027440274894679147,-0.003544619503915551,-0.003195403085204467,0.008740044452682966,-0.005535283799002282,-0.0017851057566252,0.011906708003108163,-0.014412697525392402,-0.003381906515051321,-0.009849043399720068,0.0029626763439766237,-0.013763603595992747,-0.013460359766134746,0.000684844513075506,-0.010952780044054108,0.014842335307532832,-0.0013230393952795715,0.00745785959763826,-0.0005668811689431586,-0.017779756308776325,-0.009516785209093106,-0.01826288165370106,0.0007911377332967451,0.0023975930376662997,0.0034108469156433723,-0.0060286091144659704,-0.00788311616484719,-0.004689279301141136,3.7188884459872824e-05,0.008154173981325114,0.009141635667361366,-0.009861717091736982,-0.012294825306952509,-0.0053283671182012445,-0.015643249383370524,-0.005385726437349838,-0.003224091563519253,-0.023221986470409885,0.011610911074286521,0.0030770810058202477,-0.011753761202833671,0.00781253242274192,-0.009352595634966907,-0.019939712268572156,-0.008617643478199122,-0.00670912166380865,-0.006738994198199043,-0.008001111242545652,-0.02574004393234618,0.000631856935749569,-0.00624432781698769,0.0051483641687702945,-0.008128040047112137,0.01307260159749114,-0.0017079577429483744,0.0057244693813882,-0.0013916981792015724,-0.01461713589928883,-0.0040746893589937,0.0018144525686826854,-0.0062786419302412536,0.0015198919264905809,0.00292984814693403,-0.009989131133470228,-0.0007354344800871833,0.0010569119588725209,-0.007410610232758719,0.009331476436711578,-0.007822269957336366,-0.011138942253233504,0.002641666074669652,-0.004305099483257042,0.0030740358193675735,-0.01089941012054758,-0.001973333509790382,0.012619080174121985,0.011770705245994011,-0.0018544226924588885,-0.0012408461179215194,0.0009070144102289789,-0.0020965403202056524,0.02370109251447787,-0.013680500862381213,-0.003126660116568179,-0.005617934001917061,-0.01636539511690738,-0.012426112944042323,0.012279984170055219,-0.012699314224377886,0.005513104312987559,-0.0033206464489872016,0.020936735514465118,-0.004977594303039579,-0.0016957831269043676,0.00599563325128691,-0.0047206292070598975,0.007395036287280894,-0.00027985618562060085,0.00823252406699301,-0.00838372354833784,0.0022809018422275,-0.013125402432799117,0.01014028375289131,0.023515012322098742,-0.010342740527815199,0.002089786687857183,0.006911336277585271,0.007034892676468586,0.01038872311252997,0.003804273108635916,-0.0002785010099770873,0.011291177941707354,0.0007153523537369343,-0.008544649704676695,-0.012611784215397841,-0.02614262558262522,0.005403759901485327,-0.016487536513453714,0.0032582027580474854,0.0046536519106038145,-0.01062067468103702,-0.01936382764749404,-0.017325875800933616,-0.014768346173268995,0.015859282575261865,0.011514994880742055,-0.008545184860032968,-0.0036242396091708696,-0.011440574069718336,-0.01083564707265567,0.0004261348452195407,-0.004952501418502903,-0.004083131323858967,-0.0004686891694083524,-0.01198448358437046,-0.018959173935126968,-0.01151834958326375,0.0009361650548093029,0.00703621951705016,-0.007091836887919029,-0.01826964712031257,-0.004421525765916464,-0.002693249121037153,-0.0195398645524503,-0.010471963496298524,-0.0025205954313652426,-0.008360868734493421,-0.00725466252488418,-0.0008364997132599091,-0.00902974908932164,-7.639617098297273e-05,-0.006149044195694006,0.009150154500637681,0.00863834434616814,-0.00991238366156682,-0.0011315404317390498,-0.01304549971278667,-0.0029074945530033367,-0.004802538482106574,0.0017590266158619375,-0.017444441915783763,-0.00021870929357377438,0.014509374672866802,0.002172903529312202,0.011449833127286146,-0.0039016093363339176,0.028822357439862372,0.002979179597690107,0.006599126746442899,-0.011190546037696664,0.001626335282817246,-0.0017167170437103535,-0.022138116867003094,0.00721448391666956,-0.001287137095862871,0.006750870148777366,-0.0016243590906806409,0.008912574060125371,-0.00840394049568495,0.012133711075726833,-0.002119354833757898,0.0009537499524162106,-0.0029020456890671543,0.005529320468779188,-0.0017438431149330727,-0.003429996423065367,0.011396827879314557,0.010644188966791897,-0.01482917736379517,-0.003436412486636885,0.0070891526791723,-0.013426619720970158,-0.01190286266101895,0.008838935387351853,0.005600455286649819,0.009413077766240232,0.002997099229935978,0.004164764402980461,0.009811284406925544,0.00758848178703595,0.001759820054811802,0.006167290694137575,0.003199438981730795,0.018480047144114425,-0.002822092109524862,0.006503708579622853,0.017425138702989063,-0.02805618689744348,0.00909919340742924,0.005573068901924271,0.0052815840551647805,-0.005156704640833383,-0.013003523160094335,0.004146820304982716,0.007742878780899385,0.003923409483018782,0.0017989196861444867,0.012986986428735444,0.007971912141803244,-0.010797592084338675,0.007377561443247785,0.00841460492985411,0.03074380197607912,-0.0012204481173412388,0.006588926071855437,0.003526433388050633,-0.005511135403842965,-0.0033880939751448525,-0.016895776941498034,0.00207390202792546,0.003197272731531816,0.0037855632485631428,0.002627883355273726,0.003821471512697133,-0.0032165937383758078,0.0005230773931711007,-0.013479991516212026,-0.003335944084203426,-0.007018984638509196,-0.001549353821668586,-0.009468119742586243,-0.00842592227118232,-0.00522215389698698,-0.021689318648933784,0.004107239801791593,0.0013265715526471964,-0.00306253300831736,-0.005412652825818713,-0.005994218784806717,-0.001996415871172186,-0.006387143930410231,-0.003947466826049512,0.01303262966957804,-0.006226626223027647,-0.0005795595780468593,-0.013047677572969154,-0.008174582232561732,-0.009435661985749489,-0.011595362312695404,-0.001541687080009348,-0.01809514752668923,-0.01399968569520062,0.001057683536323505,0.011938864832984817,0.00874206438603267,-0.0009113687614953527,-0.0005136789784440729,-0.013889383457439139,0.001107192838426314,0.004384765465122973,0.015378594969276866,0.014567318852085686,0.002860480936518008,-0.015338512613234193,0.0031674929492097443,0.013168553839856885,-0.00890092344802421,0.0068828951181072,-0.0027879410429218366,-0.007861846338659856,0.009873806386789887,-0.008494506481630196,0.0022933685595217094,-0.023757228538995756,-0.0027168470598264733,-0.0014388855632317635,0.017368706864480308,-0.002979714696515234,0.012548070213744723,-0.016823893633866216,-0.025673812361007475,-0.0023986808478883427,0.011603331060961624,0.008692349572700318
-0.006850130878604207,-0.011994856347931326,0.014655772104136251,-0.0014376234073123619,0.0001947049616471072,-0.00391085470372317,0.002240832095391245,0.017354094796579216,0.013347924593615659,-0.0017864026620217975,-0.009633653177442985,0.012685257678098437,-0.008814495738439359,0.0017349006213261732,-0.012226737300747534,-0.011064933636240148,0.0032723550010974,-0.008970907907417005,0.0013670633839120746,0.007620283872067397,-0.0026427011909893982,-0.005105749867936491,0.014254402154186727,0.01531424451705098,-0.0009347639534901235,0.0043241717931466975,-0.008667706280316347,-0.02415211910325214,-0.011007715731790534,-0.004263036055697372,0.006200357499762704,-0.0005678002882678244,-0.0028362726962985747,-0.0006803083679800086,-0.00023678969857641365,0.002224758184381212,0.005959555275463475,-0.00331150763642884,-0.018680427375793843,0.0025475495509551596,-0.002057859406576615,-0.0012180844583221586,0.005173063668038903,0.006690597802642512,-0.013932820492474738,-0.026382196946163342,-0.017872673337859243,-0.020508246639289913,0.00773320049361551,-0.0004993476983118818,-0.005468830150151104,-0.0015498253474934673,-0.005689832924221003,-0.0023853867816209817,0.014538846640077591,0.020293288878499776,0.0127296130303173,-0.007788876529688358,-0.0016883892633275778,-0.0020139371052701246,0.026696124575151144,0.0028766658592714782,0.0009822538078165075,-0.0018497085876079762,0.014135700504891352,-0.011601573156437858,-0.010590546346306746,-0.0008376229856887604,0.020517660201958745,0.0003204770653181765,-0.008630867099856061,0.010996849233422224,-0.005146454242971153,-0.009692751720938857,-0.0021163117180704604,0.02171835934773124,0.01604387265032441,0.009774078670710167,0.0035317181746496416,-0.005203743427369807,0.008205877236047166,-0.0006048632282838268,-0.007432287073804192,0.0011414443646925296,0.009574257203707047,-0.011215979012289672,0.0017479426307807295,-0.0024958573658923795,0.00377719862169616,0.007102578203677111,-0.00562195899720769,0.009772593165125677,-0.015513464652516755,0.022153212064072374,-0.005045737642762282,0.0010308354058287258,0.017395389651122594,-0.011080280397285158,-0.022371325231889453,-0.004454884519857057,0.006407170840442988,0.005153706209667581,0.005842140408411777,-0.0062480854522609045,-0.020921062367003623,0.008385153755669025,-0.0001911750465068583,-0.0034218825565644987,0.00605506157114974,0.004729033610667536,-0.013837353834946794,-0.011606480424307923,0.015550957200506447,0.012135645416560247,0.012092822127832636,-0.006958332671682051,0.0028188462039959,-0.009436912043899601,-0.0040351729409445454,-0.0012969026755076697,0.018161112639216742,-0.009721967922455494,-0.006167924502634867,0.0033958027377202623,-0.011018207937318631,0.009509700658233108,0.02042856152599906,0.0066279641819270785,-0.005246270154536568,0.02116501237413274,0.00011329642864156045,-0.0017323310311350916,-0.010309014844526123,0.005335058335244117,0.009186077390517288,0.009214258383279307,-0.014177052875021945,0.0029765561889935413,0.005648969169587377,-0.010433208878490257,0.00583231600193939,0.0065427542390463205,-0.01263272442602251,-0.006921728646867548,-0.002672744735458292,0.01302106362130165,0.015408173234011245,0.013925678252237604,0.006211299921241118,0.001983576659292604,0.0021654383805678953,-0.005539751981405872,-0.005159182834176228,-0.004695277565167926,0.0014096623210730274,-0.0001303425708172856,-0.00665168502373187,0.00642451398744577,0.005183394098719076,0.014533644251903363,0.0028514263028312447,-0.012169588699881209,-0.0017367199137090605,-0.0020458198497567844,-0.01097049427649857,-0.006719470693247279,-0.007886099027542068,-0.004600603128003547,-0.019593506455977135,0.004969900865961134,-0.009101882179906545,-0.00496615084489811,0.010735542235369426,-0.0025054450857561815,-0.00014603714950109557,0.017335730264202653,0.006219784705686438,-0.00801351273801049,-0.014305452762825108,0.0053414590704518325,-0.016423686855051165,0.007040343488986902,0.0029494106972320247,-0.0008739389254038782,0.006045112319366865,-0.016222339236094573,-0.007149930637217688,-0.01159609981866396,0.005601564632977644,-0.003089161774265715,-0.003811618245158228,0.0056314511801483615,-0.013466725426804865,0.0007083862405870665,-0.0046082408111713,-0.005329387366121211,0.014990107475142811,-0.019520882310374937,0.000101646001907,-0.00024458575445832233,-0.010508506741735105,0.0016525535971628257,0.0032593358646574293,-0.01033885488946265,0.022490004308261837,-0.0060114201636605235,0.010797973107967608,-0.0034361909469929858,-0.02354260105377859,-0.006574783770931052,0.004390493186925202,0.007428575211747671,0.017909686568924974,-0.012315309053117411,-0.012727507362139996,0.00046075969101272196,-0.002140828920859486,0.011316191692309435,0.0040741939384216835,-0.002818897537637854,0.011281532151185391,-0.017262413233423837,0.009195375497672001,0.009892809342878457,0.010435832857298879,-0.001137740793143506,0.0049916436788979635,0.0029346924327172913,0.009684895357072858,0.0021648357262973685,0.007450728259543377,-0.0026221502975672223,0.0001959284813474953,0.0075446498393633155,0.005715538028008839,-0.01984565640183816,-0.006758950259641077,0.007413021009885175,0.0057863549339189895,-0.00820550475779157,0.00311338578985093,-7.033004598398485e-05,-0.009229966180343135,-0.0048344563084929265,-0.017253421126270208,-0.009894304597195784,0.013311264752423778,-0.00047711887377589285,-0.002371331869978989,0.0021451869135491876,0.018316770470520046,-0.003416791180462455,-0.009021577715055058,-0.0030317746581991364,0.0003722704470440416,-0.0024819010542580554,0.013299165619508899,-0.0024257998824472353,0.010597253437505188,0.011167375690107943,0.008979009488716378,-0.012730193353776871,0.003000984031464154,0.003098228659617221,0.00044815129980513155,-0.009581460636014363,0.012869137466874247,-0.024526399017115383,-0.008133520496211515,-0.009058924184207307,0.026872930732563013,-0.01156901372246453,0.00429926929902267,-0.005087217685324375,-0.012337319465060852,0.00574159089869951,-0.0007351397734837865,0.00023583866605968867,-0.008496142031233368,0.0014521919987024467,-0.006614912172430682,0.008211586358463977,0.008314183574830613,-0.0006396849673700767,0.020360075345181673,0.0005411420510183525,0.008475070177240565,-0.0052055065317898955,-0.005004401809579727,-0.01568468065627421,0.0016721684413293799,0.005954850562100044,-9.872189615086798e-05,0.019632621983716826,0.014481967637410761,-0.0041122518199665946,-0.028738611928758432,0.008296641657386139,0.010004584146562951,-0.015437318007164129,0.0003531106396887321,-0.006965937392927167,-0.0004249686484784743,-0.014835547455413652,-0.003833831568697315,0.0030841816125542314,0.010239520853462851,-0.02506170118806454,0.0029909690508800515,0.005903512089779275,-0.009104983640174045,-0.002244918034578637,-0.021020770223483788,0.0005720309611338634,0.004242790512388096,0.019119110927781107,-0.008460024143801629,-0.007840630405635415,-0.0008880287821270632,0.006608604668435458,-0.0066916199649052896,-0.006837817065320661,0.0034538889450362225,0.00602380238816575,-0.008798872638646293,-0.007024347903514961,0.007600840798401181,-0.008939725834613523,0.004975508020397931,0.027244349067408236,-0.004027122558369274,-0.010816822371526095,-0.012958159476311721,0.018453307293066563,0.0004218027072574752,-0.006477885232571408,-0.012502111503437658,0.012299507814492995,-0.0185380822348899,-0.0036848812090486778,0.008208783543247793,-0.011882432665004158,-0.01223197629909256,-0.005697980802736661,-0.0073112712166705325,-0.005620474817202188,0.002118474772988412,-0.01377021061628688,-0.012901300679397518,-0.0008905373468184706,-0.004512243339001986,0.0032348996499918553,-0.018772208506903445,-0.01392489017026255,-0.0035861071766588905,0.0002275359361164225,-0.010293783355967636,0.001712342610202646,-0.011973085443129625,-0.008347697677438723,-0.005881373703535763,-0.0002988805439909664,-0.010038271123760201,-0.0019373350387103011,-0.002199942248023887,-0.0079862518514418,-0.005741549180401226,-0.0015576117140717383,-0.00886767150041099,-0.020346833420734997,0.0133457607034799,-0.019594823656972824,-0.008616663902238779,-0.006925489241846557,0.0029155223554711493,0.01233566696072443,-0.010895743628155635,0.010480839201251311,-0.014383876021575863,-0.010636429996879856,-0.015732559185557972,-0.009034893877804187,0.012048240120126546,0.002239697543630446,0.004945964682387672,0.00888622948076914,-0.007005063399070334,-0.0019682844212445118,0.01529951342593158,-0.01801055106399035,-0.0009979057061898636,-0.011161171014099603,-0.01491012448372897,0.002879771351224281,0.011715814495909317,-0.003137867669971738,0.0025656647731319214,-0.0036788857672043498,0.003978868582112506,0.006355588460097454,-0.024906322836611944,0.014031781121456765,-0.0018789443715709322,0.013149674591146568,0.003969693074442874,0.013467274545596134,0.004988301120092431,0.019033228054979912,-0.004793703091097941,-0.013646620878834748,-0.0016169257257375171,0.02997206592443528,-0.020245225345652578,0.011892859517967619,-0.008716534209125595,-0.020144942574660943,-0.0043138063835755905,0.00548346231245786,-0.007202561288015143,-0.01243494935110403,0.0064626323789964985,0.007960187894860945,-0.007614535162386547,-0.00620831683074617,0.008819002412299477,-0.00046930122835448954,-0.013455998625658484,0.01693822682818746,0.0061291680729268225,0.007354004785528193,-0.02289703785201367,-0.012200827524786533,0.0008843263889181379,-0.018371384359422885,0.009045478752978217,-0.0013336263473538413,-0.0047445645418989655,0.008880686348778085,7.086633083649916e-05,-0.010882301589257936,-0.0010111670126576671,-0.01294414491489878,-0.016992546532584894,0.000271663847679758,-0.00854932827854586,0.019531553284785654,-0.0028659757557670286,-0.01211492290376958,-0.005875752350243866,0.012967348052502402,0.002429629618736896,-0.01056196249144247,-0.011323744344230967,0.0042741013625349055,0.004116997385801714,-0.013606488359153672,0.0008002622206942892,-0.014094439514187878,-0.01207623702822148,-0.005700200979987578,-0.006480191600079373,-0.010717040189349726,0.006854346077160066,0.00838818128752385,-0.010192095404770273,-0.0024999479878931104,0.009253650806327335,0.0061164865537600656,0.0057225043997606384,-0.0020337260609089806,-0.00913434250434176,-0.0032160682777504046,-0.007786867948393035,0.010250117149074756,-0.00700211524676462,-0.011712825030992939,-0.0041417742784356565,-0.0014838651761300977,0.005687857823826059,-0.019265400512425937,-0.006326487263865709,-0.009377807537581027,0.015448753227588796,-0.006004369769515865,-0.004328632878721876,-0.007244150997085537,-0.003961653195204743,0.009645245760488782,0.007372978433776381,-0.010118533257495689,-0.003778839202384451,-0.002181556287723498,0.00941937481894824,0.0011219597052700872,0.012762147274541112,-0.0019756386991148104,-0.01006285975374948,0.0009236407227933513,-0.0052801442959337554,0.0023601800163572536,-0.006894142712507214,-0.003737925780630767,-0.011784894512484507,-0.003349697530446982,-0.0004206266127146892,0.0006290494085198778,-0.01364393676959248,0.00034801035495078816,-0.0225415188402558,-0.00022685105384917214,0.005099110478269778,-0.01208573460314814,0.0019436806747359216,-0.006262603959058764,0.002137546654121897,-0.006497224945542116,-0.011360572786825215,0.008473508602922576,0.005733849054714971,-0.0004075469705729283,0.0024110794280748087,0.015893101830624885,-0.005311352370447274,0.011904985877710843,-0.008652375393605433,0.009117308405630534,-0.003332081725326324,0.016666609429685304,-0.013138967411768978,0.00992456928132738,0.004729335439876693,-0.005586486427039451,-0.0005710076095721329,0.00839847392186804,-0.0006087931293688038,-0.004090232285216515,-0.006087578706426732,-0.0076533364669510665,0.014847355446102157,-0.005252827519016406,-0.0031488794904520547,0.006130543808450048,0.02284079556149825,-0.004782391802614962,0.0074216805319995945,-0.001598693538485891,0.00403257841556659,0.00866828501229428,0.002331828851571407,0.01266354140816803,-0.012679460152745601,-0.0019008834688337363,-0.00556718443527122,-0.005718113563180513,0.004178907557489955,0.006656020146793084,0.0071849747879640415,0.011795965105555651,-0.0011252416586537727,-0.0069964228173492555,0.009831925634407506,-0.0050363630096012645,0.004742775206715198,-0.011866729216095417,-0.002291080163273484,0.021810847407162305,-0.006110892041162885,0.0009901026271396632,0.005910984151321406,-0.005444241438402603,0.00834322962498885,-0.009815080025174535,0.010980331121802954,0.00857739413823717,0.0017962900225884967,0.0035506749204690475,0.011145737688607408,-0.012610450185695494,0.005929400132068052,-0.00033795275957858924,-0.009735693733686483,0.0013753243757169086,0.007712946898007311,0.021051711941505506,-0.0005022689208287912,-0.009477313513419251,-0.00594209559475904,0.00447868164780601,0.026886156617671648,-0.003972893864113591,-0.012343215565551577,-0.002702544887079587,0.020202242476534647,0.0015436188321874462,-0.017362194329958038,-0.0064173190242808285,0.0008675868291940778,-0.0028282851731636755,-0.005160824643244336,0.010140399439649743,0.010891534298620623,0.0034083607173067535,0.01082110590615376,-0.00428778014373033,0.017380077160456683,-0.010372547988125454,0.009045412131329629,-0.005947028833166589,-0.006657072469428511,-0.022527652116900342,-0.001043191895298784,-0.01018959413420314,0.0003727084388380601,-0.013528202298655862,-0.020858803100610942,0.010664027021823381,-0.003263352007172197,0.010423348524442731,0.013569590071202934,0.01510507018958309,-0.004664202606888423,-0.004007695627060165,0.0007089972985685207,-0.03304398540893438,0.00842181266511559,0.00777046764744921,0.001493841608466139,-0.016996017910512855,0.004895359379020387,-0.011270798230360429,-0.003787073712704109,0.00176294687836468,0.007831370922393189,-0.01136953005361801,-0.009722697899142726,0.0052302774063347855,-0.015112282212796452,-0.01470034834196076,0.00487257854059045,0.005508881990414924,0.005146881336496974,-0.003716817613070302,0.008024579856217476,-0.022539607260804107,-0.005439758620828993,-0.0032877956527304518,0.0053044280721916215,0.001193556793383805,-0.012263302497782543,0.008236413803074343,0.008201878600045556,0.01545502627125365,0.0026083001966648147,-0.008874424886119354,-0.002473681093458176,0.003108341574332176,-0.00033685443638367,-0.004074403312331778,-0.01966644348926231,-0.020794891924590386,0.0065567571301566015,0.003088687333579083,0.0021086971519942697,-0.015531775188295759,0.006078180932037083,0.018103226809904657,-0.005199649701824835,-0.004155675804225047,-0.010575482686929916,0.004961795673915897,-0.002736005886145803,0.0029983948460178727,-0.01201542498278241,-0.001214067279471365,0.003027614635161707,0.0016846628574887408,0.015597779474074562,0.0017607251455564006,-0.003479746633593199,-0.011653952131046372,-0.0014399115839297822,0.007538763988958937,0.009389783316182187,0.00399539626164588,0.016499222026339973,-0.003370963966360189,0.011228778424614519,-0.004913254072277266,0.008276137833234085,-0.002722534365228301,-0.005679631635064494,0.015860975862034787,-0.018886268947235177,-0.0008050215127899187,0.012351171650927957,-0.006299122615241465,-0.015127229707533316,-0.0035950114998175393,0.006978156648793041,0.0008570546161927818,0.0012534185626944122,-0.009420807263994139,0.01133353695905316,-0.000989394789864692,0.009720665834330545,0.009328533490155024,-0.011533828427146916,0.006122629964036405,-0.005121093609851078,-0.008880836711633595,-0.0018703935369964468,0.01699688663659489,0.0021484904708044665,-0.005484865071037604,-0.008018386838120846,0.007025897283885477,0.018269906045928996,-0.0023245477613736978,0.006597805100366792,-0.008435516260619481,0.0012257251231910576,-0.012306046153834417,-0.01932275096105285,0.006591574394318318,-0.013086615685828128,-0.016066463894044758,-0.00857236921770807,0.01597230344880881,-0.01727652019927268,-0.003683880566241604,-0.009781827000713023,0.0230835137085295,0.005930829191728991,-0.0005897933499969198,-0.003873186153101986,0.00371644315466943,-0.004724286026702771,-0.006060176808816097,0.0019828899333626895,0.014808611405059968,0.00331040104697391,-0.0007416192271008798,-0.004206194537112806,-0.006601535162966741,0.010699139729578372,-0.006809381024739064,-0.00010564114409608149,-0.012992173987036533,-0.007710379604698266,-0.013431132407091305,0.004391804936655443,0.015246267385173862,-0.0035774660493330898,0.0222485770790628,-0.00594741998531701,-0.01708235191652851,-0.013426610907879081,0.001535318524860793,0.005969654594781758,0.007729008411043989,0.0008138848382634847,0.006207155792097784,-0.009945194931820257,0.01200914673575862,0.002124147234634262,-0.00486278791799384,0.00330884913281971,-0.0014204126026652625,-0.00466255777828334,0.001584160979061105,0.003194270824504556,-0.004342511792034033,-0.016738327002182463,-0.010188750141573315,-0.006796646343761847,-0.006306000772349583,-0.0033002711477503983,-0.006898815268202611,0.007563246556696311,-0.008178562083002263,0.0036615780856371393,-0.009257224747722467,-0.006953466682619893,-0.010192960800664322
-0.01707902624388056,-0.011371033257169198,0.0018968938137757458,-0.0009753314742945158,-0.00010136936117574663,-0.0034462985200420016,-0.004756291930137704,-0.0005075495751988319,0.00043610239610740817,0.005248535060509259,-0.0027498485190560126,0.008196260594820513,0.0230216867440571,0.014212408315698777,0.002420588346529824,0.01850562195105184,-0.005343721804698967,0.011618287319348303,-0.008521877999042445,-0.010764315159251532,-0.010377588405747656,0.006872682210539585,-0.005903266281897055,-0.00043941075626263834,-0.011063258286051827,0.006601066496610781,-9.179714225693788e-05,-0.014495060401799237,-0.0004129059230468661,0.004286888833822294,-0.005260278781503827,0.013933149466522054,0.010256486139938095,0.003392085562830577,0.0019183578738668594,0.0035055836435853,0.004113543734274567,-0.001882814871218996,0.011440838399904694,-0.0067805112216956735,0.007045619436263984,0.0033951531917950214,0.001568565328428799,-0.002823572767560055,0.005535720110393799,0.015413334622682504,0.014562256865517171,0.0058842723642689295,0.005102806046975319,-0.005846694025313786,0.0020465636487574774,0.01055298374457284,0.005247168983895082,-0.009516856753943847,-0.009770627911299873,-0.017810883128969755,-0.005874326657363425,-0.0004554537752523405,0.006244529155716995,0.011596248217739705,0.0033454656306748133,-0.01979051925513242,-0.014241116636228355,0.010475395351451863,0.003440919391112549,-0.0023344301597521965,0.0025475257489788665,-0.000610842845268902,-0.005165181266635829,0.0036102866121239395,0.0078057238917173385,0.010240506602224158,-0.01859313163843675,-0.008985898765308697,0.01626291574944174,0.003204813905575111,6.022750573609262e-05,-0.0011871864987264165,-0.015128356720587866,-0.01904262620412617,0.01042622011960997,0.001867042784461017,0.014828756705797506,0.0006380024729605905,0.0036697268799669586,0.013718173006074372,0.014046799425417162,-0.011501357756923958,-0.007430254785766795,-0.007001692199297497,0.008852656735517314,-0.0003405094598417952,0.0021619047940509765,-0.009361855042396368,0.006187327299725765,-0.004775196674982323,0.011472075458348545,0.006657576054611956,-0.01870682497626781,0.007465809557691287,-0.013512540856456274,-0.003206881508556938,-0.0281108207211995,-0.002388473531666046,-0.00716142085984825,0.0024903561640856483,-0.010371125061105086,-0.00675341236485243,0.01421002730402018,-0.013406448607570095,-0.0063337024274876565,-0.017593441235906122,-0.0024379631855423254,0.025412906114604252,0.009152607549026007,-0.012916783961293666,0.004717830824305669,-0.0003788149065483097,-0.008205602664864843,-0.003987571259891758,0.00869053921450265,0.00263791060877351,0.021127264470045242,-0.0014565378457437321,0.010531000774058531,-0.008179301289087688,0.0028014540760000605,0.009388399026592002,0.007590644123226697,-0.0006607520365927533,0.0009487533854562373,-0.0007892694610084774,0.014465424393244075,0.011593214932040838,-0.0074285646834979,0.013723223683805064,0.0009840370876056156,-0.012608033732689271,-0.004904664353905891,-0.015242591885642014,0.0013526469410245355,-0.004047207299164222,-0.0006833840193304774,-0.011576679905774129,0.004199835758064752,-0.015625644199124558,0.0060224592483417,-0.007312142946145594,0.005420873186171078,-0.0062251690484865264,0.021863834265818526,-0.014671669849312088,-0.008813042672917507,0.0034604514079915327,-0.020633651647688166,-0.009421325542074954,0.008739193381192683,0.005917782059944751,-0.004112435853433156,-0.01912036826295616,-0.004380963055053871,-0.0264157397332754,-0.0026458889701645757,-0.0034244092876685697,0.0036231994861767565,0.011946806942345506,0.001637130485715325,0.0060243889704588004,0.009991862786381126,-0.014418093192851133,0.008318868432572958,0.032149468525780885,-0.001370737062946072,-0.014233261472226522,-0.01981354038943455,0.008430320684751193,-0.0017093877540612324,-0.004636941728857093,0.006630614983649089,0.005934452615367325,0.011178717164213118,0.004966735476197888,0.00011178482354451188,-0.010343539875181449,0.0003467931773723742,0.0010081461352155004,0.008988897527068605,0.006280420239356498,0.0001519142665020898,-0.0012411715243868173,-0.010845479853508812,0.009468060345563998,-0.008894834555131974,-0.000337777165759988,-0.006755259048950336,0.007612804274307595,0.0009941657460195,-0.011604389332024503,0.009473030298957215,0.020700775512372347,-0.0009684351817334401,-0.011852318787755738,-0.001346296342536918,-0.005765887899641036,-0.010443092470780528,-0.0041134436843342425,0.025371829296230552,-0.0018970591058301307,0.0018720537260933602,0.0014231866144591987,-0.012731464200310098,-0.007957691694377976,0.016296284157511675,-0.0014891946542128658,0.007838142900670001,-0.0019971006358573628,0.0029513616252744633,-0.01450127152258158,-0.0006718601074950526,0.004866107033544065,0.008314086838573969,0.0013423932351852774,9.799431646822693e-05,0.010746716045318629,0.005156780389829419,-0.013052676954397237,-0.0014823458745459345,0.016401696963251017,0.002286244647471429,-0.016835635070104556,-0.021274782117521644,0.0038159771724555346,0.014523001513200098,0.013481130603201268,0.01663381276042033,-0.0044471070903155975,-0.010533012496280018,7.980599603765029e-05,0.0027889984319695873,-0.014922614211237422,0.00959022680122859,0.010231006743099605,0.004096991950076319,0.010810980823981475,0.01645640408034006,-0.005311693129353391,-0.016454193197060516,0.002388603681002909,0.000254011512046237,-0.012500486305096018,-0.0018024019620699874,-0.00014025626238244735,0.006889502656497681,-0.0005343972305414804,0.004962635650356449,-0.005177708573660282,0.010907962487033863,0.00839059362412191,-0.010887316754761133,-0.009294479305205548,0.0006028028833245495,-0.010535327379178647,-0.0016330158963837485,0.0017809860818094872,-0.009193934877659536,0.0073565535634326235,0.01368559726690871,-0.0076529841398794325,0.007337118731295712,-0.005054178063297175,-0.0014932912428219792,0.011621639786322066,-0.00540402467073747,0.005707315688451887,-0.007954954930863558,-0.005628050343399463,0.006548943151790297,-0.0006321280526744061,-0.014123069485210075,0.0187191559553244,-0.012251830031441691,0.0005974918751450218,0.0017852609799671173,-0.002645820780120153,0.008344162605874405,0.005838746990206921,-0.005544205145195122,0.0026281676759027494,-0.008552144310048944,0.012805894415040984,-0.021349718791480017,-0.011633842666580954,0.009663206159047436,0.01832369121215676,-0.014150697085384516,0.004737053422200955,0.00015948886333883627,0.006252584127166741,-0.007001428030065655,-0.017760207189327047,-0.012169648116308706,0.00045394441264937844,0.006264484874891876,0.001595727190481036,-0.015367471298525176,0.010289037129788384,0.017155793135625323,-0.007567404709279277,-0.009436990032393526,0.007650661795652727,-0.0006764096934449244,0.00975797029310336,0.0030893826691293456,0.0048580861729773505,0.006815682649637426,-0.003964107274693476,0.02287771294177754,-0.01597222696780193,0.010984155664011643,-0.003058608576753708,0.003798513544211306,-0.011077502978706393,0.0013629495853941637,-0.01394148805393347,-0.014403430320933988,0.01409064040761555,0.006456761757765003,-0.006652512057060289,0.002435837468553159,0.008590763355981983,-0.020810823741099216,0.0031656812333171027,0.004345918374292071,0.015920163009719074,0.01376034381524836,-0.005093227909232509,0.006143949599673204,-0.001044199854028268,-0.0025653102649830432,-0.0013864012820497013,0.0014420403154890972,-0.0006958682166271774,0.01937615947193608,-6.352792907664218e-05,-0.003759387579121414,0.00360809605036117,-0.005200365369825709,0.014658434247360649,-0.008993578210394716,0.014094257965498217,0.006753535813569874,0.009278183311347122,0.006185538705593738,-0.013844256888401511,-0.0012713141717619976,-0.009777955837225837,-0.004773231714664749,0.008526848775671078,-0.01388031221924556,-0.016618685581275165,-0.004533994527852994,-0.0005038139834354032,-0.011319519384891018,0.007188153781823914,-0.004106451324778865,0.013114890853131042,-0.011224354340141225,0.004443855646839172,0.006236577184832918,0.007197764918004503,-0.0015312366703075142,-0.0032742501254651606,0.003596730494473677,0.0026159987504263712,0.012253016167274984,-0.0037113099051309553,-0.010557848977540729,0.0017845132925249799,0.006724488475696008,-0.006832277585971988,0.02291712690275613,-0.017811131071078543,-0.005994184495345142,0.0022060660789805227,-0.007700365646196295,0.017986740656049514,-0.00023206279143350494,-0.014621784490803055,-0.001604195582792752,0.006040028607295523,-0.0035724914610116986,-0.010318372151499097,-0.00043668392652478554,0.0008305707470367122,-0.019195062232491397,-0.005137833006337266,-0.021844767818440813,-0.0029011600103443147,-0.004379947108714973,0.013530221390381153,0.005601161854717947,-0.013669192599190041,-0.007307420771739753,0.0067678183233205545,0.005868412995164495,-0.01788897442702118,-0.005900918224329392,0.007674415299962195,0.001210352413074618,0.0026410382531901256,0.01763670652856141,-0.0012273437742026045,-0.00012974330298542398,7.33518654632272e-05,0.012795911052231618,0.013887475164004928,-0.017517783031072764,-0.005915391820430674,0.008607442512514005,0.0003258880672860228,0.007804044440603534,-0.011908062139039737,-0.022560139811469232,-0.011827107303354598,-0.0056249382059543164,0.011522659764766715,-0.010444800793860167,-0.012901081931748746,-0.02415190326953314,0.0033330828917614765,8.873357545725256e-05,-0.012085707243193286,-0.0029319288350761323,0.01608007986290787,-0.0054294950219362205,0.014497499659038139,0.009701871203589,0.004356709646412026,-0.007083744333952424,-0.01790747475358031,-0.005115547085283541,-0.008357841200288969,-0.0053424287728807895,0.02653231504670732,0.007753991425779934,0.008126951161430319,-0.016065589905450272,-0.009596896968051737,-0.02458861168294919,0.020074205675249913,0.00035968305696692387,0.014829775513199278,0.002791136611310723,0.008482529506979036,0.002172228306901255,-0.0011969503653831953,0.0005303512376275921,0.002801351161746568,-0.007972111337290986,-0.0046783070589477786,-0.00017403474364953157,-0.0036043595760617596,0.021656552504319575,-0.02254945556489325,-0.0018573135739690261,0.01655327418896293,0.02063805159786563,0.005324789440504153,0.006914355494875536,-0.0015946435567188878,-0.01568196723082364,-0.008348075188422385,-0.010871213492468184,0.005203071867554138,0.003008054077388031,0.0013687853135821643,0.0017433207003570892,-0.005596851335568326,-0.005830105945963625,-0.012196922170496846,-0.003547798468982396,0.0017515096671497962,-0.0020373902394138776,0.013577693222757078,-0.009263625013701305,-0.0056059398391570215,-0.020611064604617303,0.008392350991703813,-0.0030944390894923797,-0.0046724640212302245,-0.008144095177122888,-0.008847396930408591,-0.011479138016649218,-0.00783930934577001,0.0111063332369544,0.015632671840346786,-0.007158176816435682,-0.005131920715123138,-0.021268068112699344,-0.0004096897856201852,-0.02247252355384853,0.00225095046983453,-0.008501832895629781,0.015314052357709568,-0.00595266192568801,0.00581113050604551,-0.0010217480864175548,-0.00962803516714493,-0.0038413577290184243,-0.001069676654908152,0.004942456925852199,0.021198491898137484,0.0034359217097738215,0.004180720122151972,0.02118465619303673,0.011093596597486014,0.006889976170821497,-0.021702288659932872,0.006693709618511383,-0.023973171278258588,0.025105581469302963,-0.01300340724471215,0.005700804917214162,-0.0032351998040518587,-0.012139443839933844,-0.01704398105142082,-0.0076040581914834345,-0.00029392412597298843,-0.0005904557874047678,0.0013267321680420269,-0.0207124509536062,0.01931076923603825,-0.00740606092504987,-0.0008340769217561711,-0.006783110032164119,-0.0034833279855371094,-0.0004761202857907924,0.008631756021178638,-0.005242001424853171,0.0058937127611610515,-0.007133951261347138,-0.024005301200329676,0.018205713222628806,-0.004187910478424108,-0.003569139496983175,0.007074039719088318,0.028436182232356277,0.010189226964436096,-0.004411693625764534,-0.000747712155876597,-0.006965249193193777,-0.010398807927832836,0.0023144678401593906,-0.010893557474553015,-0.000982852825240316,-0.0025145760713815362,0.00823239598110469,0.01356206639129738,0.00035141214023880587,-0.008256941529293068,-0.005044615713490232,-0.0022230378927615467,-0.00590232916833884,0.004701239608915284,-0.0005576145853392666,-0.008211331644547475,0.0012813926185793933,0.006886414381150401,-0.0038577665237519944,0.009683795077426921,-0.011724178859721745,-0.0012033643565911314,0.007221040901443804,-0.00032256760939036266,-0.0023721021230914915,-0.011134560290528527,0.014256875656195475,-0.006441367394023262,-0.007855291306452029,0.0072208905528127875,0.0004138723349332473,0.008401540327472765,-0.005103981307944548,0.014326983822161769,-0.009039276841252202,-0.010172365308657531,0.003293279439309879,-0.0008925585970507361,0.0043508166050453085,-0.008233797318617762,-0.0021069184281159357,-0.009594654439320904,0.00012324783485478992,-1.2913616198094569e-05,-0.007973395960926433,0.005571261557121631,-0.013969673414091905,-0.0009268205960391162,0.004760223358864939,0.005739574511756103,0.0031308422075855906,0.004961844523153553,0.008992273592395178,0.01132996224717155,0.014655893963767552,0.00612055982385688,0.005803951886427641,-0.004984528134047325,0.004181402458384586,0.006509199852305091,-0.02026600456650551,-0.009687119825564876,0.0025476409679507732,0.002688729317814865,0.0029791287301342523,-0.007343329506297884,0.023924005765500692,0.004631935626076715,0.0005406739699609473,0.012989539392232186,-0.0003956738204386639,0.00018171141665180635,0.00615815463682189,-0.0025702163667782503,-0.011361552472526624,0.01879783178780584,-0.008601362274981966,0.00880864875551056,-0.005427505728782172,0.00037803133877199925,0.005800055624042949,-0.015434914069324152,-0.007534338709335502,0.008071770995151661,-0.01184930960665436,-0.0010406001238834693,-0.005432676268720781,0.005419508101222407,-0.009417980922441225,-0.00441999732719285,0.006516693798039285,-0.0020081985376709547,-0.011818235339794736,0.021646255657951734,0.00039023837223357057,-0.008117084481076295,-0.0027439958331784194,0.016963252257021996,0.0010231706161502874,-0.018906443288908382,-0.014838869555126085,0.0063396457555405005,-0.011896264779076347,-0.0029701945168420073,-0.01615558794631102,0.0016379756721958804,0.001750149533808282,0.009764293244576944,0.0031513378583706932,-0.009554570206383575,0.007807446888309853,0.00519999645392499,0.010196049075047087,-0.011465575185846738,0.020483590185025595,-0.0048012028279084,-0.005929250569203425,-0.005007913360549455,-0.01236757748068581,-0.01034821785581427,-0.0026066810672296164,0.000861738143918117,5.437840831072403e-05,0.0069179233844941365,0.004090983713204142,-0.014955881958268425,-0.0004821709747393916,-0.0028691108058192414,-0.01774322486454186,-0.017919523822149796,-0.002870535113524365,0.00405840580771846,-0.0036854491984817067,-0.0007206812184954686,0.004929986869127046,-0.013078702499152016,0.007234496774808556,0.006321226751634096,-0.010885451810094345,-0.01506747408167313,0.004327023493290743,-0.020604554026478414,0.0019739485696697707,0.014065168139397476,-0.007165039351801202,-0.005261719955660069,0.005218154274582544,0.009173980531855813,-0.011736833342576263,-0.006911860333699452,0.005790335019323212,-0.0006592660933228322,0.004852122946951873,-0.0063225775448538845,0.010858368521550409,0.012134560203024902,-0.007655196554674711,-0.025586895316633874,-0.02493593894694927,-0.010584777207400739,-0.007317858912705321,-0.003826517468210132,0.005711676572758751,0.0017613925747528218,0.005937290731095508,0.0030729499707185938,0.008441815230079171,0.0013846185010951198,0.0030390779846418666,-0.004770594872543994,-0.0029201163875223505,0.019610892777072862,-0.008785629703027497,-0.004568360069835812,-0.0006001694186365546,0.011458726257296254,-0.004717048620089901,0.001900980079145594,-0.016931538497393196,-0.006536850212914965,0.013025895396076842,-0.00928938569444591,0.002548644543847521,-0.00953515914797961,0.0020186963197615176,0.0015344001148499353,0.01382603500536525,-0.001451834024131218,0.00967930555977388,-0.004610605444451361,-0.004124792277333523,-0.01050123370559001,0.004347945527853284,0.0200202167651097,-0.01082588448597368,-0.0011555167082272304,0.0074087892437010115,-0.003531047917376273,0.0019815537258669343,0.008214776152997316,-0.018482757566895665,0.0007985226716775557,-0.012223079659582019,0.017238771685484412,-0.0028718740517968983,0.0005434796662985002,0.0010076248381812973,0.007737869854028601,0.0037440567717735343,0.005422422001900553,-0.009275558615189947,-0.0002389300419371118,-0.005007006636452962,0.015509566772506003,0.003582345216603492,-0.008824850652737092,0.0004149254113510104,-0.011539203694685316,-0.0012110947115116207,-0.009301026915627052,-0.008223620098985248,-0.00630285954735937,0.010357635358760806,-0.004493525172214997,-0.0163943568510997,-0.0051394265702386635,-0.017257498055420258,-0.013556723418724118,-0.0010235834494625082,0.0026663130619523317,-0.012369107099475819,-0.011918164536268996,0.0015341262869640639,-0.00865829036433508
-0.0008724278580512439,-0.0068723168113852175,-0.0066423471108776515,0.004933028538897845,0.006741496406510473,-0.0030240856105181067,0.0006381400066163876,-0.012576420252576792,0.01898469020921868,0.0040522981332876875,-0.007266178929428358,0.002081788728669917,-0.008688180843297037,-0.016245101534492462,-0.005771219451720974,0.0023622231078563195,-0.009889977561779426,-0.010284063945459351,0.004882999470364912,-0.008549676068679339,0.005385812946939479,0.0036612712058106986,-0.016873036145154296,0.0018322978758043553,-0.008185643442199245,0.010228364635688419,-0.009485337089896887,-0.017773061085826786,-0.0032125835147891082,-0.00791187670620982,0.018149008408311504,-0.009493654165733714,-0.00041778475449149894,-0.024362917235903093,-0.0050450589124913575,0.010321354564108395,0.004044682905191289,-0.004284535492012974,0.00022178900303639138,0.0015846470513070695,-0.014621912933658904,0.007237748116229218,-0.017855819006562242,0.013661568426589263,0.010309479181234225,0.020771795202986082,0.012862918012364347,0.011487989683767746,0.004944046202206344,-0.006404837624816215,-0.00842860680702695,-0.005454438513629768,0.010671662603470937,-0.011374601035066396,0.007231642500609604,0.011769064268628091,-0.0031560719147840986,0.0033986549457661252,-0.006252361050025537,-0.004336075417275212,-0.017664677417876074,-0.0007373119625692279,0.00985584687505878,-0.003100667580979699,-0.01876151821830918,-0.005480450299225677,-0.003557714439197934,0.0005446253631538595,-0.01659013001396232,0.0001560607694473941,-0.015096411681181499,-0.0005767957244680915,-0.0018007996224640417,0.01027266768405349,0.018376154960703293,0.007076843197624778,0.014068610493415519,-0.0041785261547208925,0.00676943050409546,0.00014804120345488598,-0.013571680014637412,0.016307150368783052,-0.006621814907841437,0.004448610831353798,0.004427912514642893,-0.006511438144401269,-0.002641133302304056,0.0011556253361420785,-0.004257009424905927,-0.0018858767358051192,0.001334481156095193,0.0011050603123103511,-0.0033015219827185163,0.014438282167729213,-0.007683335343178841,-0.003909024630797612,-0.012608934819398489,-0.01300875043841448,-0.022677059816226464,-0.0025077566850334873,-0.0019264987981646316,-0.01762566613454378,-0.020522592158779548,-0.005115460974806202,-0.002543711146135529,-0.010801475823392685,0.00562446951983429,-0.0014549552594218572,0.0006580630541715717,0.005099013458439298,0.0017457131869681019,-0.0142763079642713,-0.006206781871699415,0.009072852033142457,0.018935471243165886,0.000166531415641517,-0.0012902583495457264,-0.005188848628792633,-0.005477494189554628,-0.02828096288948558,0.0015318093073454352,0.007715269433584168,0.001648925112668769,-0.00195674826935234,-0.0061784102112167685,-0.0034969543225577466,0.0016050226001789137,-0.00109628791099297,-0.003949874477882255,0.005328638587925292,-0.0003147580585567477,0.013462283060170898,0.008403923978702337,-0.013948080614059357,0.013585922451379184,-0.006032060149396152,0.001275991076913007,-0.0012640572281642198,-0.014008780896172886,-0.004167953252716656,-0.012853938674722138,-0.010916181373527279,0.007303221111357387,-0.0046317941777964805,0.0007897546747715995,-0.0007234727885766241,0.012936290367549869,-0.01748919326861112,-0.009929975584542186,6.42322875914746e-05,0.014036264973049863,0.004147137074792525,-0.010009088950471236,0.010746648600022748,-0.008615992089671207,-0.008329752332075946,0.0015679959887903373,0.023691680646125816,0.007986716453271682,0.006250544016602536,-0.02334517036692964,0.004740997305354415,0.0009147590754797135,0.0032771975380916645,0.007006762808454398,0.0026449954124085594,-0.0031011456361589042,9.530410297862405e-05,0.007235977174543956,0.009963004868670283,0.016297688697703643,0.0018166959417730197,0.0025710521676512105,-0.0020813320120878337,-0.0013729015231545676,-0.0008111710098392539,0.007750304230590651,0.02062721371328972,-0.003255389010942325,-0.013786046889821933,-0.010647613883549449,0.013322182354213606,0.011177793783532885,0.0035827607487000195,-0.0028307818466123762,-0.00413587172386344,0.0026973800542286273,0.0039705969121893725,-0.014408113854922227,0.017185818621678416,-0.006968177671724257,0.007699230556647558,0.004412337675826592,0.008066592628359494,-0.02001510065015323,-0.006517407732562864,0.021606961097156038,-0.016653279227336705,-0.007054993744637242,-0.007645947010090438,-0.005591412490215854,-0.018495639491692327,0.008978126993442134,0.0021324307701572603,0.007455526610844818,-0.0018745291314170142,-0.008776758845817892,0.009752946842501194,0.008226697303875511,0.0028893949109451123,0.0070738880577377525,0.009693183559212828,0.00038520020622126753,0.009764497009170356,0.0065445567184344265,-0.01007004674877655,0.0026858518636932592,-0.003907307364589098,-0.007858348372757588,-0.0028246064760655883,0.006378323269108788,0.004484713127140462,-0.003483436469672203,0.0008780670872262924,0.002702064858835563,0.008654352435186887,0.0043240952952410565,-0.0077245150020058394,-0.0020202121062106344,-0.0006055745611961177,-0.0008936862964257524,-0.013271730717800946,0.0005283132438126947,-0.015613404989918327,-0.0040376581804856355,0.013687977537163033,0.005279568340577911,0.008225338882396042,0.008281161976259856,0.003838758765498474,0.009011129971565317,-0.017559237248824248,0.007506938898501704,0.008542240974308429,0.004179137894538439,-0.009299198623492912,0.0038026367965740366,0.0059543798981080585,-0.0011951428520446533,-0.0016659473983823745,0.00777791451648115,0.008011955854968885,-0.006683502080793892,-0.0021490822366842205,-0.004999312286751641,0.00803086848228234,-0.003965205321625311,0.016224256933191798,0.013878094647871984,0.007273833399395666,0.004560490387041416,0.011435412202742523,0.005852978071900612,0.013781384968285557,-0.01307739332903672,-0.0110875881950924,-0.012512500502265652,-0.012207693718678332,0.0034220469929849215,0.0028935762894910064,-0.012110845558841465,-0.008418633983474689,-0.01739944481782015,-0.014432982426915153,-0.009153901911867211,-0.008641557023532236,0.005264580178250008,-0.011016394649970788,0.010320394280788774,0.010193494955509235,0.009772544755228865,-0.018690634097059556,-0.01173321953185952,-0.029544592246743304,0.01189821483627377,0.006288876068365308,0.005088869584195388,-0.004642877919302292,-0.008381499979765934,0.004737001666126203,-0.011557688546441115,-0.005058129192863355,0.007578244983976451,0.006100701890215445,-0.010547000362657655,-0.00920561863341371,1.84280186702786e-05,-0.0015700674525795442,0.009555252515953336,-0.006942702272515993,-0.007775738929606433,-0.007178768561659334,-0.010354336415605432,0.010226689351327272,0.0008510934120720425,-0.014016516903038023,0.014889721968254891,-0.00028607626876350756,-0.00615566176807946,0.007144466064580852,-0.020604278955774824,-0.0017258976411141556,0.002476466177238496,0.009917346538598642,0.02440149233033243,0.006759014393905534,-0.012842153623681102,0.013382441011458107,-0.008691946813777702,-0.01480729857105221,0.003981935403580593,0.013619469777488768,-0.0007687104338306794,0.006924352338842174,0.012673635012025307,-0.0023766877288781763,-0.0021872041342659667,-0.015376274484088832,-0.0008543174300597686,-0.0028837815994163115,0.0019477152990360572,-0.002827344124102029,0.0014810028050945806,0.0029506687140819802,-0.0066143672564358295,-0.010122294111177526,0.0005161677478147414,0.005876415356553126,0.00010304112475903061,-0.0029907702689738317,-0.011349290784708393,0.005753118351205125,-0.014045780684404444,-0.006320588607347294,-0.010613109838797713,-0.021999250565615063,0.007840962128294424,-0.010109529165914547,0.00339975543772959,0.028657181431397033,-0.006490860993497992,0.01991482721707687,-0.0036131376376573273,0.004428745948535911,-0.0173161543909937,-0.0066223175326472926,-0.009060799227810978,-0.004439177353414876,-0.01721620551167577,0.0015115068387418884,0.012381330952096897,-0.009429675337404813,0.009654890557024358,0.012731648434248097,0.0035441737928771006,0.0026472155782348667,0.0023958984778195084,0.005931355914973617,-0.014950657710040165,-0.0010646935375199923,-0.006704342217485586,0.00821087084428774,0.011606772049883344,-0.0017494460766965068,-0.003466300074755213,0.0030477954902625474,0.0029279204911835015,0.007491520983303828,0.007047816599745856,0.011937256577786173,0.011143359429126627,-0.010340265347404946,0.01401509218319401,-0.007156357725080436,-0.019014506332216824,-0.0024057551053153284,-0.008450984334487457,-0.005485788385819166,8.82581918021242e-05,-0.01322337149394855,-0.003829339099358916,0.014732541828684711,-0.018040670735173386,0.0012459244397708287,-0.008705260727957775,-0.011168670037059682,0.019251055176403496,0.018185310367764756,0.010980981832148642,-0.004927879442576962,-0.0017331981607748314,-0.0002725700008584321,0.009926060480628437,-0.004242767217881136,-0.018865370692064606,0.014317885674605044,-0.00038225787617409893,-0.006019665322476756,-0.008026752523477185,0.007162817692091628,0.005174257501756711,-0.006362938714097201,0.009878773308696992,-0.008442859661384137,-0.0053661264719372095,0.013326487316578935,-0.0040648231139165806,0.0059706918601223884,-0.011549535747416323,0.005671992292329422,-0.003045508300114709,-0.0018814250219383146,0.006778334916849336,-0.005793880247438013,0.0015678141393663545,0.009404488049424509,-0.011658638594935452,0.005613802164212589,-0.01401588918145016,0.004466339214110112,-0.014290828206369805,0.003410813350797008,-0.00026800733400526,-0.00425986683678316,0.01635035882095207,-0.011624798769659671,-0.00530166336279307,-0.011914861017427718,-0.011682770744833875,-0.009143696776833993,-0.014929567000764846,0.0034090084348071857,0.015698596366891387,-0.005035003394833303,-0.0005009870680434413,-0.00745606432745092,-0.008835162341711299,0.002361257751657784,0.00933625867728098,-0.00895541401510119,0.007160007717255902,0.005373922238139445,-0.005987428260144726,-0.003907930006227707,0.0010657909885172228,0.005455807797673407,-0.00807028234146997,0.0074966351939421425,-0.0013965049842158419,-0.009435688663062948,-0.01655328514196206,-0.008880694195742198,0.01477637309527956,0.009012734517068832,-0.017630947555037454,-0.014629993144803899,-0.012569338675380976,-0.014755712370704471,-0.0202997087530088,-0.012955757725281248,-0.009022526999630057,-0.0021498394339977494,0.0018676597111140596,-0.01959901396903953,-0.006004628843480762,0.019579023692185938,-0.0028578828929018015,0.007176712251563101,-0.009629310013163304,-0.0003213116436125471,-0.0015597145588560758,0.015207208613327469,-0.017381698747588978,0.005409278851046099,0.015955025331827973,0.00461127603733846,0.00337643096803408,-0.0051458858927010825,-0.010935402042693387,-0.011349837590266337,0.004923006881503717,-0.007224086054066928,-0.002222824845042472,-0.01084390712431255,0.0003317392609909931,-0.006411207385324879,-0.004553592305023609,-0.016240217350561068,0.011612998272354786,0.0005372358383525304,0.0043293668048498294,0.0035908919506354715,-0.008564383794053583,-0.002525022601772966,0.008750408817802539,0.016815395727564356,0.004196780368745984,-0.0007340002652094002,-0.004174928086150616,-0.03224800189312614,0.0018418483218158416,0.010147498550662694,-0.002413147286632108,-0.012882849759800192,0.008789741222126637,-0.010619066623436826,0.01587229935146926,-0.0008892009508432179,0.01347292026480832,0.005694596220609171,0.0140735037709977,0.0021162830878885147,-0.0017429310813774945,-0.005446821572014762,-0.0027236532814840886,0.012821368160049954,-0.009239787889844357,0.010855734763549599,-0.005619810581999757,0.001264332846168341,-0.005914036624715852,0.009263402244033143,0.009336278060836268,-0.00037700456135136097,0.02318607401401584,-0.005627465678319069,-0.008807314010126447,-0.006566280735273885,0.025639311199002823,0.000449866909324427,-0.016067952665402094,-0.005691804655459532,0.001567651338617401,0.0018778216754637644,0.007113943378239264,0.007979328791866153,-0.009375324225143275,-0.005582316332379162,4.07907149017153e-05,0.0009203238188523723,-0.013541698887029524,0.02108923910427089,-0.020967949873805545,-0.003965022669374912,0.008012099070485142,-0.0023541787802767123,0.005334219306750549,-0.0007106507909035147,-0.00841991188340143,-0.020003949226347708,-0.014153842958195825,-0.005434959357558423,-0.001492619531457315,0.011814084050413426,0.003364662199767758,0.028332785606156038,-0.0018082962313249829,0.007564846545236137,-0.00702259277500655,0.012526072171229068,-0.010367176104724965,-0.005074189006904359,-0.006987763629756701,0.007762806224655729,-0.016483077735095702,0.009235339258761686,-0.004361723753056738,0.013212105217779853,-0.008414397336832441,0.001598887285315085,-0.0011619461649594765,-0.017903019838084882,-0.003840660636014924,-0.010742138506301473,-0.007998150406869605,0.013791794587697555,0.005728337737704874,0.002068001703316224,-0.01612961419191472,0.010528413947844758,-0.0016429038294883294,-0.0030779054479672303,0.006870431187550228,0.01386437804546252,-0.00027537183194094973,-0.00034292337049043734,-0.010467520328299968,0.004976846171869527,0.007991197644891302,-0.007691127689246334,-0.004950243417267903,-0.007365347180192221,0.015902629003115818,-0.004236537121652651,0.015004480431391241,0.026961476711340696,-0.0073773497532662715,0.004727815176081248,0.005826202694202151,-0.005467804578116702,0.01892061734391447,-0.01060489306780185,0.012025586047099104,-0.00198388613540311,0.0021151486352599044,0.004817288813452791,0.018266525148579335,0.014658429735314905,-0.006054847811312296,-0.00836098541218718,-0.014216442683913555,0.006992342144316161,0.0030576809523437842,0.0024886532914585677,0.009977538837277181,-0.005523579655058787,0.004994067643626202,0.011214317072153902,-0.016818087615215537,0.021603016516398284,-0.0013594280586215059,0.003971719239434036,0.0014106110979895713,0.002591531496829787,-0.009329206020158196,-0.008122058814106771,-0.010035633941476352,-0.0004435758129542336,0.002671050742106059,0.022776471495340348,-0.006700970958106418,-0.0033395011337409566,-0.005995768552307234,0.000784042245496481,0.010507645393776872,-0.007989264212677236,0.000423632643685378,-0.0001212109209937657,0.006229446222041361,-0.014630561008187746,0.012128169528178544,0.0007455533717634579,0.0009247150365039693,-0.015408466950292864,-0.00243973594202684,-0.00940593956710315,0.0030462620022737707,0.01654019495274662,-0.0069876536953802845,0.010057135228335623,-0.019458809471397078,0.010481127020017142,0.002557236027307648,0.014986015817669849,0.01419351370147117,-0.0015471419856806304,-0.0005402582446269244,-0.02135333981594794,-0.001640833233827466,0.00664582399135569,0.00023342914078118175,-0.0028974558857853844,0.011942367754247585,-0.013369390162928329,-0.013118059145270497,-0.001903183106171495,-6.863214397445053e-05,0.018997536390645327,0.007604997243354867,-0.00023691930517530488,0.003150208779328228,-0.02816252779168208,-0.013557876217599855,0.0005790748907990288,-0.009065085780561338,-0.002954518905694601,0.010747333894254855,-0.0038725384013220043,0.009235640532636176,0.009334725861214093,-0.004115299257475471,-0.013302259960847483,-0.003929881627315876,0.005732044482901088,-0.014578514377807463,-0.009577437341172633,0.0007080647192890234,-0.007451395251801954,0.002230093077028632,0.002187792897648639,-0.00739995232149235,-0.00013884619725806964,-0.0007008403580387612,-0.009737390969741015,0.005883377326452374,-0.006636877884059175,-0.012477046171711234,0.004586940170931722,-0.014142810137243379,2.3692224818736103e-05,0.007089176757211637,0.007091813172731967,-0.017471301766990747,-0.011589981850673912,-0.002851719781817579,-0.006486324681537804,-0.02303602887162884,0.0050823218601143815,-0.006725984633580342,-0.01677626266392136,-0.014911418647724892,-0.002381670073567913,0.016935474210341646,-0.015525247359862262,0.022832920588682165,0.009118527463690754,-0.002855639077145011,-0.002868516048158016,-0.002955166489100606,0.0029032421302340023,0.01006272183357174,0.009302343260803146,-0.009778315450439319,0.013030950410453275,-0.007609902553999849,-0.022551880016296034,-0.0011692997099934672,-0.01380079097220008,0.0046330644816919495,0.0026290783813888623,-0.0024608074171957035,0.005349323332510259,-0.001308310155200102,-0.007383558981179644,0.0006236052847370504,-0.0070766649416363295,0.015548741183650319,-0.022067652117078472,0.008718351320238935,0.008219374995955715,-0.012809665341432176,0.0014015355578239842,-0.01387681135531297,0.006186305352847554,-0.024711884327430225,0.008945150078127432,-0.009281260466487374,0.014236459881662758,0.014418188088841785,0.0036932664717118278,-0.007289364516798364,-0.00383167646254301,-0.002222744059560599,0.0031679318690678105,0.006252868645963756,0.0009716825170284218,0.005189639547750264,-0.011145588847628644,-0.00846235356130307,0.009130201414857006,0.02323531280993695,-0.010105815181813683,-0.003340648548153059,0.023208861260128347,-0.007869971338757298,-0.005516361658066141,-0.009931211753155825,0.0003279582557198047,-0.0035571768455041415,-0.004381302905285343,-0.0035788254444067765,0.01507887657338641,-0.011577532347944947,0.018982377936071933
