-0.21122913314260525,-0.006468355966689905,0.0027611139409359745,-0.055106165063136855,-0.13551758354099416,-0.16339547730340084,-0.07500538799749178,0.014791037061914059,0.13883876369641465,-0.12019825153959562,-0.021218400830573067,-0.003735342037673852,0.12690380800117881,-0.042892223469310056,0.07951471074249433,-0.0884147823240252,-0.010372074581748986,-0.026888269634002142,-0.05990533305669756,-0.0956826666060178,-0.02583927608357951,-0.026102976441415425,0.009836677519105887,0.01584600349487472,0.04273290225638218,0.12799201778330555,-0.12335233179899081,0.02753968520332292,0.03949764818107367,-0.1909620217085382,-0.10918763346140782,0.07069316163576059,-0.007597522037738656,-0.03996895809375833,-0.1438133850053748,-0.004860299610095065,-0.16547974050209133,-0.12497252751868342,-0.007313945449357865,-0.018841277413597257,0.04277355718038309,0.022019701171559963,0.06279283306441685,-0.10761951578329464,-0.00386829539578097,-0.0032871702054537164,0.02366470343656391,-0.0647337595566302,0.08093043952891428,-0.07698718080834682,0.167803938937913,0.03337148875476517,0.13951371287217207,-0.1380833706447879,-0.23080742203410562,0.005716823492655082,-0.06279949502021183,0.1619636108091196,0.0031050721013572624,-0.04868246688764017,0.06569685955312202,-0.014409891007382903,0.14992191368473623,-0.0966866270624016,-0.028060975542491876,0.06701183257709939,0.023133539650339107,-0.1152561351189241,0.010521369428676151,-0.1427280727506239,0.024273991911978276,-0.1327403416966705,0.07102721335526209,-0.09106419821062399,-0.145302297086759,-0.15932263009336373,-0.12705678117764493,-0.07208626886216764,-0.03643248044874204,0.10515697572665862,-0.10315475005216539,-0.11593776411975043,-0.06652162080613767,0.03391554709634033,-0.08177652082812908,0.0031054507186320563,0.011046553646831039,0.01608258067595607,0.09405885113612547,0.0007732422282727366,0.08542997595137672,0.0329441417543977,0.15578862941506075,-0.16736597289376612,0.0016919166375517212,-0.035586508923368544,0.07344694308669693,-0.05066510590809933,0.13291215022887962,0.024686075222666217,-0.008204409386043594,-0.043994711955521036,-0.031137648564036002,0.008300341232020786,0.13215680210630232,-0.06376975939554881,0.04774801628603104,0.06062896223297165,0.05952099783285653,0.01735302530482787,-0.057008951153910074,-0.10757566646311333,-0.16604087097093898,-0.01609558945640357,0.0717044162944149,0.03461793584120292,0.19045022180116303,-0.04672963287168272,-0.06576911272994775,-0.0503680656030385,0.0435639011357434,0.063786212995296,-0.005645210373398568,0.14461457291312427,-0.04718116174248503,-0.07278912789243996,0.03170199737012137,-0.02114831433408841,0.2736900468426241,-0.03148222700676605,-0.1771811941635894,-0.047530639134260165,0.06232502425805271,0.04010286932116599,0.1933260549869551,0.043972723075698425,-0.07031427761642951,0.15910855100290186,0.09697986425352495,-0.015208318936428803,0.10691758069187833,-0.018306662961932677,0.22377232577329062,-0.092410340066939,0.15100463942823167,-0.02532167078742152,0.05097986214675802,-0.03392574104934202,-0.1909497630507292,0.08934873254811698,0.14542530032546694,0.03942436570753907,0.05302690742478929,0.024318435710482107,0.0515026111961226,0.10568067204673201,0.25170096223126426,-0.013221232227144353,-0.08101345164101036,-0.0005155667161588644,-0.11176166025507024,-0.08438623941431968,-0.04661184215547402,-0.005446582300242109,0.059097550871122013,0.030352283139451982,-0.05247787846498977,0.14878100318470375,-0.12251402630152632,0.19585098270618553,-0.030284730057628613,-0.12182496702231974,-0.1482579995257751,-0.059618499019094946,-0.16284007753425125,0.09862785936788827,0.11649196227220865,-0.00938254292813253,0.05370438045696544,0.21355804457469493,0.007818766367152227,0.018223423698619304,0.19674896247970985,0.1895024476770755,0.006322701369772363,0.136617702662305,0.19157822924358126,0.06562673136239813,-0.03063395952197247,0.007923164363705843,-0.18676543172035978,-0.06741711110593428,0.06801080311402825,0.09739947852615777,0.054363579600897015,0.154686900187423,-0.0008372926611818844,0.03799404425561041,-0.16422837559992157,-0.010825822182223128,-0.07827207595095897,-0.10101730855617486,-0.037226472774380466,0.003454938358145073,-0.03986263337004111,0.0445499527366563,0.12204559047522505,0.09034001059863699,0.018999890605927175,0.04148873681677782,-0.017751270460381493,-0.041734458317468005,0.07258041857904883,0.06339963873894555,0.11384053517633516,-0.0924250451052086,0.061651051392250876,0.11551334193673066,0.15598272450369205,0.09024342885837736,0.12088790484115396,0.11996906130304548,-0.1181659185600134,0.015117351447742058,-0.09247446892309642,0.12021020227125588,-0.03394751638895986,-0.09847967780125833,-0.09429182659600768,-0.03130640754890425,0.029370700669329917,0.008249589289858614,0.0321115568342733,-0.13334651313984253,0.10263575512178341,0.07441834021545957,-0.021375656944411642,0.03509354461589157,0.01148406524426901,0.14008008665144928,0.03138188686769078,0.10922997964712758,0.06769369786083865,-0.011833998219319339,0.1050606959128633,0.007206651584380038,-0.17441258092355635,-0.11767715822446675,-0.051184909201192626,-0.08424155870117216,-0.010374899125837018,-0.13702629997097374,-0.011529066078850743,0.04721379169756077,0.15490260328164582,0.06566683574741361,-0.03605182538602319,0.12521448736425464,0.010024817511084482,-0.09781426603606751,0.05255096924915906,0.062428187145218514,-0.06146957431687653,-0.15661256537593513,-0.020905756043524383,-0.020890599788179916,0.08625755876972595,-0.13219906277698262,0.2182935460534113,-0.03628844275944571,-0.06519004653091284,0.04116764035560051,0.147588011536821,-0.18601017117088986,-0.1826282224559932,0.10804364383065679,-0.0023888230554555663,-0.06648834156831296,0.03056980583535116,-0.20162222617881012,0.02387392367256715,0.057196257237106196,0.09273795114579865,-0.01053714322931588,-0.00836579303303307,-0.15433725353795902,0.16283951333169358,-0.018752386991632876,0.0057732035651050576,0.06733991789631694,0.060101644534468625,0.03497158576610701,-0.11443549382598713,-0.021533660288335876,-0.038506080690504665,0.13923154389259626,0.08076495809658046,-0.031252188565198624,0.010929835532618098,0.08140231651673206,-0.015285760109331704,-0.0680808756130063,0.011827532412761303,0.04145421969014965,-0.12130188127201398,0.09540759452019669,-0.07696397152557875,0.0997575549017115,-0.006266289429584946,-0.16272752846089564,-0.0234391870381907,0.07501970740953555,0.1742703490105971,0.0650049928069515,0.10089679048273056,-0.08478933305162976,0.1513656864789113,0.07935563636074848,0.06970119516601486,0.06733979980255267,0.0008279585356527929,-0.052553197094641374,0.22899752314212848,-0.0010462731470343503,0.2386862834340812,0.10766809136897419,-0.053726930277374296,0.13231359955861757,-0.10504375281922285,0.07100574753857443,0.0705603912758459,0.03674812699103797,0.054554665181152706,0.01613732475245005,0.01945064688574354,-0.04422445973296475,-0.07098633316759584,-0.10008894944289318,-0.1040236054953754,-0.16086159994334628,0.042908155442652425,0.0021446260841045616,0.03097246682894382,0.1929265661474298,0.05410932410757054,0.07598174579018105,0.09859210634081329,0.0436275060098339,-0.1468868454188469,0.042450458073352765,0.16303824230657424,-0.00034403179290076063,0.048941165023626644,-0.05237867895010512,-0.07952701601201013,-0.011200383313301046,-0.07654979423850479,0.0050444579873979625,-0.07963859374254748,-0.14711068019992257,0.09870008706163977,-0.08040340596911465,0.03879430122464705,0.05413945379532151,-0.042292787656152034,-0.12000260324085447,0.1475716119417155,-0.05860935556700143,0.11804096828177751,0.14629976422646448,0.04441377520977903,0.05925262128204304,0.09262692121708098,0.03293820771528505,0.0835803289096701,0.08192457380113632,-0.001578088479836991,0.1635014865721816,0.05057585917028531,0.16441887456118867,-0.006074810444692391,-0.12416044449535996,0.20303845455850952,0.042112316624827666,0.10683143855904943,-0.07661965691409167,-0.049925429783423264,0.009865916325751074,0.06376793846544943,-0.07811528368882904,-0.10965726893748622,-0.09546445982921412,0.06627879673433873,-0.007772107373750508,-0.131759028419279,0.07200633446120626,-0.05939968785648567,-0.0908312152753398,0.09489113940464407,-0.13684213025372696,-0.009648628624164343,0.274620456378479,0.06344086672389576,-0.038832487818130854,-0.0396928691660048,-0.05865673497697362,0.020663558750064367,-0.15831318560704116,0.14931065547893121,-0.0315645185346155,0.19491046358938557,-0.06023411394982798,0.009640413699140404,-0.1134160548277867,-0.09511292000686207,0.09773252398338989,-0.0995511285095946,-0.04501478304037177,-0.09921724546122722,-0.026611686913194384,-0.013091655312685661,0.030498886427338875,0.0027589497526068585,-0.04709874440586369,-0.004473628255955444,0.03920951170728332,0.011989558891624329,0.020701303440990887,0.19235531233547293,0.017645645476873615,-0.14365485884980855,-0.06218589549716984,-0.043371268381697504,0.038602218586336175,0.02411319712615567,-0.19125959470133497,0.14345042482289846,0.056306186519260344,-0.04757539580157459,-0.07262616396729345,0.026596008663881714,-0.08718075021642281,0.13272713861383034,-0.07830910006073559,0.12613032648780406,-0.157375601182143,-0.09426253576641673,0.08075366094677294,0.14236129789302082,0.00953422036298387,-0.061197831705032305,-0.09151231195440097,-0.019510492434025417,-0.0588360409817089,-0.08065039892555857,0.043578491077446865,-0.09902388029878685,-0.048043239256311876,-0.0952337730549749,0.07439507340456011,0.08440769873718872,0.09790068399910563,0.09329753760771052,0.15696790178400863,0.0566401877069463,0.2570721722043598,0.007025035459348744,-0.009968806097881385,0.019806183893568363,0.051569475170936664,-0.020402193875167975,-0.09484334954873051,-0.09222175763180182,0.025280038488985825,0.05735019387880591,-0.11668057936462353,-0.14205338565765396,0.0020746652148796963,-0.1429612544330441,0.06768784163467226,0.0645341591446979,0.06579712332227099,-0.15884140545800202,-0.04505578467904524,-0.09324528923048375,0.033774674624529696,-0.14039518737970913,-0.028625416295432783,0.09153285480461444,-0.022909748700106432,0.17368478654930364,-0.0677094899596739,0.021464582088308745,0.07612920567314704,-0.10773471860197287,0.07001977398969259,0.02584729379549947,0.2591790334274637,0.034767581471778226,0.13709070732827403,-0.06276403158917848,0.09872355972623359,0.09782005659691255,-0.07316005482808696,-0.2226820132609534,-0.10548989310900321,-0.024368455760529147,-0.0002673909654120552,-5.979264912854541e-05,-0.0987103204262024,-0.1047971140313638,-0.19302192642302765,-0.010368501820234391,-0.0030967918505423637,-0.025669248377656925,0.04324971643493958,-0.053896714285142415,0.13885117273719388,0.10954182048686084,0.1399761116234198,0.04449062841143914,0.06613096678339368,0.07285588055900341,0.037974727878476305,0.09649347446212773,0.0826737166236022,0.05239384385829237,0.0600183319628684,0.08405543141678469,-0.19128866250439747,-0.06039261981536949,-0.10964973876710693,0.008727684640740259,0.1006358801728679,-0.07285243475662496,0.0485068031391557,0.15134161901346224,0.08911846711531972,0.09862087795226278,0.024750782495258937,0.12051071934500332,0.22423835682184967,-0.1455537105941863,-0.09950226723998062,-0.10680175962461178,0.07877115445904886,-0.06327473799641954,0.017468959434606673,0.09322267021600184,0.006162831566795227,0.03065837999730886,0.017604027744810437,0.1811548265668793,0.11004591610043625,-0.09386327641138409,-0.1335799949678673,-0.0734785628312955,-0.055079636744712265,-0.10425465478894186,-0.10256603166798346,0.15588660090565287,0.02351983424896852,0.15795092772152572,0.1107223778289792,0.04181201603614352,-0.07991286486047752,0.09888457645434386,0.08031607154237909,0.05264756624166265,0.03742622160166787,0.12051837014311786,-0.10314958365628336,0.02376928973060167,-0.1477574993343205,-0.0786688888781745,0.03439971785802247,0.026458805569403044,0.05143508319404817,-0.11145590849194405,0.06710352438105897,0.06640755756062494,0.28218241197600785,-0.1364137266025574,0.048563502507869165,0.18347105414854292,0.07558893934824402,-0.14968980869788184,0.025672740240756265,0.06904121165744026,0.23389093365068528,-0.062431491588613656,-0.004614293814117869,0.056285551879298644,0.1254337148672681,-0.2121350732466256,0.16344470400785005,-0.018657693530748934,0.10761870007053963,0.05984622759178047,-0.019656350018170156,-0.009034467731177732,0.06644950920093581,0.2552114999965969,0.22671348911248013,0.09436853883704753,0.1735402883708009,0.1473790772688511,-0.0776349129465269,0.2216598751694771,0.17109613220441827,-0.051027316252497894,0.09485186046352066,-0.04742410359274561,-0.2694344280196207,0.07703939771663908,-0.10452423545167654,0.01562564645566112,0.1315131835198503,0.029789839451736463,-0.02058074880413973,-0.13926383402523904,-0.13635732975943135,0.02822728226244902,0.13867397175000887,-0.08000963490911502,0.030690072278688002,0.07790043630716065,0.07128709319462445,0.19732057187147758,-0.014308564777635986,-0.03683155213403524,-0.10769209478941563,0.07294520666248835,-0.0735480182274249,0.21844275547640385,0.029238546922978656,-0.06964946676476634,-0.08001283298590658,0.318849479332079,-0.03266159572659529,-0.07041596960497168,0.04323478945685604,0.07172111841390263,0.15000064757408865,-0.059116912949783704,0.0294974104659881,0.018776754707492946,0.029877174835181156,-0.05307961920615677,0.06450399298615803,-0.1144716510945406,-0.02941216311387266,0.09240882825979074,-0.06666082334469209,0.0014764210799776262,0.017374179905780836,-0.11884911358501793,0.16103422139210477,-0.04077809633448918,0.04736591897418288,-0.031102319982423632,0.04034108143207393,0.1552558581467381,-0.1377415480315873,-0.15342285527943503,-0.21882605083098078,-0.001172710622512151,0.17136579439918656,0.02137311344369554,0.06973655959917237,-0.19984962912564114,0.08231396292195899,-0.05020356679607536,-0.03165467654297147,0.013960325292443935,-0.01946854462015101,0.000653570843000584,0.025362246209309693,0.05128114888385899,0.0371552804979828,-0.05295501043982415,0.06449891523031309,0.04569857990076254,0.04358250270568975,-0.026362022239385736,-0.040640378011278414,0.06603972066238202,0.08411685728573011,0.04866544790162945,0.11960873385496608,-0.03302521916820896,0.10398504333982105,0.018592842824779916,0.03913438143881693,0.1672622471537226,0.007157614317379181,-0.228782912960895,-0.012426772232329228,0.022785537600075293,-0.04048436454736005,0.038690691730601884,-0.18804151021190765,-0.1258220722845543,-0.027982731063858932,-0.08124146826069514,-0.046888041231474206,0.036916984621599605,-0.024794602413580887,-0.04763008619230558,0.07581425519290576,-0.019810716397306877,-0.10029979726545889,-0.09248852082992631,-0.12307059695092548,-0.10427491998584851,-0.007121998199438029,-0.16421576025298615,0.13819750919869958,-0.05596396122527488,-0.01794809448879867,-0.01712767335575254,-0.008971647584055477,-0.09255005333450558,-0.2790445284371585,-0.04851262410091249,-0.019730881871544995,0.06774318998284583,0.03327297253934031,-0.0016744982017077683,0.034431895322136606,0.03378304412977901,-0.15360448857039427,-0.0984762518995304,-0.10595453868671557,-0.09602772755495698,-0.0773186488264775,0.020846780291913586,0.07763785137086054,-0.1269774521614695,-0.11395511469712155,0.28490008619670326,0.09491407943083373,-0.06008711471935469,0.0010459229156364709,-0.0672732341711093,-0.006085043071270581,-0.07783089909641562,-0.12983825580656214,-0.02240322626337326,-0.014776824702713182,0.17704581788804657,-0.0022019696206877497,-0.11940570347058353,-0.1553756088681501,0.12386771721797804,0.10116462299151634,0.012813467305066186,-0.24465517621784316,-0.07974073054774138,-0.0110776391161372,-0.06210173852287608,-0.12517416755034033,0.03501473759596061,-0.0548446495470728,-0.05896839964519249,-0.20048206579899555,-0.11649003216197058,-0.05987831958804214,-0.03786702665674064,-0.10551019091209217,-0.08731998868980748,-0.07248343239946259,-0.05171032719371536,-0.08615797310688839,-0.11556993963537152,-0.2026502031816901,0.08982051311396615,0.06370830205753068,-0.2213749235531706,-0.039927411197700435,0.06941759006291913,-0.050982646712645546,-0.0190218540565607,-0.0860952770253565
-0.1857803178653803,0.03493494218651277,-0.020820685380967107,-0.023269830966083937,-0.04629654770892443,0.026755838745186847,-0.009849095201257665,-0.045862446554575546,0.10509056195587205,-0.12414115538048533,-0.2406329502721416,-0.007619440410155135,-0.08187221111639993,-0.01849478474007779,-0.1270517805753918,0.1386796552995749,0.0030639095808953874,-0.033809946660997514,-0.21322615425147098,-0.11777591756102923,-0.1885042331473663,-0.03775621345473832,0.012696998391465788,-0.05943861306305994,-0.15894571767300328,0.04626112994020278,0.16683670728371003,-0.005210723000334219,0.1835531063499883,-0.07440230576798577,0.2071143423263942,-0.06749959647141937,0.008259167247587898,-0.16086489507556603,-0.049005372523137615,0.1084828169966552,0.012918458316157485,-0.013004655058449261,-0.017700111518413594,-0.030530876588756434,0.03859683674417905,0.00943458123288636,-0.005516589551850388,-0.016573657406745292,-0.14420776417005718,0.08596362499152439,-0.1194100835161719,0.03487706153144682,-0.019127745538582274,-0.11802021581427498,-0.2014822589721875,-0.09934254877348644,0.18370794321747047,0.021512917837329313,-0.1342892743026216,-0.06810260988991067,0.12816659085650167,-0.27867070063351934,-0.05236850713638843,0.12679892901732548,0.09543155006011084,0.045344391850292376,-0.10721749679294532,-0.1379464024906968,-0.08448435741860916,0.01900032594247204,-0.18809202733214264,0.025469349635562636,0.11176836929346509,-0.05864329447748322,-0.044416772993359416,0.011994766984513341,0.13261041011826227,-0.038791904727156455,0.027257945710398867,0.04288782925956411,-0.04737776104294855,0.040643338307560214,0.07703275633428704,0.07233112955020629,-0.10252995810393334,-0.12482274448293304,-0.028369616258825735,-0.036440684839782266,0.04132612178867948,-0.06244139640222258,-0.11249383838428413,-0.056753496038082475,-0.014237584991322655,0.004582099108984221,-0.0355557337916945,0.07497370474835308,0.014863814477700929,0.008627358561139133,0.06991309980357648,0.014241075343681828,-0.020588494033128776,0.03170064341235006,-0.20296279554860822,-0.10698701940539276,-0.12169148326874124,0.13676439701410287,0.10777002590532916,0.07539658959796808,0.006699874763921602,-0.04448917129805892,0.08052993883491727,-0.18298546474923072,0.17157635050779002,0.01139669069471473,0.10310884414147979,-0.06247043886557982,0.10294703292435438,-0.00288235825125482,-0.061996019273566225,-0.1533309188960857,-0.08364518208556798,0.13277978686017367,0.252754621803326,0.1348199452045958,0.05056258274729809,-0.006707098060849825,0.10137655190633175,-0.0043903557412069555,0.03801495598561923,0.2776513550932199,0.06883771067092943,-0.008565486467350829,0.020567203804591313,0.18403738637893985,-0.056342149966187256,-0.06653141020713983,-0.11092955123688876,-0.016219669457212486,0.09247776276925745,0.10597885354281594,-0.04355893945282252,0.03241592623396545,-0.13934468619585583,-0.1924366793090794,0.0030563296905640677,-0.05092843695465355,-0.06278643077513447,-0.11156103699898191,-0.05159853644197009,0.04359389321962165,-0.0037615781312357165,0.01704366237242662,-0.12828381066811637,-0.06792272691345405,0.011998244555546215,0.03158603142369256,-0.009752978985617892,0.11168079826288717,0.12255328916812945,-0.009299877425261468,0.08238015905510819,0.020944552070641782,0.021141061228038535,-0.08986737281744119,-0.04120227545530023,-0.12885418117949196,-0.036283354950127314,0.003057772462015501,0.06878515611910274,-0.08432089490537868,-0.04550673313507255,-0.06950517982294288,-0.06208706368992527,-0.2963475741810425,-0.13947234870587472,-0.08724961896569705,-0.06316687853291322,-0.11958318797695307,-0.11054201909754628,-0.15681536337204707,0.16872095612670315,0.06656552914692486,0.12965287475948437,-0.01402879369148702,-0.08059040591813248,0.07597868471190526,-0.055655301068985516,0.20018204855016788,0.0063649159938606766,0.09565683982281763,-0.01829334431736195,-0.11869771927106162,0.018887238602812842,0.03409020048089544,0.1757134692963525,-0.054299469776755316,0.11488299448130183,0.029699838866904513,-0.00435360595519857,0.1624436772566229,-0.11780136979068061,0.05630581482998091,-0.16774970090078198,0.10816250292547015,-0.015259320350155257,0.11259055024684651,-0.16404746941837617,0.19562351131868752,-0.03840654681939368,0.2971655836262657,0.10494387162261924,0.058678943787497086,-0.13135606573456055,-0.11811231533373075,0.1387906595961199,-0.08560987778430428,0.05501241624800727,0.0758483655749627,-0.08724514033256647,0.07738545738018308,0.11304821150632335,0.08360012601502666,0.023501785262913095,0.11206156520951617,-0.020972705861480864,-0.010506561687152015,0.07148315996393792,0.03857647662044698,-0.08428943480308557,-0.06472804848234912,-0.06784829287046934,0.1615416465854159,-0.030233339430954614,-0.10208607763145094,-0.18066653083386458,0.01019090588946857,0.031915685566557266,0.06282194376309751,-0.07189862355186852,0.17724355522951057,0.14312772324082382,0.07631709797330623,-0.0373954627408377,0.049492908785333634,0.0997748691257864,-0.03439557059701302,-0.10088159324545998,0.07477459202269988,-0.08213508450178486,-0.001001300451661954,0.06379990628560693,0.08726543739259912,-0.06264580455257773,0.07481605513989813,-0.11925477815626288,0.19700276659307506,-0.02728879741840366,0.033608337751299185,-0.08050992970535732,-0.016864872577726286,-0.05942724138535601,0.2074886468735621,-0.013517751882968438,0.13987718221063708,0.08315846987803537,0.047919602895934416,0.07756697210161874,0.03384779080889201,0.07358817068602612,0.07678255315380905,0.07736626553145895,-0.08329534949215886,-0.08053135875961218,0.20351108812061108,-0.11744171562090812,0.04115214078886605,0.0340287225463659,0.01618700327081969,-0.07961281605958521,-0.001434040163183446,-0.012418062296770267,0.09894866724209532,-0.05557277336706923,-0.06208813795562431,0.012478973487169111,-0.11527378903700267,0.08903106919611795,-0.10321689379945997,-0.058612700699832564,0.03803046356518047,0.16059239548686183,0.033540160587072786,0.1605353362101651,0.06852608009470759,0.06015831548105103,0.042070716416262664,-0.02899104556491036,-0.06385984722357226,-0.04200498716532941,-0.10435335954544889,-0.060851543689354325,0.0946779924093742,0.020162889765898348,0.10899765297578937,0.1032784536950264,-0.09546212304756116,0.04184514996503056,-0.1134920382694611,0.103414187671073,0.03000362915481911,0.07121158894063713,-0.1180881951555463,0.024716702204637144,-0.03756368180379335,0.03971269432705021,-0.055854153362596984,-0.034930136071793225,-0.06129127348590686,-0.056513774772715256,0.04024647613205192,-0.1540328568845077,0.045177322125361234,0.009161255869494097,0.1463270730775919,0.03816982349826334,0.14806562688055894,0.036528191079716076,0.14963240923252416,0.04783529306695161,-0.034527257614413685,0.013484453305846664,0.00225374492900485,0.04373331942633019,0.01452878910688036,0.0016365488303176888,-0.026882892108894114,-0.1223306966183735,-0.039484695777744286,-0.08932075268439067,-0.0447348864074168,0.053963212375688435,-0.14645798811889735,-0.03381021136064059,-0.22524097405153126,0.0064634522026045665,-0.0716690714338765,-0.007528075088544749,-0.04255731547347854,-0.053305031757149866,0.016748592877313992,-0.2818997410754958,-0.13848172015716362,0.07878561997083099,0.048996313381395075,0.04407492338432996,0.09700341207199117,0.08702138997779799,0.0698198185612685,0.09166259949819587,0.1697012772354939,0.14088700247736308,0.1808039031526483,-0.07703531272207291,0.14929143889099777,-0.055411828830529225,-0.01067033509232949,-0.06771204321272871,-0.05054438286170316,-0.15767562095059612,0.06429960768449508,0.04820954941502693,-0.0678429086993171,-0.1744242467281133,-0.1042124017869146,0.11190353002732575,0.13295830450992951,0.1014319956017544,0.04372711273407423,-0.08970126973219168,-0.00863167650114428,0.3261154746915752,-0.12618752786051596,0.050320460950985024,0.23501069578926506,0.015418165673917088,0.11210196764178605,0.02567340174404828,-0.06443798787476716,0.17587351803793347,-0.022349883696750745,0.1127955424358938,-0.14032950282781503,0.10658943474276282,-0.0063337847285395805,0.00516217762176863,0.12932780084580758,0.09256271144212387,0.010991823149121838,-0.11458034702349233,-0.12934088190396015,0.12754237093703458,0.11503486311682308,-0.002800831035477173,0.09099319538553194,0.022477380114740115,0.02822689863137436,0.16401263066029428,0.02254974206844447,0.0752782736655232,0.35125157507144666,-0.06883269062809998,-0.2197960232033547,0.020170824352515156,-0.06953690088755786,-0.05924180533129115,0.17478872718617874,0.0423299266651937,-0.19121564476269856,-0.13861930306514395,-0.019102580238665522,-0.1241124453801467,-0.06470752012485233,-0.02493119990531055,-0.043954341420449294,-0.038744864368030645,0.022054226635043743,-0.027597035651839887,0.03570446245855297,0.022891237706552086,0.01429828618630458,-0.018101045286288555,6.62784188280002e-05,0.17060669467958137,0.0730737081912838,0.13630812015381574,-0.1669153896320126,-0.08711399019504062,0.053722613671669715,-0.048942032802177175,-0.02694906198897537,0.13030513616031367,0.07573057118448062,0.12964974399848603,-0.10660671561880107,0.06277808396823296,0.06350558109521792,-0.017803395422243698,0.0505705878838739,-0.214212699968751,-0.14194720941390518,0.08269852332064424,-0.06461607115931065,-0.009616249399099759,0.07536153640365802,-0.017035418913345663,0.014467353941597703,-0.04483418635227829,0.011777184930736232,-0.0034624297290736963,-0.03659530486092807,0.011526989633011117,-0.2725228210123146,0.043370180955663015,-0.1684645806642791,-0.06383014485486647,0.16132695994979143,0.1244127373461095,0.09752163650889804,0.18751745979180753,0.07660777750703826,-0.19074782656748948,0.11276150054091154,0.12373712012654756,0.02186880553252662,0.03774440279254695,-0.12380195053506163,-0.0874599135126639,-0.06371123527676915,-0.14424368784882913,-0.004181055948066253,0.08924756800523702,0.08226816536762285,-0.06297722487410091,-0.017145006351126087,0.025213593913832565,0.08298342904424477,-0.022614812647303723,0.11959037166680753,0.10235663348515786,0.13458612608867537,-0.07131223169245077,-0.031144823820135503,0.09051389375390706,0.01847101585775541,-0.013453892081102413,-0.11281763990257512,0.10376593613525296,0.11875955757882146,0.05069984266215644,0.13546241794067979,0.06802476227790909,-0.17228496494522474,-0.0016831256981867388,0.05226444895867532,0.14707699493997875,-0.20325317684398211,-0.012231158251867724,-0.05623854886163867,0.08661263911014111,0.0729191360818281,-0.2597193143418083,0.05201264016576414,-0.06734998497451261,-0.06038287395155412,0.05204236122006848,0.05690454478633372,0.11658028057116591,-0.1345393565151545,0.17064152047752582,-0.10919271548841407,0.05523751585465841,0.0004342542971165547,-0.03499055593375545,0.10579248911120497,-0.021870191759682467,0.16719210092605635,-0.015797312769155906,0.22904424693947814,0.25261446195223536,-0.006986169746697728,0.10255806667157702,0.010613782743390613,-0.0792965720768681,-0.1073653477057543,0.025741305797501463,0.07988914598169224,0.05859315506205572,-0.11411582132357193,0.05434868874215256,-0.037280688487509185,-0.006164234026134466,-0.09462712703464524,0.05060745439652437,0.15203276277046662,0.04232797660360706,-0.12220649571989495,0.049650399281789104,-0.008564660828463626,0.07668010619518795,0.1039210184249587,0.06705566434721497,0.22580206880789486,0.09202489229590852,0.1110918099717827,0.1416123969404556,-0.09499099289084277,-0.05390235572970266,0.0010378443262338058,0.0755111051548024,0.0403643212720054,-0.01608600408100165,-0.09891537121722588,-0.1397163868083329,-0.08303951946357836,-0.14391741658387197,-0.17904946496347504,0.08425182122548064,-0.12118405491656016,-0.09670978388652858,-0.19965257028347383,0.07711356005741588,0.08021144439103417,0.08315325487080295,0.06073460792870891,-0.057103635428910275,0.0727634449165625,0.005333471298302324,-0.0011268541016963007,0.04042627660078621,0.031370795997353346,0.15491868303597703,-0.24437952897956491,-0.01959033667795405,0.02555869206968,0.107816547063889,-0.0338227039246149,-0.02568433647564335,-0.028077666112632238,0.17740056638691634,-0.18712189818893551,-0.05376308783053029,-0.00932978284613182,-0.06797660261059352,0.011086423822086626,-0.044352204206459724,0.012369266914187115,0.12022772679498797,-0.1396147852783078,-0.03809383271761175,-0.025390159317881838,0.014405627711246398,-0.11161097407785778,-0.131367761252944,0.11396858853947553,0.1180237900986393,0.10525289187679027,0.10855953393179979,0.2278123700114182,0.062384305306846466,0.09227595642582415,0.153898529345295,0.009664938682006047,-0.057869915785862966,0.04424510730923918,0.20338279334268483,-0.11568862568283556,0.1349889440852147,-0.1442083519040679,-0.09050696799950377,-0.021419723712237194,-0.15189894982709967,0.016971103703148797,-0.0345260549849209,-0.09606786839047614,-0.1342017113309389,0.05047797815525719,0.08637011680092016,0.02344263328331662,0.004490819145605127,0.01631230285268117,0.0033478925627320817,0.06862684186674232,-0.16362272463056074,0.05604662788559622,-0.0006325417027968885,0.1709263559325497,0.23912073447636856,-0.11752201341888227,0.09981309627667398,-0.05991903424095544,0.0061183033157051385,0.1632959485427718,0.02717372145801825,-0.08050657858906721,0.13517086904153422,-0.042244300609699914,-0.0036373348631771893,0.06603734451921045,-0.061179123366770775,0.0004149748346928391,-0.05109183885559787,-0.06919481385865672,0.06713756075539336,0.05293164960960849,-0.20839832856811366,0.03214251059101363,-0.05759797275595887,0.09836007211063265,0.06748586221038946,0.25841426612793017,-0.021063267365948754,0.12009650288374232,0.13331768045769124,0.2226850834700093,-0.05980010275763146,0.02196028198220884,-0.03480822034195969,0.0017160746787709407,0.04237751487062482,-0.0603639032394067,0.08634040637139656,-0.2226155508556742,0.018609374810173242,-0.03880478582316998,-0.014802320048711994,0.09916524502626423,-0.07669575457255268,0.033193773320490616,-0.1499192929164465,-0.11383802026143684,0.1042168107763294,-0.08884738659613167,-0.0010991294270105787,-0.09961580589969046,0.10136985586096671,0.06475263809892501,0.12037260110685029,-0.0030531912289847494,-0.11388712265457515,-0.020572372181146374,0.00819555392324217,-0.08970671326747598,-0.03664027994679044,-0.027063115561678196,0.05874337986063438,0.04260762307757537,-0.1375859821586586,-0.06726226632636269,-0.10284404569969832,-0.15998831520591542,-0.009481165635030306,0.033645551379994365,-0.09568064639074596,-0.1519945898755745,0.06307453714398706,0.17450576354557934,-0.08370434851859022,-0.028094251685657774,-0.3149733054632252,-0.03895351942268668,-0.15071149524248637,-0.07474429114454884,0.03224429084082225,-0.12460170618727932,0.03506042963108153,-0.002786045833533705,-0.08959875754000313,0.002120126150650486,0.057403267620035656,0.05578211011044917,0.019850913658443558,-0.12892948908940338,-0.03959048568595701,-0.07014493491889652,0.04825308702763059,0.09385355987245599,-0.05704070191949965,0.03928135369078183,-0.040651534584878524,0.004941122855252553,0.02891171585448736,0.1499806758905448,0.0345168440535128,-0.10223694958642694,-0.06077927023480538,-0.06680725199928128,-0.027705370269997975,0.016928018552742986,-0.07578275236494218,0.025581093392061903,-0.015882852861288887,-0.08405788262733967,-0.012839658042443467,-0.10262837839756801,-0.10415288604828649,-0.06928356774696616,0.053082513017773975,-0.11222238606914058,-0.024707364021052936,-0.1201917177348695,-0.008510316302795482,0.0640384757652515,-0.12480875618963964,-0.1676840189160612,0.08395186606109828,0.04070244747270342,0.06854931533393711,-0.025065527964650103,-0.0006168569034867465,-0.035266822800648315,-0.17198445584915534,-0.0004113061727148535,-0.14246672871009822,0.09688571133439237,-0.09832607315276995,0.14125883001440784,0.10507882005369412,0.006322475239884305,-0.36797963258108446,0.017270445835343623,-0.17638288326935003,-0.10599728418354053,-0.19588030709817805,0.1033824310186,0.05046463401112555,-0.02754603873005757,-0.08539248831056816,-0.13094511342850917,0.13571735289958659,-0.023340308763554547,-0.11146973844907561,0.10076054440250835,0.03793711140880308,0.026168383683589497,-0.018119365773802517,0.05937672515271476,-0.03294812093048922,0.021513805210304143
-0.07624356210386328,-0.1695302632300427,0.0779806968487312,-0.18674795808256514,0.00015967883104158113,0.11799774672249452,-0.13529327007608313,-0.1522242888842312,-0.019924545816670067,0.1866569347551522,0.057064135116995686,-0.06873147367864771,-0.013603889501700587,-0.0010730996730283732,-0.07871625805196311,-0.1353268650421864,-0.0007863522884038944,0.035523841837840325,-0.09885605515358002,-0.020738001832129208,0.07671118622604055,-0.016750545932491662,0.08322739425981096,-0.0704478388094503,-0.06721270835261851,-0.007829385851784271,-0.05108489480675734,0.09869861995776756,-0.15307335175034326,0.12985643833016555,0.10396266733786341,0.0719257032821874,0.10924717924378834,-0.06491598667906141,-0.09374626767495692,0.2557071211595545,-0.004826053112461354,0.06877929492795427,0.23703142519770984,-0.089379674486165,0.02715699104439429,-0.020901276741642296,0.06551602899779274,-0.10848629062146736,0.14023769673891262,-0.0960934105950264,-0.10438428791441193,-0.03839352080299471,-0.05276985167729166,0.07231205893426056,-0.021569920427368817,-0.030218618921531146,-0.08694547940212974,-0.051451013417108185,0.08987846561026892,-0.09735145115576595,0.06981581341193051,-0.14197785763701193,0.02495255091271899,0.05073898524043609,-0.0520287898649287,-0.08760359434775157,-0.05389505659295015,-0.10574351791007024,-0.012200736642352049,0.1251203095291745,-0.2253774537209585,0.012235183718264745,-0.01992130712884501,-0.17115544461885615,-0.03741066499597326,0.2245587017540983,0.10604764714434835,0.14515603567262023,-0.15133884045913212,0.04872051999523324,0.017831185013195354,-0.05209030005283416,-0.08491782602552271,-0.06117134585563339,-0.03027865719878348,0.04459930779350671,0.04239865440030635,-0.14114501302732058,-0.03480808716680058,0.05874134944776162,-0.0974324332786176,0.014085069111135735,-0.0059645071568126444,-0.05155094557759869,0.020270856170091826,-0.12451110152654857,-0.12026957953130339,0.07348281212354717,-0.026297717492938365,0.11170663643805577,0.19099830094991563,-0.18008116749113198,0.10866966580321938,-0.041331630697324664,0.07188176542635942,0.05034447038640714,-0.018923327956239265,-0.13440156734398948,0.13645594360165,-0.07061113240024701,-0.12588705473662268,-0.03597598168943524,-0.08121641837714264,-0.114180110144247,0.06210696556918919,-0.10122575903765084,-0.025040603680952338,-0.02710226732475993,-0.0008207480190189896,-0.08922065172273906,-0.05515439742185438,-0.11574929566189414,0.03155340571897781,0.06116883049003873,-0.047649571564761926,0.08909153193074157,0.09380820341749976,-0.0665070623538259,0.09875658492462605,0.23493026615298576,0.02639454865805627,-0.054368391900809866,-0.01092631067504785,-0.11516801163211103,0.0351894889155117,0.021113248233073867,-0.20588760734344122,-0.10949740391659629,-0.03463900496561722,0.04794188906124615,-0.028433204560246204,-0.007645322598382259,-0.06170774306195257,0.02947577137062972,-0.052706813772308736,-0.03591732369644218,0.008653460463641884,0.10784736092692424,0.022242046401815655,-0.07011477653515875,-0.028396485111669267,-0.06965044713249913,0.07205284687487694,-0.09560626848750128,-0.09276636789337186,-0.16556342188726209,0.0513378640717921,0.09404146707141699,0.17936181405354756,0.05530981489247694,0.17583770324343231,0.15236673100840525,0.11753082900748854,0.012718563811350614,0.08720880406443626,0.036347233433380914,-0.028388132772603467,-0.032120319106782584,0.05396240687888865,-0.05042101699164669,-0.0834485294987781,-0.12564782794055623,-0.010095710536722952,0.17183205112302674,0.056992056788367315,-0.17860269835391068,-0.08947866686123991,-0.13971075939301583,0.16239692204590342,-0.2995392330594942,0.10465200148829161,0.0610163610612899,-0.07120885038807079,0.02167727512292868,-0.009107940846035964,0.11005954989258464,-0.015827582831699244,0.1206685142214148,0.1645075462697031,0.09315867330659254,0.17480914041723797,-0.11400576266709458,0.1680949149722794,-0.13841549848452134,-0.052305637744022825,-0.007614775193749936,-0.07729001032909841,-0.09542978331551384,0.10355004905276398,-0.2786587170686098,0.05880907764515728,-0.023344901340693155,-0.10136915602426129,0.09456375423605429,-0.25785973606604184,0.0872721339961608,-0.11090237212352384,0.019201364633577248,0.01579325040453124,0.04216103868991284,-0.08078943022271141,-0.14046408385807937,-0.11176024565657282,-0.028709218092803333,0.04822182494845062,0.028977556201618262,0.13076502083546931,0.21275368616144494,0.07338073937519461,-0.08817196926524874,-0.09856979196577693,0.0013363306936001926,0.13420291940333862,0.06777287453963494,-0.053478639122967506,-0.14166390686556035,-0.04768487950998897,0.057578916423774815,-0.00429762258962499,-0.10829051608421623,0.09185593416181854,-0.12800914508456568,-0.19682808332616905,-0.07061408641676316,-0.11372866024746674,0.10673075555043365,0.0266386011256998,-0.0010997555725863338,0.03835627763882624,0.01373734088600078,-0.13998877510400695,0.09629134056517864,0.04950962636387536,-0.01515061705875855,-0.006448433159781091,0.06886978702404799,0.008228366364861095,0.08309577813055513,0.0670243467461064,0.08606725432502497,0.02403363131320753,-0.009137108163250373,0.07851080801067135,0.03816505407367863,-0.11452459409388005,-0.00821889013333139,-0.00940243721856752,0.09213235582837576,-0.02182792783574245,-0.08368894651497313,-0.0598324838482475,-0.023517953730964884,-0.02388211844084048,0.08347052688289032,0.08220926526649422,-0.012058177187131114,-0.06181044152189273,0.0025912686977627624,0.09114633308661135,0.0409328287254864,0.20547798337918444,0.16961077054034152,0.16603259254524813,-0.17262227289824325,-0.08895816807177788,0.05319382185995201,0.15724142791749976,-0.030548607405124353,-0.0324229519370997,0.06962539265155145,0.0637695641858684,-0.03779335032733766,-0.10359548960461298,0.04418764598910625,-0.10842261177184706,0.0014939046353225757,0.10870655369803456,-0.11032179340674321,0.019929568079153196,0.05551807085656298,-0.15811669764692105,-0.09762410107955118,0.1350807607339479,0.19370928505290094,0.18572947189393352,0.03373819288841139,-0.056623520327455094,0.09513557282941819,-0.05189138391136253,0.16065870427101955,-0.09212916372685549,0.15747236614492788,0.12222763799424408,0.13346008225487205,-0.005872406077259501,0.10237006867974868,0.1692308596746853,-0.06176177489143846,-0.0053939240173682835,-0.10090185907602296,-0.24383225832558303,-0.12031968709461326,-0.14832572495672985,-0.1303929996744263,-0.04541092123397241,-0.051405106670553646,0.12040405896924292,-0.011483292234415465,0.11686470004291462,0.2275444916072495,0.05551934586104931,-0.009688547294066858,0.0644354836323462,-0.03146617434229355,0.06905017274068397,5.612173262880664e-06,0.22988097020904485,0.06465492769016289,0.14199216314167276,-0.08099062415104691,-0.06629975529183875,0.116054654706684,-0.05707875124735608,-0.2458308198561638,-0.00785176098756282,0.16800484204705135,-0.11435620974736788,-0.048890556748070774,0.05405594972090148,-0.06278851768803055,-0.15040565588323082,0.18109572901846024,-0.10165595320699496,0.12839062614597113,-0.07035010431976234,0.007809680824749836,0.09388120852098891,0.11064072005961176,0.0505144127580517,0.08758290277788006,0.07188249771625886,-0.021958095124213626,0.12318919448412598,0.051647209830025034,-0.07381564989787105,-0.041594026583024045,-0.03233683484996978,0.2145731004447879,0.09975413170972584,0.02618233049604955,0.0514282745567295,0.07129420908778598,0.32286204686842673,-0.011379263397680243,-0.009460036316404258,-0.009558711375297188,0.04611003620316375,-0.016619760559313766,-0.15024054920214466,-0.09873951463064395,-0.12147212409981824,-0.07290877557183614,0.003263777884562874,-0.07174637728687466,-0.0774389214416028,-0.12001338057011163,-0.021899495089173448,0.15712595316079037,-0.17185070281435694,0.14491569380127453,0.094702937793332,0.11482691957029172,-0.04386741796796468,-0.00011356341037550467,-0.02959275061817286,0.172270273697658,0.15868378262921254,0.0678838817391726,-0.009855121869027702,0.015754397152048384,-0.005791327294383964,0.0015365318071862287,0.0010103431982079688,0.01298114835978695,0.08111965488768183,-0.09003702068783971,-0.0014295142234525353,-0.00798335457321142,0.002614398264123679,-0.005244955788971003,-0.005918848938663226,-0.15387677746855746,-0.08761141041617704,0.04574824089503369,-0.07846648873041029,-0.02715796606538481,0.09884999906176657,0.20067071742492482,0.11792234459039494,0.11354294916597656,0.05267729931646195,-0.2758670903160301,0.039466061066257004,-0.027907877826988024,0.008255440075900317,-0.042950064393517756,0.003990194093704546,0.02489922577900386,0.005112164318945619,-0.08332510968205947,-0.03904317601202378,-0.21119949744019195,0.06066323399138341,0.10113181477166111,-0.10314328903330375,-0.02768612127404402,-0.11255481559163283,0.013564964246101728,0.01278769325785859,0.028208943275290985,0.06164571611786744,-0.029991001181149973,0.1975119037566254,0.09770235780087101,0.07953348138051587,0.00047472715122880317,0.05350988332443234,0.05554364429773819,0.10917045706364235,-0.012495229250098973,-0.017104102889551203,0.09154533796195352,0.125734229552712,-0.022872607479318834,0.022103068301192227,0.09119512105391003,-0.09551033588456906,0.05604848555085727,-0.10190237134500756,-0.20952953340697592,0.08523099940143285,0.026567226886392806,-0.01484314789641775,0.07059095812966741,0.16847253166208886,0.01145819368666533,-0.08437509618989435,-0.04735964798011871,0.048758366491043,0.12529474163887164,-0.005897905051625553,0.016026179391964792,0.016995344847016612,0.09369940675174107,-0.027989490094485245,-0.09319069378414689,0.2363447170818626,0.008856667508361686,-0.05444208916688256,-0.020527315473349378,0.0671888774160228,0.12133612832487807,0.04261937570243044,-0.061455656723060165,0.052787221746428414,0.07191156526426937,-0.0751780269913327,0.02478108484364927,-0.05673749787767515,0.011719238799049153,-0.2941948259138174,-0.17531900011979223,-0.12732069270942747,-0.06335668228447705,-0.15222528695297058,-0.012482993135737471,0.0479934883453724,0.07328128073860898,0.038026547027590556,0.14508498848741025,0.024499763723545454,0.09817406875784467,0.0283889590459046,0.19031278047884334,0.019233553068242124,0.037611245476784065,0.08038840148304427,-0.031428306479371594,-0.14662960650815002,0.06231671532849668,0.05447786634282526,0.19303869017206748,-0.02923869890939984,-0.07399716835996069,-0.15326235659071052,-0.032355709107438305,0.04289971194254101,-0.17084010257756346,0.17284952442100435,0.026092926248782265,-0.1054353937765693,-0.11921835434714297,0.02981801417205809,0.16457357390631178,0.06344467514829767,-0.03879958688629908,-0.02087858749050509,0.02108407559210155,0.10160601313206187,0.056493576890952836,0.031383910929844404,-0.07592672958986559,0.12327813953131234,0.10880577226217464,0.03275021163494439,0.1450755558557937,0.13390474700131214,0.09324957856447363,-0.06248721747216457,0.20528283401260605,-0.02957723282658791,-0.004127461039022871,-0.04202451414165357,-0.004677029488422179,0.03033565779108119,-0.03323144830719622,0.013763649777044702,0.01479159023671869,-0.06278122902812651,-0.10631958438927214,0.07048186502190465,-0.05755276804024352,0.07302566386079538,-0.13219736986884054,0.07370943737066787,0.048911634959712416,0.11051314027806666,-0.008208615322101522,0.16763258687256885,0.047835130904510026,-0.020288306497462872,-0.06177137766028889,0.19079267116549314,0.05154049867967839,0.09874811134821816,-0.06369339340300126,-0.12290799975421045,0.09850730269460156,0.07542528254799559,-0.010841770101664837,-0.20388073655051867,-0.13166671963916787,-0.08784715748964157,-0.16244052232130982,0.07368364247863483,0.012665082037582515,-0.0447207025294834,-0.007967191648888362,-0.016810359142565335,-0.1827458734591611,-0.0587354135627335,0.11587426719472661,0.07756552495962658,0.134189941630647,0.017179385994971583,0.14463991128216608,-0.08493785749747504,0.10814256117679619,0.0597189872345384,-0.01322379698873509,0.05233877546233297,0.07717844924538149,0.07276421572943004,0.034339238008911976,0.04614830032030323,-0.014429130349125066,0.1331852153735427,-0.1075188616112083,-0.07332878329050956,-0.1423399801839349,0.09516003631054668,0.050344943904965016,0.053516348844327974,-0.08755754534860213,-0.12601941238661252,-0.05785126508656958,0.12299271129469003,0.02950019983641605,0.04055838730770323,-0.17945864398491557,-0.15652290912907002,0.0845917752618949,0.10826752957553612,0.0680697168920562,0.09334563815306336,0.02532931547120619,0.1149342258621511,-0.06733945607311545,-0.07953833038156585,-0.09265921894637863,0.12432703501993023,0.0761696597878572,-0.12360721670754049,0.13778352731604415,-0.014628405187822284,-0.09000811369764912,0.07417212524908201,-0.07901804065464961,-0.05878988760936635,0.07694736497975871,-0.17921674414253122,0.0015392081623628608,0.06521038770640769,0.026531080891324083,-0.052863248330174126,-0.0034800097027480347,-0.023207578166782556,0.010314152837277473,-0.19309018431110453,0.12278414849179833,-0.11963159442381918,0.02607420809955498,-0.030037142659039118,0.03411505333501179,-0.10254280641434606,0.07671491237295179,0.012116296965707377,0.14352989940037952,-0.06467060730111795,-0.027095624147037835,0.05856857118522817,-0.07053960898347392,-0.14227990209328123,-0.16940040798449083,0.06568069395735886,0.018860535407859924,0.05812975619927668,0.14932108187054957,-0.012815438971602023,0.037810174765599294,0.1532101399505611,-0.021539863951813894,0.008258646451882928,0.038759554151301105,0.03857548552374836,0.053223173169214,-0.03267963856843475,0.08187862966249929,0.1495154183580181,0.027780853872886847,-0.05791276460277414,0.27899872397894093,0.3118319343660954,-0.0518802415528027,0.12262900570413858,0.09721613172753905,0.019626831593446883,0.00964145450611714,-0.020074451799012922,-0.04827004452225476,0.11809466833787045,0.0016197556461120086,-0.17547791935202195,0.18364256145655863,-0.04900400898129467,-0.06201828420686236,-0.04984790233399487,-0.009575901630284782,-0.032390990288884036,0.058158230466044014,-0.04389978515587251,-0.04909499323941927,-0.0769517675520863,-0.23338860260536878,0.04848627420073814,-0.020036962205529425,-0.03560519883552762,0.007386807966781852,0.030626062885003063,-0.00834880211078524,0.10279920237091573,0.15317559749314344,-0.12703642200200976,0.090878673255421,-0.03816394289858465,-0.07173908682818009,-0.0817435678927376,0.07627363015045517,-0.2150499702446799,-0.16841744124801605,0.102333378195993,0.0330781398539239,-0.09238717582401265,0.031895309959535066,-0.042527220172597524,0.026080716399993938,-0.09828278713691918,0.10385691297568263,-0.02935978334300106,-0.02812060732690603,-0.020237175636155177,0.07593994212327293,-0.08398475714073961,0.06900048665612683,-0.036468951640453724,-0.0592144724330576,0.051495476848942505,-0.061099379779824145,-0.07327123719517581,-0.07751919407819295,0.16244491032913327,0.07613029431074175,0.006646390491255477,0.13930256964713578,0.11162919135477621,-0.06349320353673593,0.06519700072433243,-0.21204622679776827,-0.0858485888550397,-0.10035979094731645,0.04726207681021349,-0.046623531550352156,-0.018659863540697506,-0.1405622774009648,0.10541360484896316,-0.08072441651252608,-0.008104853893248372,-0.032117708974199306,0.11428161637095968,-0.0961865297838105,-0.004148639491412908,0.08266917060477187,0.01392880215154458,-0.09024001513151092,-0.08680852524859642,0.13168504277455662,-0.05367814076056254,0.059835218861103066,-0.04720654848348372,-0.12465565416040515,-0.09097567477205523,-0.01765903670331501,0.03834811790303121,-0.1898335886260029,-0.15512659027822356,-0.15761444793019558,0.011540268181153187,0.06530853761937659,-0.0672203710714997,0.07091749902045885,0.0015760219356375175,-0.056244524808604555,0.0090128713499605,-0.04937600492136633,-0.07527170739437655,-0.025613214814132597,-0.1198102761281557,-0.06269317715874685,-0.060206773959141494,-0.20388082391426648,-0.14298301868221058,0.06074280542616335,0.03225834645852212,0.20509653565321037,0.02640981762560522,-0.10309950302194684,0.02126408861119892,-0.07619290043932032,-0.014954947227751555,0.006927494670806309,0.0086052971951967,0.04004434881438523,-0.036443702907462315,0.08158913505986587,-0.05811462192534063,-0.06869683826520188,0.006558455646250516,0.0037287433142639335
-0.13470769932058518,-0.02597532347214851,-0.21870614603343744,-0.02700199155117851,0.06562404880401439,-0.13608820100219585,-0.05463141103701912,0.03081515859321687,0.11806688943659698,-0.13113957301071405,0.07499700962918615,-0.03134802671239058,-0.21904311926917017,0.0024333388603497933,-0.0776162442271173,0.04245239511768918,-0.08287637875560762,-0.15980213273223776,-0.03671158709151163,-0.07194801497924946,-0.0011867762676914854,0.04796242646114325,-0.15462780310994467,0.17487537889539997,0.06829407308707498,0.14040134241657673,-0.09526008079283421,-0.121719121012254,-0.13094989647307279,0.10614630314706672,0.22710894334288595,0.016755782274361135,-0.07760916041295349,-0.018576390718224572,-0.2133666363340897,-0.07296676548655164,-0.06747077603191295,-0.05404112533921756,0.029720585976098734,0.08094506217050836,-0.03785018391760692,0.045999562054342726,-0.0471707803713191,-0.06967683002270325,0.10796170109586771,-0.04452678499730117,-0.03459876744546692,0.04539005990804601,-0.20553464021548074,0.04224261728762629,0.00616948625134094,-0.019145815644579626,-0.01289585587475145,-0.15110715308002026,0.010138971927600273,0.16422301665327124,-0.1290720652746689,0.0023441686680088195,0.12889422818756457,-0.010950575349146355,0.04638574928478303,-0.18987539021970695,-0.0011818241111167965,-0.2024300146767131,-0.021537360849676432,0.11716857693988521,0.027145435699795235,0.08970812535578997,0.10235124088406135,0.09474407718596438,-0.05585805008005156,-0.0820186073268925,-0.06293395726442307,-0.09818838800864003,0.0068536560378538005,-0.07447241877696668,0.17067611149130807,0.04689268847302416,-0.11360620391577372,-0.14325370591535894,-0.24136429513995564,-0.1774209389300207,-0.048450535403316536,0.04768673754833802,-0.11424794617985305,-0.04440059129574973,-0.07395850870436614,0.15508360481013791,-0.1843848348667955,0.09404669095791698,-0.04949557087567822,0.11517659337758164,-0.039961123323009384,0.13095664148138095,-0.09702168257323775,-0.14911273923725438,-0.02035615747907441,-0.1035814560118647,0.12387188661843802,-0.2684515843666207,-0.09192331672393086,0.08515469027941897,0.05130820062285406,0.021628807819429306,-0.13305494903336476,-0.10247655158806872,0.06925460271722524,0.07612700273237179,0.1483307295746563,-0.016970087363658126,0.0772387120693623,0.006940756903461558,-0.1467883631997018,0.011232041004035662,-0.042151467676229855,-0.0174542506671908,-0.04122483103639669,0.07728561784572868,-0.11195517475384849,-0.12059055556173176,0.18092911738893488,0.024055516137499715,-0.05687388348647376,0.012756436829306377,-0.13409841573323938,0.1598124513928489,0.1140417077222909,0.012234432720318034,-0.03432965958052526,0.0007887514854792835,-0.24545532347294843,-0.07609996974036211,-0.08237414419172623,0.050430165989137535,-0.07512569967837375,-0.08810246397960776,-0.012959880785198904,-0.16427398083881306,-0.06818839458325048,0.1793259032977194,-0.13869409774077276,0.07394356662812819,-0.07501226103856248,-0.0350615998677654,0.06916689512308449,-0.08567365267869094,-0.027334650988937465,0.10475546688134806,-0.06088036713230944,0.032622056566646816,-0.054740260005713214,-0.13705067840545732,0.14114024610136394,0.04095472212619492,0.0035703798705939076,0.16590827820496581,-0.02773776482359908,-0.19691011753041487,0.05095192526739833,0.1693285300962407,-0.011871723532982397,0.015498344869626009,0.13428546367406732,0.06543371298392407,-0.12426941833988388,-0.14417979288241234,-0.02492318913046626,-0.20825216538240723,0.0772715425469258,-0.1053084719314279,0.096441132617312,-0.10754581569701734,-0.09720937992721401,0.10508456272325895,-0.14073300383243278,0.09604254263810569,-0.046254106612708276,0.05884993824401448,0.01416209754462199,0.19707990766009625,-0.10489636045173602,-0.14904866581967688,-0.21350607103965127,0.012759647156135373,0.16197976277852932,-0.04088047904460224,0.06850505419202058,-0.007601905263960207,0.15286070068877383,-0.05858508808916433,0.05264282831401308,-0.08067488736815152,-0.03329807038914383,-0.03087452580460346,-0.15104406256789144,0.09392603396432056,0.0021977922883393924,-0.20000414633554758,-0.08718568374590266,-0.013676016809655333,0.00218111202110877,-0.02403402891516795,0.10699886807682377,0.02660525663095508,0.11761814980187156,0.0803093224814974,0.12295488874408161,0.22120278249868341,0.20133624296939076,-0.10711146661855514,-0.05880216314728091,0.12958021434495737,-0.019107815831148733,-0.1490774410370465,-0.09890452110537348,0.1034650368112197,0.21225900583008392,-0.13999183499465626,-0.06638793833113389,0.20454644672459205,-0.10339683460921603,-0.19793105118639184,-0.14756517569173433,0.048905038554056916,0.08317203564031934,0.07672154381145561,-0.10841506568547789,-0.06609387468076221,-0.03226389528039032,-0.10050831198131968,-0.01009811159453079,-0.09930235639397159,0.026968653147500875,0.14669059431012094,-0.09538247563629666,0.11214464109547562,0.09643995418019984,0.03896122555708122,0.06382300397488207,0.07301205605801499,0.22885540188564865,0.06385855858918481,0.15459426499585108,0.02203478812879623,0.21570301455363824,-0.028376033745149253,0.07856360346820897,-0.13899766129857052,-0.04804659861500269,-0.08934350700669776,0.1812795441226533,-0.028973987167691975,0.10074495287598718,-0.11981220016676133,-0.05493823290648075,0.0709940920286015,0.020937227636255155,0.09082779202895945,0.040127598118118474,0.01527660208993947,0.19473038783104593,-0.006248026069716567,-0.17732735431255267,0.04289410395445356,0.010305081491077226,0.030312552866853314,0.06800648514929135,0.08442287228338384,0.1183862295804482,0.027702037075707144,-0.08787683612263114,0.16879823042538494,0.16475359983832846,-0.1108312860990978,-0.020104529181278738,0.16827397211517345,-0.0013879636758901642,-0.0559413200358479,0.08320073830821698,-0.12166572840485204,0.014450901974583395,-0.03753577071057382,0.034143138510636335,-0.06681959904941191,0.16607018205269133,0.03116343387150619,0.03951355799133584,-0.044442194827373625,0.13805965979163373,4.7643058908272795e-06,-0.02390331274909453,-0.1295641906601236,-0.04641270573874129,-0.11939735743904237,-0.038744785401564015,0.19495983202664552,-0.05501293202805228,-0.007232689441074128,0.19906025887466083,-0.08587785410578108,-0.07165639486769002,-0.012880559262551878,-0.03728379090573142,-0.07493886999519123,-0.04250869524645129,0.04873259828722919,-0.03418010939004845,0.11638283772444934,-0.017254543972961507,-0.009562935266470837,0.06907857677357686,-0.09552023128495446,-0.0036378240420436064,-0.012938563857576744,-0.04906654773428548,0.08659285031918189,-0.06456727961494534,0.033971552076702084,0.09796922267044153,0.07641556256681302,0.06718171424783867,0.11820978719551274,0.12731730652209733,0.08489297074307726,0.06961757291291122,0.11030483546126504,-0.05811517074110958,0.0028752158431791103,0.11424829740609332,-0.16799829845666642,0.10138804897470056,-0.0899761474081191,-0.0293796709659942,-0.09930443298506851,-0.1981713611433089,-0.005245111830050791,0.08957614080522236,-0.06871753946221756,-0.21404505491026699,-0.10407532440623284,-0.058170921710278954,-0.08174864507738545,-0.14763217453683272,-0.015195216393740012,0.1021662534722487,-0.04156933666427111,0.04230476060292748,0.03842455552713601,-0.013534619392552181,-0.05970288217155361,0.0073991728867449725,0.10278836495889006,0.036440828545748295,0.05119459540690225,-0.10238699166801918,-0.1806316471672297,0.005700438937255109,0.001924639641966564,0.004175032466465108,0.005305406126127172,0.051604355837278106,-0.09087561661660586,0.195331226364757,-0.08614959745598334,-0.0692385726036375,0.05341565048549711,-0.0817660134757105,0.108061616200836,0.09063154413450082,0.009232703409421278,-0.008604312203203445,-0.08851993043388283,0.08067441966488105,0.01893691371506107,-0.05649644537994857,0.05994549689382584,-0.07592766990723554,0.05481216306364944,-0.16117161060410493,-0.06844582203593289,-0.1021066173698613,0.08121930549302205,0.04926362760100754,-0.0652864904028942,0.049782508090518214,-0.03606125452059419,-0.07272125648526709,-0.06315820812328203,0.028132808195626954,0.07897823067689083,-0.12044555580146978,0.057711434387402734,0.043865701085598,0.14927211360264644,-0.11198854324992236,-0.04338337887293128,-0.13115263942787567,-0.03378931714012272,-0.03699421323247652,-0.03417490248298519,0.06957031049770718,-0.04643472769977767,0.00588362317520663,0.09327256414722675,0.09736333685838566,-0.09848069388909843,0.27924013113835844,-0.07466021883907757,0.005998293754950604,-0.015392105080311014,0.2037298407266265,0.1867012000986168,-0.0348492065018191,0.08190033753227187,-0.03372201956640629,0.059748626147469605,-0.1272870229773487,-0.06295280427639559,0.0476791515364302,-0.05598191621877575,-0.057805088852023505,0.002282280910468645,-0.14999746676362155,0.016632319712383353,0.04448801663763968,-0.09502939488475991,0.01574932434192844,0.30801861389000534,0.24223901875980194,0.05921950328711109,-0.03202758965233651,0.031427277331346724,-0.04156954476589755,-0.22524638686171336,-0.12174117428829945,-0.11312312967548054,0.01620725093575567,-0.048437359839003075,0.05154991523391898,0.037042878335910114,0.006452925187224552,0.16409714925521393,0.11208349094565905,0.14110337936316222,-0.016932195584037694,-0.2748667007286759,0.007040923676765825,0.016012221984726266,-0.1537976508286315,-0.2718528950067328,0.011734640831660093,0.05454489076456519,-0.13266788247729838,-0.006661270648483407,-0.06807080061680694,-0.16175367758203057,-0.22707180750922346,0.065754661055962,0.1331453445434087,-0.05473783295619711,0.12762175202874265,0.11787566189166002,-0.06012629022753286,0.1445928542155764,0.1287971706281696,-0.17561446413730739,-0.024377083437516045,-0.085003535060351,-0.15948286614747195,-0.07487820148398824,-0.13255045377774338,0.1128247313929497,-0.25075773647621064,0.10331783677165592,0.1708430754173388,-0.14260968185415587,-0.07323680773316202,-0.10596482362454072,-0.06413070823053166,-0.1451091650278695,-0.07635404687352813,-0.1152416484359305,-0.14231794540973902,0.02424216885918621,0.0584725062907251,0.18892121218525804,0.09667133901119108,-0.09596199101035911,-0.11070884001304682,0.08118167311041807,0.185214079170763,-0.11030252899860092,-0.0696870322308369,0.0263682027992747,0.050018892198679145,-0.08055727897553114,0.04071419817893267,-0.024882955307847482,-0.07410182656646129,0.022559784781259362,0.08257181286073631,0.08221538445757601,0.0752390085960605,0.1927324325723298,0.08045291544016483,0.031948216691718274,0.11530830544888307,0.15621143150414765,0.025732913650698,0.054946068545217344,0.12480612254726631,-0.17149214393311699,0.15863562449808677,-0.004353666470847401,0.1512344008933546,-0.044106507301190805,-0.05111863140069941,0.003955093999746599,-0.0014905522804165205,0.1758572313343157,-0.007701495693380941,0.07229412583000222,-0.08120906443951306,0.0015185575454605218,0.04816055089580436,-0.04967079240559075,0.17058236914448807,-0.03948120763715133,-0.10023358756889324,0.07801412178195029,0.27611510449525717,0.02576434024900104,0.10523862071163967,-0.10519425423940276,-0.03567565102151826,0.10646595869728198,0.01041106883746309,0.009385284958611292,-0.0569991635363225,-0.07189158082143861,-0.13295739830183873,-0.03912243021714431,0.09150379385139346,-0.10909284063854476,-0.013114581634986524,-0.00982387079895225,0.19468324876797335,0.129292188583781,0.058984581720610114,0.0040051860894143145,0.21329007885401205,0.006709086302649975,0.13484789038661052,-0.05445275728689752,-0.037522580438542716,0.08272343589561333,0.13813447320732014,0.0486404166001473,-0.0010463736991311694,-0.07799332062154254,-0.007159151198048608,0.11209467424027596,0.02984034110585937,0.03293531474192814,-0.10767930950080692,-0.040839741411214346,-0.04639007174328053,-0.03198192788817601,0.21824050556266827,0.2510351551258352,-0.011743900854561456,-0.16075493195420135,-0.007158524298320284,0.08276619963030736,0.004191163831406704,0.146361209418791,-0.042629549534963375,0.07812971379447868,-0.005207343994665146,0.22574289898534589,0.03927087617495647,0.17292076581956084,-0.07460868363274444,-0.10933784935449029,-0.1716156522678112,-0.057497272217370075,-0.01353944206744375,-0.00035271942408571835,0.03867264231811213,0.0036313916698212153,0.12432738472207526,0.11580589941854989,0.03314159826321207,0.08641293892955267,-0.013418874369007799,0.1468758903701871,-0.18597109952320265,0.16035704198064257,0.05141451853941304,0.05381760066886727,0.16734987630363232,-0.10301599623157368,0.10804879725065632,0.03307247921132746,0.128132415492423,0.053894413025537026,0.062296643039222895,0.13721063335868539,0.0036209263159290798,-0.09455390495918913,-0.1277032955955757,0.004530392694037373,-0.016236835594735804,0.07930165366387669,0.03316331028317242,-0.040546860597368686,0.07336027883077766,-0.05188500229717213,-0.1929531172090853,-0.08929806081053207,-0.2115490325691926,0.060938080617888975,0.03167977376850806,0.0664982107837408,0.024082827608449132,-0.1635742724738714,0.1866615351871359,0.12133891847121445,-0.07479837210333949,0.17731548086781965,0.07379920828085872,0.07734033814913487,-0.030758370215004043,-0.006028368048934939,-0.04705727095437774,-0.08303223814728308,0.0047469264559782745,-0.17109138324871734,-0.037938614711693755,0.019881542756387253,-0.11048570805611992,0.2083281917311755,-0.07530441532529374,-0.09849897468051368,-0.08403871469595858,-0.12900032942634135,-0.09964203342140332,0.048999169994387554,-0.1409737358546001,-0.06663808930752853,-0.09654601371216218,-0.14866709543750856,0.0379524377760286,0.1379527655058139,0.012407278185017624,-0.13159717140902294,-0.04552321438334191,-0.0009124966426031277,-0.022155914394651834,0.06124139126080026,-0.07634650644878026,0.04028440555616827,-0.02805169758116493,0.04194922113861156,0.08460619695245437,-0.00531250755223394,-0.14010846959139453,-0.07398605909612992,0.05510359155649739,-0.12603347255645814,0.07600399002479741,-0.05091953622211463,-0.017592396036054,-0.008362227703573954,-0.05575655327106656,0.06907599464342093,0.16091697954999637,0.01461346545330266,0.05801122838669652,0.10925468050717357,-0.06464715824023132,-0.010373024997333224,0.04269856044753058,-0.15117237877810064,0.07782419822836886,0.00791784194805787,0.041317534175333286,0.13778820289719174,-0.09429292061783885,0.07129103252876977,0.10088866581841784,-0.03949863426786199,0.048681964747941786,-0.03981128713607167,-0.04014194673969234,-0.06447527416273133,-0.003775327190129866,0.05478701802713863,0.07006629272840316,-0.04244463742115255,-0.1638261576304912,0.0937263709857927,-0.047575564384297934,0.03473449154462586,-0.11060617380946851,-0.12620471030769034,0.025492729760237382,-0.09596629392409718,0.14055691602488826,0.048609230425164504,-0.16064160451996767,0.002365724210244154,0.21015108673370617,0.18836259806953426,0.06719697824320738,-0.050015293088606624,0.10937470618301934,0.16504418959686992,-0.19806032088262637,-0.0942993716866275,-0.00897392121425839,-0.02083421787826329,-0.03092208653631181,-0.007861682347060542,-0.11806475991535426,-0.10830208048737268,-0.02972464355756892,-0.1803001148032863,-0.046417214541543524,-0.02503346684074815,-0.006214578226272892,-0.10924446258973156,0.0648865628495183,-0.00786958073415587,-0.015582653267289708,-0.028839907425781276,-0.03274243512789475,-0.017147240941125158,-0.058547467328736454,-0.06140305176283424,0.04616591620658235,0.12023919901042995,0.059278179776113445,-0.027106959731794673,0.010956637569278088,0.08272290198952954,0.07168244920521534,0.09578223833481751,0.12634711435604246,0.1428244339452543,-0.0788120553563923,0.12563682335736812,-0.15670463324737008,-0.06239199201141946,0.07241262959948386,0.04183747206008872,-0.26419609445637404,-0.20838933505526966,0.011699642041979616,0.0965578925870325,-0.08079502956874839,-0.043311308918133166,-0.07564044154473798,-0.11167870929723965,0.030529247560272536,-0.03291079788749972,0.011039382362954318,-0.16921095255989446,0.023830256171151285,0.052136777539937396,0.10634336566969807,0.10294841635984125,-0.08357582312711904,0.16608013040004574,-0.1290631388012945,-0.08401230544257189,0.05908095521826133,0.07781157701824096,-0.02939090320930354,0.13420107798301875,-0.07864318368165585,-0.08827805822357536,0.020913455495966845,0.15119901092505456
-0.01293170399744735,-0.04303320925485431,0.05068491926000947,0.10441712802759533,0.07025214304877768,-0.06430049621322835,0.027919106214901027,-0.046478016370769565,-0.1132291708401242,-0.152531033105211,-0.09188510230755415,-0.009564677747246937,-0.16624089998283456,-0.05621345931523703,0.12140838164583069,-0.09221766173474132,0.040191175296129505,0.0549958163883429,0.012974736761527042,0.04186878083286654,-0.03154289442110089,-0.10935578059895243,-0.06463792562895387,0.033130756490938426,0.04316004086443073,-0.11693281300352132,-0.3348739416233729,-0.12302567883962619,-0.07517083988531462,0.04535554964619562,0.07576979622758903,-0.15471627460150753,-0.07424128604291952,-0.024451247699263698,0.02617961436601592,-0.03938811658060216,-0.08714366729592546,-0.11322109364789457,-0.1373957687574939,0.03094293267293918,0.010405343855712915,0.06763222980063845,-0.09802030082346427,-0.02740590605664874,0.2662124591102327,0.07056728118343324,-0.09426699546841064,-0.2327300896857956,0.1503745057209255,0.07598788995029694,0.059874697117726236,-0.08255367414375325,-0.08661194245741863,-0.14330973996333157,-0.11134009404446853,0.003275815639384161,-0.09860713847044711,0.10169096261370889,-0.0838040742666853,-0.08482656631885739,-0.15587763833099616,-0.030979487629436867,0.12708301544368927,-0.027953914937496903,-0.10130696109036769,-0.05785989222677304,-0.10223993854122403,0.03644490670020885,0.0070459651482703825,-0.0995978804079109,-0.024146340262513184,-0.056874353863855434,0.02489667536665246,-0.053509489199887114,-0.006205225706126624,-0.11672835296293294,0.054756237885225746,-0.09149165645819131,0.1499384108490917,-0.06086960214202167,0.10374129692101246,0.0855170541545643,-0.03719628117378021,0.1437954227711081,-0.1947217639459324,0.04936796530104605,-0.16533651127077018,-0.09983590146398202,0.001688759962067503,-0.05101943609152979,-0.07300111251910313,0.019142263380129643,-0.04545465387201919,-0.11943121967853197,-0.047931962713120904,-0.09370831974159291,-0.06379367249630584,0.005151643286899541,0.19849667431698886,-0.03707365579385399,-0.07004163470879526,-0.06576093233567654,-0.11444344763783393,-0.12991760933473487,-0.11337905651514243,-0.23932205274705978,0.041032410639272224,0.04061566090340372,-0.02747219246899246,-0.1445019234315932,-0.011005012409312832,-0.07404796262634113,-0.04110047796629714,-0.1635495881407427,0.005072093055976362,-0.11292296571648638,0.10482479727637252,0.21404126754130082,-0.05799929620846208,0.153760850299282,-0.0797728624333056,0.15300017935165372,-0.005388057184106823,-0.026481167190765414,-0.13709740983177438,0.1581898430920299,-0.0060111310576358296,-0.20513704083334725,-0.055990504520089975,-0.20902222366609036,0.00753751990623462,-0.05172076887373187,0.06277328997857941,-0.12140133306382589,-0.10151638105945522,-0.16235672973959764,-0.035940543637105034,-0.09074111651476344,-0.1407990490426551,-0.08099280293619332,-0.058067367763090655,-0.08352820933369275,-0.005224192098592326,0.007391532266574442,0.03461857705749668,0.07138128701997064,-0.1277306437639277,-0.10811546387700412,-0.08213414777005201,-0.0017380355835801815,0.2435784040834416,0.09760200584734637,0.11447988466826935,0.09617196612054588,-0.1289537894621058,0.019554710134509472,0.17842898667468596,0.07232116409052379,-0.06421105934330266,-0.035869342766407165,0.04175689998103645,0.1276202151401218,-0.010900312291615156,-0.026757189586534485,0.06882068136096053,-0.16209271764571068,0.08539844241949697,-0.05422451519284622,-0.08896801790281303,-0.08115589439193584,0.04032760619325408,-0.022725081502011437,0.04058944975662072,-0.045956777806629774,0.04763184554304679,0.02493792888958793,0.020140639442605992,-0.12468598183291947,0.03412469096990164,0.12317828944029918,-0.06857206699937927,0.10838436135774139,0.05684596208519712,0.05072148242748875,0.036432087754264035,-0.061144204221357,0.038534347064828126,0.059813232987017524,-0.12448004910467089,0.038589477161942026,0.03001764009432839,-0.01757560310152015,-0.013907340307929223,-0.028506053745978473,0.025109862421590447,0.061696245725792985,-0.15138941473790712,-0.1070433959276623,-0.18776744038378101,-0.024784109936271913,-0.004602037430669975,-0.03366474346207362,-0.08363220339436128,-0.056985743606868616,-0.09827729700555374,0.1331843921586778,0.08002759481008562,0.10561662213673884,0.17075682556555682,-0.0783047267361882,-0.18529234586215793,0.1023598456101368,0.11609408139336076,0.20689692654871533,-0.04373989415300001,0.12048512341844345,-0.05158701371775108,-0.06039604970598244,0.12371349815393251,-0.005900030259643622,0.047697497314451526,-0.06853548613858544,-0.19932939667360303,0.14480867819988036,0.0030953041639959575,0.142348020837838,-0.12187226582468139,-0.009870086007897402,-0.10454528727630373,0.017255606792273195,0.04161286655546709,0.13511713742933348,-0.027427795868014387,-0.002074081635337433,-0.06225246891067754,0.11782319311369603,0.2380027004392262,-0.032622202709171266,0.30066746267479033,-0.04704820101078894,-0.04383056362872637,0.12802852533901424,0.10666209333561114,0.1525586975975751,0.14571078544301624,-0.008667633048639045,0.08391690741518876,0.21057517551443278,-0.0011627796165224274,-0.1603519899636983,0.0146416429562817,-0.12563887705278068,-0.1742250963838401,0.1761771508631745,0.14503716339384148,-0.13211875182119553,-0.08251823527151235,-0.07795429466459583,-0.04833086109867332,0.02069901241903114,0.02236885919208388,-0.07374152368232945,0.1394699641279989,0.14458308369719508,-0.00425973763817972,0.12751076276476137,0.05355002864776731,0.09124986796121805,0.14754660172240033,-0.045256807089976134,0.25896161384545124,-0.09420739884876128,-0.02712234530988065,0.08633465914304082,-0.007051086126368905,-0.005738208561959171,-0.09725914888575665,0.1276115789424661,-0.29764871385488784,0.07906666379656757,0.08994115103695749,-0.05455148462194624,-0.1763465991412076,-0.08516414626226705,-0.0021033147632487648,-0.12937645853346577,0.157185135156007,0.1711513257943111,-0.06321275867566459,0.06970153807453085,0.09696741974587475,0.2143400736780355,-0.01146004574661654,0.22591872162900983,-0.02188342964290424,-0.07639840106136676,-0.07069947870122527,0.02433333146965543,-0.006949145482789802,0.1001621347270647,0.05365447259567054,0.06880980118016071,0.009435179587002823,-0.09361883451854217,0.12355364257640593,-0.06419968995215045,-0.03357705663018639,-0.08089593430297995,-0.04189682253358678,-0.026722106115472995,0.0071815890782493405,0.13662832336998193,0.10795654338310587,0.0817943388270924,0.020921976154157355,-0.015693484020923156,0.05405491414637143,0.21096533003134474,0.004420936428956675,0.29431766708288654,-0.037048937087553566,0.06865516612148906,0.0009110519670469115,-0.09875337546010496,-0.050978090384807134,0.014206664713585698,0.12865902982554378,0.22932624127269907,-0.128299802887398,-0.03836064243797337,0.025288282737494096,-0.0016393103552474753,0.17774849802253195,-0.10982922204769956,0.10255175816912743,-0.08135788070686002,-0.0012632753844030438,0.022555488120178657,0.12611461222438758,0.004109406836266002,-0.029771396215814313,0.05668486996671505,-0.23424894197579174,0.03811492593310688,-0.008846404665425035,0.13356134250752802,-0.00874220820821408,0.1140426866289189,-0.03694640337142557,-0.1839232420090609,-0.1184058386687912,0.0032021748515343876,-0.06273002209362559,-0.023264819603422675,0.15337847934495602,0.028961821711995087,0.09147407399253454,0.0020643907761604776,-0.060576195213023445,-0.06447474244765185,0.002510574496037934,0.06974179811711945,0.0816078867263827,-0.25161955707554795,-0.04274922738893845,0.06052455931034257,-0.0919496581935662,0.018612797685220228,0.1441233556336317,0.13743848069080775,-0.10168369911469102,-0.1291671724131639,-0.08600711493498168,-0.0025019991129148172,0.2923328400151714,0.2616734791076069,0.024344750918717985,0.08971354953106182,-0.07922016007288978,-0.017431014233619303,-0.0411796864432053,0.06647039616102936,0.018033284573735747,0.201416453531102,0.046712033748791945,-0.04439684209313379,0.012439171721206694,0.05350682644962236,0.11948527761679177,-0.051199000663276775,-0.13030057744104492,-0.2241408474228088,-0.12014193654278654,-0.053928979878695264,0.05332668272031508,-0.20079407031703747,-0.06439605915329984,-0.010256076503747569,0.04170376163611481,0.2442815368437278,0.1427795635776979,0.03417379772173567,0.2421550673359707,-0.001981877128714048,0.07865954286574303,0.10471255530020267,0.029224208582074685,0.053056328705250004,0.09380508548714023,0.1152024752039519,-0.013379889365339756,0.038866621045194345,0.17955551192217417,-0.0752247360259598,0.1375369123788544,-0.012631876112264314,0.09114449213761368,-0.08557437929971201,-0.0759545674461604,-0.0705834755428039,-0.14203483526081306,-0.015171142196548566,0.10822591531581492,-0.04202534309691478,-0.061091982228332134,-0.17689878372828724,-0.08248996100432707,0.07370767431961613,0.03659262510191069,0.12395085751218002,0.07505527046811097,0.13689357733242105,0.054954577323759114,0.15988815811554968,0.028702489277058735,0.054600351534246576,-0.05770131274134528,0.24799093150584034,0.046961954636062564,-0.1188025976169697,0.27183991804952196,0.030118154105938075,-0.004709808486395048,-0.020663658629897746,0.021640290420495503,-0.02141650456039151,-0.0874575918135676,0.023274206950886406,0.01613660934117366,-0.14857850583081503,-0.11702848700816808,-0.24993565666073198,-0.021497982276115907,-0.01597111138678848,-0.009038149151938138,-0.012899520982533438,0.12447137889070181,0.077009022352939,0.007186336377331055,-0.08708277444431003,0.025186377896441466,-0.07505540422961436,-0.1211734879053777,0.17857690344626478,0.11613540196895596,0.05639695977961874,0.09949250807864506,0.0878986233633602,-0.10627116500562749,-0.05251280480218656,0.12697339702579905,-0.1412508305885659,0.014447386949832426,-0.08942922084487645,0.021537788308819476,0.03783832874828724,-0.0339079804324698,0.07355063554303723,0.02051836149750619,-0.06310887020749976,-0.02463679786979409,-0.08790389696127586,-0.030718870347766034,-0.07141236866625371,0.12519157869488237,0.04395149587875811,0.04125348272468815,-0.00669305146915243,0.03840283020594719,0.09468116437037287,-0.005842002282605563,-0.01002978767758378,0.09187192317315301,0.01723621496410108,0.14402317222211727,0.33199378969774007,-0.10182995028468614,0.12130914022083067,-0.049603699620812264,-0.0035859261972395547,0.09629932450153726,0.13653554748342106,-0.004910123648114594,-0.07607573147012493,0.061209488944675546,0.024212218539528593,0.08435898208605451,-0.14020980468315808,0.019093569093084347,0.011260627418673855,0.11647740612393427,-0.16341049660727183,0.06959431674755727,0.0511511585889728,0.026855428488071383,-0.10200391785620365,0.10338059458415831,0.12151384864143513,-0.061899210077576095,0.02064887101989692,0.08846244951258185,-0.06199987428301359,0.029925772404637067,0.11185736178240994,-0.16049433454999704,0.1978458610100169,0.0457233871125585,0.0721367553913713,-0.05609053419761182,-0.01332432493497763,0.17229048307400627,0.06244804691352143,0.011240582799878008,0.049077694635952795,0.122420563765747,0.008980217716911423,0.12622253906236852,0.19568892797306583,-0.03216310390093873,0.24536297482097913,0.050653668980667824,0.019670579937883185,0.23032799433267562,0.1547793847108993,-0.13864114905053396,0.04687020937095592,-0.10190681139908156,0.02954918250783877,-0.1129641759033643,-0.0937085682643023,-0.17364218833392822,0.09151168467147776,-0.013716225812568128,0.1400973773936655,-0.06934780948934578,0.007923976946177897,-0.11974140454958326,-0.1387159455116782,-0.1284357349320077,0.04509992153628728,0.02368705759344521,-0.04901644014482549,0.025893298953041977,-0.035031582243017716,0.10816090544072479,-0.023352903842801354,0.04571079831557871,-0.0038786859882681424,0.15361117236356628,0.1124922164884083,0.03653667861526296,-0.007014382843610077,0.038994065779791046,0.10703861552730932,0.16440379880522987,-0.01944613186564542,0.0890241520750422,0.12342548601205462,0.1717242915026607,0.028415095877584406,-0.0015709232282329752,-0.1290835346999115,-0.01665068094388288,-0.1922732493071264,-0.16327475114195963,-0.07723236079106692,0.02630335120712065,0.03325859618229294,0.06228594298371011,0.11757825223346503,-0.08996688763042447,0.13798100861963772,0.0861433608754301,-0.07126752635548819,-0.19714667631855454,-0.041913789478868244,-0.04967364805898676,0.22557575504853244,0.0028534325324773395,0.20932878597979435,0.07589934928223432,-0.1402541842691613,-0.00854707492932198,-0.08364597969443369,0.2231493424959771,-0.03238720146109347,-0.026404945471733533,0.06977381433709812,-0.060055311075521096,0.057314547582058596,0.05427520866205206,-0.004995443848281213,-0.02373786590462448,0.13750452087890744,0.01865531268999813,0.025792326411382214,-0.07416023355464123,0.1928445123419514,-0.27396860984170657,-0.0650884943967366,-0.15768333095781592,-0.041992499911633736,0.046426530393804684,-0.21740142783740835,-0.014215241308493907,0.07988572368042897,0.046198159771993465,-0.23037425887828322,0.08691340941152745,-0.15889543059133807,0.014129312958911629,-0.03670090576570729,0.10942651796816653,0.0013031596220098836,-0.24234828395580257,0.16796057131657227,0.0008811118146147872,-0.11629377115505037,-0.016346041088031626,0.0912960589534406,0.0372350028372492,0.11291039271859357,-0.03816942321841616,0.03013545149457082,-0.21333223351509165,0.02103171218700376,0.07166108716733198,-0.22588012264715146,0.08923163324074161,0.17517233262425655,-0.06606934893359608,-0.10387457340254767,0.057440930591346015,-0.033884118736268044,0.0009416469157202078,0.001105631525066276,-0.06296723438532391,-0.06438471389255754,-0.020364719338783272,-0.11343236742326382,0.0027822023753547765,-0.08488695540169154,-0.022665383619694234,-0.06430342815596886,-0.07415886934328239,-0.06137184727750787,-0.005613981543059028,0.11363590498961068,-0.010775128059244498,-0.07387234298030616,-0.12191925316977967,-0.07540125980643099,-0.015956328365028968,0.0798770541395188,-0.2222348116968183,0.19771609757755884,-0.015685478302958765,0.0048072614202764145,-0.1381377555036935,0.007997225121116319,0.07073394009738526,-0.029141699512023198,-0.0758163451553459,0.0251543636865632,-0.13311722607065568,-0.00841386780184437,-0.13122735982342973,0.15621037088407722,0.017585589981522917,-0.23513031891107553,0.13136796759698693,-0.16345945999948594,0.11778279279358476,-0.1380062697387474,-0.023423610783917838,0.04403284724103339,0.10014737382476627,-0.08489214033519896,-0.005505128489852549,0.003887832410587602,-0.04579839695535046,0.021749819903905673,-0.010454116488421275,-0.17900751193154288,0.00862708097129578,0.017366424943474096,-0.15068607521887495,0.05122369570957444,-0.09794202516269494,0.0038474061572911474,-0.16381976860225797,0.020814387580994898,0.10261034676708296,0.0866835456032209,0.10066093581512145,0.08285889461138136,-0.04733476821045503,-0.05144885978586244,-0.08759855695566662,0.019965195050044158,-0.12108354833684896,-0.009456844516967607,0.04052507759166815,-0.14281812129834076,-0.1664262422725176,-0.03157626683323332,-0.00315829739005641,0.21580105802848268,-0.14249269252293115,0.0568038878253562,-0.05167078943912723,0.03710801945983462,-0.07797775943389912,0.027850535003158768,0.1376089386118144,-0.17843625376776182,0.0644070018587609,-0.185688193627697,0.028566604560645806,0.11986403541375924,0.17343947870903692,-0.0929477436111697,0.04466702560917856,0.09935615300948965,-0.008962764933025422,0.25986203850118667,0.04089151670207184,0.07036708213468115,0.11292026560015889,-0.08954992039465758,-0.04113294627969381,-0.055175750235205365,-0.026422629404771684,-0.062081887273501446,-0.19838808638065017,-0.1778746974213178,-0.11914783063332315,0.09056586727971015,-0.05660567385471414,-0.02383377994094442,-0.12534506273817111,0.055216407293852965,0.008512323420440794,-0.022736401902870473,-0.18045901473881412,-0.27532238318863966,-0.03462272838139655,-0.11538085306397554,-0.015122861964289157,-0.10463612310289166,0.05626106789176195,-0.05569765732093414,-0.17718003896831816,-0.03204365938442475,0.17615616119660746,-0.12135118458345287,-0.13380557263606865,-0.1269712913339062,0.1291013050232871,-0.037621102935589255,0.06494869510198807,-0.20830163045386182,-0.027610148471645828,0.09295035079501683
-0.1486001545812413,0.12508771127253762,-0.04340781714294249,-0.08241346825084837,-0.05812148469733726,-0.055434530102214656,0.2760451736697366,0.0821415711753428,-0.023739973375414173,-0.042910876132042634,-0.07800301199843014,-0.037156105692415814,-0.16590568145202075,0.01780291674730606,-0.0056701143436347756,-0.18647754037166095,0.06602124348905053,-0.11575384297047052,-0.09336299697999337,0.07396129453323577,0.03851888692714643,-0.07694238870422081,-0.11654623982516983,-0.10466813741275273,-0.07249859590059783,0.043372536566081754,-0.14027513349452655,0.1687265976989385,-0.1879794570028396,0.045206650752854835,-0.07478117643585114,0.06438604707170893,-0.00229888551757497,-0.03049542581986452,0.038707428374236234,0.025671630112116834,-0.03724303164698133,-0.057077864572216606,-0.15154525666638305,-0.21963784901045927,-0.0008727361110836146,-0.010264864799472879,0.18395323194243682,-0.06825951947187017,0.011639918023906775,-0.06683682884207201,0.0011465510029642465,-0.020931006147792263,0.026888714867959372,-0.2753005677356863,-0.01965908903327359,-0.08627812136569839,-0.16086664719185226,-0.0011604600331623271,0.027514583482703255,-0.10212694976099072,0.07098154294225396,0.06360163807946208,0.04964598927175144,0.044949182855053,0.1107551324782816,0.008770751034296916,0.10789438927071633,0.079436456404534,-0.05846653639541653,-0.030798162654460188,0.048173968015097914,-0.1748300241076873,-0.10988215896316744,-0.10909640674156207,-0.10324326594962221,-0.055505837490046034,0.08955837681342756,-0.047921743251629484,0.054553617870104175,0.01676121047979649,0.006379330483659522,-0.01222464393563367,-0.04871638049269426,0.000215202304221965,-0.18060520043724182,-0.05174601737562721,-0.05836249225707965,-0.20823093409010845,-0.14045363113567683,-0.010539990144514642,-0.059865582067777534,0.0817972789099069,0.07873816713400053,0.03274243161291599,0.06829377168058196,-0.23921386670206485,-0.08669574763057537,-0.22037796914547486,-0.17949279123056655,-0.0009424295199913897,-0.044344844580642674,-0.2464252260066834,-0.03513556029255307,0.11535355824300063,0.01580151264643779,-0.003971249961914532,0.06790555569057127,-0.07167689723963074,0.13530418531894775,0.019472133010364486,-0.133944855238404,0.11223288276899118,-0.07156128770316185,0.040080220278984106,0.046267960580922765,0.09199684014293925,0.0655530911643841,-0.03679190662836192,-0.145391755608758,-0.009707752932057398,0.0556787266011947,-0.14965400063757409,-0.15447487762709802,-0.065256260446237,0.11404848582251008,-0.044216936378309965,0.037375382940748235,0.01697596120077819,0.3093471007986342,0.07375619551554141,-0.060676600284752795,-0.09176557739958345,-0.07034992966282004,0.06876691386114403,0.11663006001758035,0.00801869214044465,-0.05419047992329166,0.016153621091363046,-0.09698094383415785,-0.013080899487931041,-0.016748502411167383,-0.03099094278769781,0.11610580689096127,-0.07426171600173409,0.13969018199716945,-0.14126195643420894,0.11255537425846371,-0.12232457227592461,0.02621035587346158,0.031117502242536777,0.06737795570977673,-0.01632241750123251,-0.06537121482833896,0.04653189652072314,-0.042855870117467956,0.0015870174024841472,-0.015184711721395284,0.1160319500659867,0.05360529612337287,0.04627348338342391,0.004630091991634799,-0.021422177457264182,0.023556512203295344,0.10085068734234433,0.08898024769889791,0.1351487348470525,0.10730498273981758,-0.0331142585532995,0.028947959765207427,-0.050574119616308665,0.04088853646087857,-0.0933550571162647,0.04116713573949954,-0.09768311114847301,5.635334568834308e-05,0.10546698819281441,-0.17361862640871834,-0.19134907962970757,-0.0720676624915745,-0.11625101651270299,-0.05302521825238314,0.11242721672045952,0.09570239370128726,0.11977567364131927,-0.15425025011311044,0.13120842935778987,0.12308338619736953,0.1625672891886701,0.12514256881744482,0.12052133121193635,0.21756653565451292,-0.16909437559920812,-0.038049543886446636,0.0820264386454499,-0.1284787899492256,-0.07576512341115046,-0.01813376979348523,-0.13905507242742757,-0.10455823460429126,-0.13144013721417816,-0.16952150604248217,-0.10600443077345151,-0.19374536946565477,-0.10268998979969048,0.05285382887866052,-0.12924378231797948,0.12102257834069864,-0.060273520290298116,-0.08760153564157873,0.04572295595733694,0.16698114267327746,-0.10317758364840031,0.06331330365965188,0.05368148653236447,0.10462850622826946,0.023321968885804227,0.18910726672317107,0.13042587297881952,-0.026535058012434595,0.086966286325722,-0.0035015073220528866,0.13865333974010258,0.04049036382413366,-0.10423034077438446,0.03115520005481215,-0.10376447203716994,0.033326330423652406,0.07066013348975542,-0.16112903054251593,0.1626461351018176,-0.1383150142157829,-0.0986573134686958,0.09091496519725771,0.02440821439998714,-0.10008933484571259,0.02815038235487657,0.011281720488335579,0.12172901414206512,0.06805959565349415,0.060192472031221106,-0.10718644913972725,0.006080272151749228,0.17505467050079668,-0.044570172152026015,-0.10671400044878449,-0.031736247800316586,0.1975456423377177,0.16326454631549764,0.09078387162039392,0.13466647494263875,0.03995160952455291,0.11632211023409629,-0.0426843623609492,-0.08160586577975226,-0.13459196758708414,0.07105082759528654,-0.021107242849234813,-0.10270727258531288,-0.0003470752643109368,-0.10385587714178122,0.07589839385172631,-0.08216400967225441,-0.0780561544782177,0.10182808679955907,-0.0129323629157337,0.035822504816001556,-0.01330482263786074,0.013113439617111401,-0.012553353332880901,0.29222049339883827,-0.18807576361883233,0.2065997254145365,-0.04644886299214171,0.14925697165006205,-0.013680005973119455,-0.1328551644613433,0.0625629372052343,0.0550779803727317,0.12431028104897714,0.08875318951128303,-0.14688073636709714,0.0958738889724514,-0.03563313263681761,0.18344597181001784,-0.10166362667401733,-0.04403855310797807,0.010324916905390414,0.028623702725363517,-0.02817267243411945,0.09922589486832681,0.2180490015743591,0.01598197942309728,-0.010141309034167668,0.14783590536894115,0.14518191543895564,0.07187885766896207,-0.03013460410378868,-0.19875879371367128,-0.14808507663047035,-0.014807865430830689,0.14365394195776582,0.046924011525157065,0.14265778257919975,-0.13274855535175387,-0.05064364780872334,-0.1146987911636503,-0.06769830670819817,-0.10725777421875451,-0.011137910052430948,-0.08112758138331015,-0.03983888156281868,0.094084542762196,0.014360952761281867,-0.03425500472641756,-0.18002874317673354,0.04490752302622046,-0.08131261000356974,-0.27854469313605795,-0.004730022446233214,-0.034436256583282074,0.1066484864709033,-0.07906653660224708,0.0463812955503217,-0.08438371435869464,0.11068341863184311,-0.027309875458351812,0.06398139760496112,-0.08549933766159529,0.0978543671330725,0.0032333217377936278,0.19751564762044072,0.04183785011512883,0.07121064933519897,0.0017627088538169234,-0.026243679617172392,-0.05635532733547828,-0.08015973428667796,-0.22320978321118906,-0.059931247081312256,-0.027988033259881556,0.1930792838707422,-0.08556290114940669,0.01629012477878249,0.0037439781126228644,0.0811036681626062,-0.22717908591536218,0.030907497708424058,0.03850101950373751,0.07953247158994804,-0.040321737302937984,0.004112938208663112,-0.14888930414111246,-0.028399305004091772,0.05718485529715897,0.07680648994298968,0.1774375427074507,0.22465063057775142,0.06361490814237611,-0.0010678308538185034,0.05606017904757542,0.11318208483320251,0.03007360097187907,-0.030348864404450383,0.03581250195448774,-0.20814606191727242,0.07941357166022545,0.0027311631310921163,-0.26779203850284267,0.014670249551615767,-0.03775628838083792,-0.0856958151736187,0.07716904623218965,0.0890383945399104,0.11445728255651896,-0.046352146860272114,-0.17471536366134863,-0.023184266980751798,0.043465334388078244,0.04249111549158922,0.019860506170052236,-0.12586002427952214,0.0016407871698395032,0.12441212053272925,0.016001816319923295,-0.02897618795408855,-0.08552111732023024,0.06801440248802398,-0.06536659237022859,0.1779551874475305,-0.07494985256788421,-0.049566790028776044,-0.09787763087874161,-0.0637840387522438,-0.07652027212289333,-0.14179159721426846,-0.1567628991368633,0.057003423993541955,-0.041184294406482226,0.06814941002859858,-0.11301717849437645,-0.08295682881906262,0.0585923529791013,0.05339834788529099,-0.02517504736471179,0.17132399342828375,-0.020455235267135975,-0.034715145467519665,0.035794232768670595,0.015037322629046784,-0.12030820522674607,0.07820791115415866,0.0633334418590305,0.06232236601697464,0.0747226056421016,0.01249184732112541,-0.10228950784132093,0.09534492896100018,0.04556408237406503,0.08724073429395826,-0.04121844482988747,0.09061493986203514,-0.038422243079832864,-0.10488405181152716,0.05394726828325297,-0.011576026479936535,-0.16400840501796607,-0.07259033232127787,0.18860454121895923,0.009240286904617223,-0.18307152364923585,-0.08437495564769874,0.07832022097748509,0.008117484074176945,0.0022050824261126054,0.17545772401076196,0.041263669069319234,-0.1869695606560915,0.011558650692884163,0.0314207745056356,-0.02286192702916227,-0.022802935636077507,0.09849791758117518,-0.2040484107712133,0.07653137975141032,0.10727472206500097,0.10030824039255731,0.08952268633905928,0.12333408511318206,-0.018847345878443594,-0.03830996000955436,-0.07696308868328099,0.09689834551129727,-0.06310220450016266,0.0028627439451206806,-0.11410085894145515,-0.08055593400971313,-0.09945771066713811,-0.07086584858161817,-0.06581047068331013,0.12490155226255133,0.15459952573567362,0.05229479072156112,0.018874898607138625,-0.0767504638033291,0.03409504409185707,-0.11168507451459643,0.05620265635881619,0.036702447567848386,0.09734535647516306,0.1172139235520103,0.0749687802721974,-0.03482964027148624,0.15190482763635485,0.1197395652615095,-0.009381245105508732,0.19193159435500373,-0.050842748921240626,-0.09978526606798285,0.050869453476117175,0.010445366398837693,-0.22936833102315973,-0.1719018503851099,-0.005797022404776016,-0.09810404502940236,0.09788139113496036,0.08175214598915213,-0.07714221546099952,6.362311286971718e-05,0.12355662371342371,0.12252553360090432,-0.006740269309198859,0.0513693238994538,0.23017943549019648,-0.05658885323012841,0.036101027150649924,-0.12705077755646074,-0.04254516723284906,-0.02984998682012862,0.03052596274657877,0.04520167639571708,0.07323959726387277,-0.023295560558550178,-0.1255282636461165,0.023672410791959902,0.0565130101660769,0.19796170254123632,-0.04687840790161927,0.041628816830455474,-0.03314208288357202,-0.00785649325519186,0.09958176686066457,0.10802467811346461,0.1425032304835579,0.04370959367202931,0.0437785370926212,0.10289482833274988,0.2646601068021332,0.004779582774004569,0.009486831929624741,0.10585995060457888,0.10105941232850148,0.041006056052536724,-0.025552555375761305,0.004535252793287419,-0.06071468557579773,0.10255442664392012,-0.06696170894519286,-0.15350877923344003,0.07890999927844251,0.021502025028592484,0.02750263204676847,-0.0793383112551933,-0.022847791426154947,-0.10455071358456625,-0.08941904387721031,0.042798482019720835,-0.14244819286832272,-0.02701961651482085,-0.01816322569841657,-0.02504938358717476,-0.052894939586554224,-0.06475473616532557,-0.058352922076980805,0.06386351181428356,0.08383029656368966,-0.05206902291209829,-0.0189194586850526,0.019279880865344635,-0.06457616150552624,0.07821830824704162,0.02970400199321441,0.19392790895711395,-0.004623464072600713,0.18186346898597033,0.04758508167700289,0.01421172522918596,0.011108991019098461,-0.05071176382172668,-0.022619951586410326,0.07665674613124053,-0.014202863215783465,-0.021919335717898468,0.055061938222168975,0.08524973254445506,-0.004098456504655144,0.04534534838100692,0.08175891861567643,-0.030603804602829694,-0.06983031994737048,0.07672498109541981,0.05113879116263904,-0.009274974789735274,0.2683339660719417,-0.022587512424366643,0.11682409521372034,0.20366207268721717,0.12332662870133314,0.1258635664612496,0.1702671398149712,0.07765061812183234,-0.07909195539371501,0.08040818028940885,0.05289437997176252,-0.039902890890125074,0.1507974665282284,-0.1951726731233696,0.19777782619948492,-0.0787009233908951,0.036766577710278116,0.04591091584935748,-0.030816965362116953,-0.1842037118843668,-0.004772744431092105,0.053264440085622464,-0.12912949224953113,0.0009819355260144243,0.19065422603559454,0.022965593486149915,-0.07710603037014233,-0.015192699052343352,-0.061826476574717903,0.1018663376646975,0.16155825626198975,0.15178472046251257,0.1603399022868973,0.010191057049375158,0.02626325797969071,0.1311529028195695,-0.09033664359174169,-0.056013345479384816,-0.050722525410029945,0.1212696548384347,0.031011014273333217,0.07894901709113045,0.01755526337456217,-0.19931660064722448,-0.0269583409726488,0.0336841375630632,-0.046639205014819426,0.1189477075952184,-0.04406392036835156,0.09689473772509158,-0.05567685277888325,-0.022221333993534126,0.11240739710402153,0.12788690462094154,0.032582764215508014,-0.07720015777825631,0.11893032812810657,-0.08287125183643933,0.15053970245289128,0.20733967476711312,0.01414113950606563,0.10341409144904906,0.011079202998648948,-0.0481083350143941,0.04344412748759815,-0.004983133300756042,-0.008444866793535871,0.05752663049164876,-0.11188299666083469,0.043464409615301826,0.043245514243473906,-0.029190475271659636,-0.06210698981095736,0.12450080891086938,0.05988416339264646,-0.07144048103154063,-0.08999115444544352,-0.046027597662488894,-0.19444914212038533,-0.14310019772261837,-0.03542384989582898,-0.04358513868838709,-0.06418544051111863,-0.13708536007448047,-0.0458110088592641,0.029468823418177977,-0.0544813932021684,-0.013292404770138893,0.05630994106028579,-0.031169871303920845,-0.1790731246201531,-0.06594662751270856,-0.09796328523119226,-0.006978608609339237,0.009278814204619089,0.023671816959391318,-0.01105004101355664,-0.006341758144109588,0.1250565647697575,-0.07585811270158561,0.04803027385163821,-0.07917678656706777,0.06925625210746407,0.06164008369350242,-0.03996568154378649,-0.10975453817964097,-0.14752811767341037,0.1459171296105505,-0.1106097093319693,0.12800638529581318,-0.04465993624334267,0.06506447796023614,0.041580191038422865,0.018755313729227726,-0.1137728281518531,0.05423545938654976,0.10774826893781767,0.12180180846102259,0.029937958189811806,0.043094682136290446,-0.016109179157217112,-0.06781660981941154,0.05817570186181778,0.1273774554873066,-0.032563765732190456,-0.15898968146609319,-0.20774591442249546,0.06893721333510244,0.11649386116567553,-0.1925190417621309,-0.01912400667538011,-0.03590356605644879,-0.0034877286743179243,-0.0719510627060912,0.009833823216924378,0.01741937754808021,-0.10407407071484036,0.11867944546237293,-0.06412621833768012,-0.2176619090902133,0.29276273609360554,0.18419281684898495,0.030965378280340104,0.05535630205026494,-0.0478330876539507,0.017116149978100903,0.08136435246735002,0.019502256107384753,0.0592355731716897,0.04263538925834583,0.029682271797176564,0.11436678630618054,-0.18861513311999992,-0.01905545069960283,0.03444382499964662,0.10136606846061873,-0.027699435626323033,0.04947874299792739,0.02222858974813906,-0.08747030187675463,-0.012376827462404682,0.07468223473808382,-0.005004307132967413,0.06044439634886472,-0.07733529435114354,0.09103816830969028,-0.1475314187711897,-0.14587798302153737,0.034483119982586484,0.164351587010018,-0.04233185784617212,0.01853227035115108,-0.09184653491452452,0.0268967951436266,-0.032819592422362126,-0.08354516503442616,0.13395258684300135,0.09366107954616253,0.1005736714363139,-0.1993249439528175,-0.17767636771621592,-0.09868223472256966,0.2473802614597683,0.03098601730809847,-0.1548348191383745,-0.015957577072664188,0.08587590856220378,-0.024425221861529955,-0.022521771099125322,-0.08947620394480267,0.059653489593474635,-0.0011954495576525911,0.12099915395131745,-0.37609097890561377,-0.0776477113960585,0.06600258355860589,-0.022941343825572714,0.022156961994797074,-0.013099730874679581,0.06589210084716367,-0.05657414032105089,-0.10079164106400611,-0.018870562226706224,0.14925023386563724,-0.23530957601535746,0.05358263817924375,-0.004504534156813149,0.06216539726809577,-0.08174509829007821,0.049445925975346625,-0.1575415883095804,-0.1417571287804359,0.03270093288452376,-0.10443850372892402,0.18678497892230547,-0.05088843212729224
