-0.01851674338571487,-0.011184946216761853,-0.012943071909156247,-0.10989501397599072,-0.04026698157066693,-0.020468156096559213,-0.07130772139516287,-0.07095721729278703,0.017893143267436896,-0.015777290132471988,-0.14478956554162856,-0.327100190453921,-0.0032849433032785848,-0.21533375588720663,-0.04462843902786014,-0.06259823151303469,-0.017010109909493934,-0.1886071326840631,-0.039584616170225496,-0.05223880143946565,-0.23145595741696967,-0.0779109299136219,-0.18838530216627275,-0.1937845788766897,-0.023459623289733625,-0.18441590225662274,-0.033768550353293014,0.04211961686442296,-0.0862771045044154,-0.16277259876045946,0.01630411588659464,-0.0021075593628552005,-0.3166352926627305,0.035329607992524846,-0.04687016054203974,-0.25357823429573495,-0.033730463033598355,0.049914975440283345,-0.037273155298845104,0.0733153272012919,-0.006179057095848364,0.05156074264741474,-0.17966557734717217,0.026096872694410862,-0.044617210115142136,-0.1299296805839173,-0.0636564680864536,-0.07143785812580229,-0.19477500814232376,-0.07422880776477282,-0.15789239428793295,-0.006230758002021026,-0.15896607233586893,-0.26556853178262035,-0.23626265661386955,-0.17918498016360504,0.015096962081440846,-0.1701427066641458,0.014183422486095778,-0.16426162686660234,-0.17178109962328228,-0.15648200533235232,0.08841997020418116,0.12758709653649228,0.1151954072805479,0.12379500632419159,0.09048965567698027,0.014010692534611322,0.22207134005923862,-0.003220014437612609,0.28133542434973247,0.2938922663784003,0.19586519660299279,-0.1502137668904148,-0.5664873145857219,-0.5445775532539302,-0.3014607645795485,-0.442166378230267,-0.19509649692361739,-0.195120009235724,-0.08997195997389462,-0.012359209398094121,-0.05132964218376704,0.016595170555137304,-0.07554369479982143,-0.10322568163812562,-0.3610175078927402,-0.021541077013661838,-0.08112782483168308,-0.11876501654397419,0.05228494857924882,-0.1027056783560761,0.2888262416834409,0.31775508269963143,0.27902592318276603,0.32967024452377885,0.39986966181108147,0.4353224426987809,0.6668672328624079,0.6876562385866732,0.23614184851319814,-0.35425655869660105,-0.6956828859381841,-0.7783056970281932,-0.6053704081020957,-0.47401415841835903,-0.46983494590469604,-0.40855927026478533,-0.29581330097229963,-0.11173180621436246,0.0024747204667881226,-0.11804947315185646,-0.1831786956638481,-0.2100199695326234,-0.10126904323169184,-0.1062335346465957,-0.14247935229552314,-0.07648837550813006,0.19145224886779985,0.002111083824509319,0.30265732899477593,0.5249283607381293,0.5636450608414318,0.6761136135614644,0.9357328732158781,1.1638159447784484,1.0469793680758068,0.4991755770095272,-0.1831896834327304,-0.5723369841623321,-0.7008799251709548,-0.6753691785631518,-0.5881600848155145,-0.5668004445261003,-0.6784220184506702,-0.4144136384597683,-0.40068105610658594,-0.21103088860374478,0.08815890986915423,-0.03695152947215495,-0.05278730696621953,0.027141682675790906,-0.09062033866657207,0.0069325925465868795,0.06721441670233501,-0.06583142738627988,0.19904230140834117,0.11761432782737671,0.4679098386343782,0.5306749970558725,0.8862842626808429,1.0625305515517984,1.448071964428411,1.4568850151694877,0.9900016942863863,0.057599749416767924,-0.42371521460339284,-0.4254493967727672,-0.3204333057377714,-0.32181368567600116,-0.4334119513453185,-0.6049125361306703,-0.6399858298746743,-0.4382563430079644,-0.45866416388848275,-0.25181438158739006,-0.04087257987916496,-0.15155080840488663,-0.1939178294809175,-0.015571935708302464,-0.11695871276482775,-0.03625844514794645,0.11224835962109692,0.2339518227238585,0.23772536928549162,0.36868996773559826,0.432671130736669,0.7496468967990677,1.115791863122791,1.312731489690246,1.5667331096900485,1.4012259162038259,0.5728093428967648,-0.3182079395443723,-0.655895825596047,-0.36797852623302874,-0.1671602533857305,-0.0160909990510566,-0.15746499694997018,-0.36871066124933344,-0.5002011658833998,-0.3018294565637111,-0.30840993619507384,-0.3300527063407576,-0.25917457252179793,-0.25683109273368165,-0.13571861208735997,-0.003966653069857678,0.032926704854012646,0.04600343803556524,0.18748765940100615,0.17979590994880817,0.10737448878072314,0.44853228680184565,0.6833824896287571,0.9555085328503542,1.1447632364482607,1.3635684024446264,1.4537760789567358,0.9828489808486282,-0.06168338139391467,-0.7621883605282862,-0.7270070702495364,-0.39167042321301754,-0.06407763883004698,0.14123854533470628,0.09917809810166651,-0.2244107131539605,-0.33483761285895797,-0.35220810920121065,-0.28443849067684074,-0.30932800899773555,-0.1773410419613955,-0.1454447450182722,-0.04962521820440088,-0.17845018574896448,0.010300650184168765,0.12716832876081255,0.3403934391545794,0.3430612389217482,0.2544070479962485,0.5308211486900738,0.7282989046939694,0.9249093703616011,1.011189425667028,1.0795992480148509,0.8913642571670195,0.1724764782043725,-0.5957036081447953,-0.7421495771503429,-0.5088963373752372,-0.2841306972921847,0.04098927619228683,0.2534926989659636,0.17536556073805698,-0.122711985827548,-0.350767631394335,-0.3900774330674064,-0.3768903320197047,-0.2759396761105775,-0.18538940570700965,-0.014716126017153948,0.07509916536153086,0.02036722223906437,0.08909775679644019,0.1094889756656675,0.33746258443137156,0.3461286789638707,0.4420702751462226,0.559648442781456,0.6922706078083902,0.6246795369379876,0.6183425663209787,0.4039182052448883,-0.0021155464979505222,-0.27587893554698073,-0.49759615459183815,-0.29349954479296,-0.02645900418457783,0.06645205851474237,0.13420559761457979,0.20082483235493712,0.15996243385419442,-0.04179077195805085,-0.2557851855251759,-0.44019238394163696,-0.4052488485994705,-0.19040785258460818,-0.13000133943287306,0.08219260857284744,-0.16600657871518526,-0.08642061737629063,0.18614002857624304,0.35832937571962664,0.23711475210334856,0.28649348984884665,0.4826046927007795,0.5473116657333289,0.3870304028422654,0.16953141590383292,-0.12756769782642244,-0.2687138170667419,-0.28031282010754854,-0.1654985001519432,-0.05093956860806797,0.15538048981731162,0.2366092607666161,0.15135436385884432,0.04152710568516734,0.12987889603456934,0.14878443556986407,0.01993723879775374,-0.12075217528313273,-0.26299110939995096,-0.2690962780191821,-0.18404239220594323,0.03268250953818192,-0.26070436453151363,-0.1128271104585068,0.08050683404215218,0.08181689279775958,0.11991840829422624,0.31687044477937504,0.34699594333816947,0.3467404655665628,0.1874376951063229,0.010638931409249491,-0.3204239498099886,-0.4780787798203839,-0.3259344450075037,-0.16015271370438275,0.12483482245309802,0.28010487502340864,0.3984052361305596,0.28439229797997506,0.11673446507981884,0.0568306188313756,0.14555108795395486,0.1571526877313389,0.09084570547722154,-0.039218560487030985,-0.17722664180054634,-0.18962096034567974,-0.05471548416906587,-0.07003154654556107,-0.014090923365697334,0.03729599241778908,-0.15886722434668832,0.19230634894423243,0.03919322895421645,0.23261005316188954,0.2546824442262836,0.08061605191629856,-0.22920318900327835,-0.29444245575595074,-0.39479676829996,-0.3441693232093299,-0.14252552243918187,0.08356959077876079,0.3157653907717948,0.4449489416440285,0.36510228726403154,0.20622538503201931,0.18039432225032873,0.22383079577352158,0.296320688138844,0.24333841691147717,0.11710393161474755,-0.024675629219521975,-0.05535292772166944,-0.23686703994418146,-0.14191157442963392,-0.09041604183848378,-0.17043708512914096,-0.10787594123130531,-0.0953452370489427,0.0779062198114512,0.07484549580470663,0.12102119947516715,0.02325551599054626,-0.16787264774144045,-0.39384425170373766,-0.3461366828226903,-0.2442463254316024,-0.08695319399978232,0.12433233263039142,0.24503597844841501,0.31906089903419094,0.30404251174636987,0.2764575544122514,0.23018639579979575,0.2997278894716807,0.3458169912423261,0.3866588769342098,0.2810847730569064,0.12761522018937219,0.0037021488924848267,-0.11527628464453743,-0.02418213143410005,0.14725115703077807,-0.10563793613116723,-0.07276321191552972,-0.02709371390024945,-0.14724658779854866,-0.05974111266597845,-0.059675416517474746,-0.13204162922635213,-0.29277273053833963,-0.4666143754906147,-0.4429396968527153,-0.31591800821569976,-0.056748127516379,0.07930875779432062,0.16043022394188783,0.14725705818320559,0.18837405366980015,0.15006719339063096,0.23515715001226653,0.20089429685623425,0.3146113300684476,0.3495103957465605,0.40360790516345085,0.28670302111949303,0.09948508710780464,-0.09831659319655785,-0.11708939726092535,0.06302009089853469,0.006051361095059455,-0.15782635170419204,-0.21312643793702987,0.07341472967717974,-0.09450534277816323,0.034936304965774476,0.014459549888705545,-0.15361411557498622,-0.40474619114261334,-0.5183853662188158,-0.3859431950160279,-0.23071722460342922,-0.009567366225960354,0.08932308051585297,0.02410061634120939,0.040518990839733086,0.06123983636992359,0.1626849943834762,0.2344077279279961,0.1885394666548052,0.18727710793950816,0.17218196006621123,0.2602213133163895,0.13766457380768587,0.003940463418085564,-0.09186268566174449,-0.10978588180944758,0.08453167111981798,0.0015831264660463675,0.032473003121849246,0.009538529884987452,0.009026058151465888,-0.11404883776241795,-0.03455544176875474,-0.2123290549171341,-0.5058768227388344,-0.572745397083901,-0.4588335732699703,-0.26735510060367756,-0.12632835298783254,0.037357761996802664,-0.00930334719107541,-0.11558757801911829,-0.10728307711763026,-0.010762991309827061,0.2084769612505703,0.29453092049987645,0.1586717589607056,0.03716728829833135,0.06181005845555414,0.1209551855319434,-0.0425673449739182,-0.19480412715464554,-0.1001734174179017,0.03960055649100185,-0.002181421261920022,0.1588444664044569,-0.06743552105210794,-0.18050169636217386,-0.19773796003609978,-0.16033693562698048,-0.0493833874172315,-0.0968987311558812,-0.3408476703505503,-0.5809070915399409,-0.40352897297946555,-0.16918586786941475,-0.008029618215062193,0.0147780462720342,-0.0634050114570864,-0.16543690790724175,-0.21463937198165048,-0.040702827364922534,0.259660986300309,0.36236037346395195,0.22515910954464177,0.06020985267044413,0.06568755566846166,0.03136584926993457,-0.08625088249432233,-0.16291936152357603,0.008707091926462287,0.18340105093038153,0.15990677957519844,0.07189683760848543,-0.03279144738613121,-0.08386165364250724,-0.16281549870012765,-0.06449715801665884,-0.12741193222952116,-0.12880045818492092,-0.35991841630940463,-0.39761899217556407,-0.3731920046315729,-0.11344490004311572,-0.06588582030535065,-0.015198473939273885,-0.06951914258596688,-0.1927674116773389,-0.24701219709586003,-0.06960458962682924,0.20058968792623746,0.320033773538886,0.23137728584793596,0.19602065409999883,0.20088725119228257,0.1439538695966763,0.02726502720414543,0.11757784380844152,0.2260122315875627,0.289036837574384,0.15341026879438047,0.10589871744146404,0.04763161542967083,-0.14963257752396358,-0.035964740343884895,-0.22069312441162037,0.0286571689500904,0.014091454233986882,-0.15676610537473754,-0.3502313401292175,-0.2007130993872614,-0.08309090233923717,0.030691966233918705,0.050067817811568924,-0.04131876345100567,-0.11718816254513911,-0.12198618597071277,0.056824089883603525,0.13945632377901204,0.1905515931455392,0.18325539871707053,0.2876090536181585,0.3038058196349189,0.19003030021499137,0.20364018082142082,0.25061154270457225,0.2164187893770445,0.30609423610730585,0.2363517716839171,0.3204892097262963,-0.02297947891835366,-0.05605473009337618,0.0504328833413468,-0.11804459042517984,-0.019819843710743346,-0.02528631409080311,-0.16930584530590143,-0.2779525260101323,-0.30835573664755733,-0.17527687819402005,0.011725270404689965,0.11548977412788057,-0.014639238250742434,-0.03603653566533089,0.024702369675522137,0.11621999138135435,0.0998214097937044,0.10329289249138755,0.1474154786864674,0.326678595158871,0.38052174958152246,0.26297913961669644,0.2504290571590491,0.21806394764708525,0.23322435090681393,0.2385988699086362,0.24234151305923873,0.10461577171156061,-0.025926467907443632,0.010090212556270281,-0.10539482962814628,-0.06898145919790181,0.026570892259503827,0.043978526083887734,0.06940177906418152,-0.24706297446185646,-0.37930869029884906,-0.26664552735835423,-0.05445211907849122,0.1287038843725546,0.15131750927254192,0.14375897136801644,0.11596224387407808,0.07486384168399254,-0.09500818063414633,-0.10481266629491667,0.17463958511697295,0.3903736341861128,0.3912403326810501,0.31003654803762687,0.1877405553446437,0.04483193193977352,0.17577636574871888,0.03426482164646501,0.0036222038365398496,0.17796034150441517,-0.13481881495104772,-0.1167354024074262,-0.23282986565193084,-0.11428626142449823,0.11883528486865247,0.16854191268887725,-0.035479907119473894,-0.1323355552935001,-0.3107935784854898,-0.27213795570388877,-0.19312929759045017,0.07525840658671426,0.23291102858454646,0.33084024102884013,0.24089295236219885,0.040055081380638236,-0.19581426906626412,-0.12774380171295074,0.21540661687114943,0.44809337259127746,0.40619969852004023,0.27507474011155064,0.30977489424297155,0.24832652787720866,0.047952910259485435,0.10478233834354822,0.09151590770573256,-0.1487691806875842,-0.20916317834877407,-0.07664783819750677,-0.3670095155197707,0.03254576063893368,0.030800910672982223,0.2269157213892425,-0.024879922940486472,-0.13615963598791597,-0.20620224592105585,-0.2926896285658253,-0.17959308024918472,-0.019996925134454408,0.2383547052713113,0.3716911438322545,0.2875528125180632,0.030040944755957262,-0.1947160739681638,-0.08828127160981933,0.2063198820748733,0.3954919277657002,0.42854831785359154,0.3775772418016721,0.2146232522619133,0.15501243663264702,0.1765197755231092,0.1330035370300338,0.10848493407837762,-0.09586015633541005,-0.027850274130608144,-0.16569875595911124,0.13986617909793744,-0.24314403130087905,0.006368490282246452,0.026337365312940373,-0.021058327640316617,-0.05894749206160772,-0.08519150888946952,-0.2517454948551922,-0.22657928647215503,0.0386079807211526,0.16444038794903282,0.2501007326660179,0.10747992170563507,-0.17167235025823332,-0.37908829673130795,-0.2209473395000287,0.07093193330509222,0.3128459217770575,0.28780331146129673,0.17094754104789078,0.17912115801266673,0.11216618284348308,-0.005797773075703973,0.09302063723191543,0.004959908836867079,-0.026757172582662143,-0.06353535372117633,-0.14612280318220439,0.025103561614048996,-0.1758089078953704,-0.42451593291237916,-0.05448600614763672,-0.19710854895970797,-0.14176921571563647,-0.10235976398751577,-0.0791433559534165,0.08267056032837589,0.18439943275763765,0.2562418888729785,0.191002137994961,0.10901860661665762,-0.152320253948225,-0.244737411531782,-0.19194133297429247,0.12632168546845413,0.34353934322485774,0.3992305678754113,0.2273541123659014,0.13471988394220677,0.3389592204663986,-0.08926536364626977,-0.07264414293238503,-0.20562372668748521,-0.05508418311058597,-0.05409957575843545,-0.0391567276107665,0.005436320855945436,-0.06129372497189913,-0.15912539495191516,0.03454219951422328,-0.2021913964266639,-0.23165757030889958,-0.008648195896846582,0.01626539874709966,0.07676909287990394,0.13142992927918837,0.17667342198067507,-0.046979369057825675,-0.08529171615214531,-0.26698966540319474,-0.37936837153826364,-0.1416214047263837,0.17534220364073252,0.2074135734667287,0.2506778037497292,0.1935911270014944,0.22512961662482212,0.08084884669366406,-0.25821238739510144,-0.046683493791117026,-0.05753094422686964,-0.13456440211881676,-0.18117196519106288,-0.06260940889689251,-0.1755620413201964,-0.05655922473351457,-0.28606055910809997,-0.07568573285978371,0.04389945255077698,-0.19456538532458956,0.012525824893084847,-0.33698876484241297,-0.11594416026825066,0.2143209663172719,0.04209435816425683,-0.02341653504928952,0.23934655563172288,-0.021232525221129058,-0.1079730905715558,0.12791611798884922,0.10117226869215268,0.20203798680095886,0.04682061708761454,-0.01716540683820357,-0.057676242032702905,-0.16578726596993296,-0.10969622040797374,-0.09398526298462477,-0.166959607475375,0.1731057916667521,-0.09179415606477251,-0.24020461473805643
0.010532878675337247,-0.08571129809181927,-0.0451975240515274,-0.04796013940012847,-0.22957163443901288,-0.1045856071078586,-0.11601650350147026,-0.08028670500085056,-0.05960980499812088,-0.057760578964745186,0.017736565613058034,-0.10206447180301978,-0.10907509644964784,-0.08348207870135581,0.02999077161012703,-0.043070945282637926,-0.035431277958052336,-0.06882708119498934,-0.07521965131851181,-0.17277409734300592,-0.13922508644009568,-0.26239401924891315,-0.17477581315132157,-0.05158977055700659,-0.13050774434859677,-0.11438778976172795,-0.054433393423173604,-0.0695447116555924,-0.009691418336209848,-0.11463219501959583,-0.1251426768684902,-0.21852890923249713,-0.010737914570157719,-0.0907822464553488,-0.03334587437756701,-0.11230252004736943,-0.0023271509778405052,-0.022920783041619975,-0.03624992132239894,0.08333942709890989,-0.010296985361429027,-0.07231936556686065,-0.127635092926986,-0.021238190047194218,-0.11984395389524719,0.09888704315809535,0.10111876202925968,0.13480444336410732,-0.02354928967585938,-0.12037045797337247,-0.36385627596530556,-0.10881796973534481,0.04030907336500571,-0.029002432745607983,0.005047956434211575,-0.019825785350502147,-0.1515477249404441,-0.22805623933146052,0.06120288343174794,-0.06318287950132272,0.018117671185654848,-0.042553545189559165,-0.031201483367045167,-0.1541888421208505,0.1965858728729875,0.08113377895079484,0.16531332748510644,0.005980973628846854,0.07481283169271824,0.07912988710516589,0.14299375786989385,-0.06215279792414532,0.013167849650060183,0.2835553687666146,0.19825809680392042,0.21767050046129252,0.2754972783134565,0.2966873357472681,0.06354642100044774,-0.28872240353737216,-0.06795805355461577,-0.11519533936243095,-0.15023651051434256,0.032085792279825415,0.019186233987798264,-0.04638163935568153,-0.03651932597869533,-0.16535508788901404,-0.10227110368070512,0.16260549124970844,0.033369338787622736,0.06484670063522088,0.1561150285364628,0.006561244682874389,0.1413900105955852,0.09418562859502001,-0.058746875146970606,-0.10613117362546834,-0.11995912673232595,-0.053216774795239626,0.06651895854101166,-0.015923070121502028,0.03231809216412179,0.10846689423817274,0.35261283627816264,0.3172640926247092,0.11146802261134568,0.1484772571009413,0.1458905699522496,-0.21244525858080313,-0.13548094870861813,-0.27323987726486254,-0.18317915352066974,0.032292324175150385,-0.28346987052500205,-0.06754572316349298,-0.12952199037026302,-0.14460084115574556,0.03450060551293638,-0.05760839438342652,0.06780765208334169,0.018744039000602952,-0.13229816934616298,-0.16547548000187165,-0.1172842987788712,-0.11871766155812152,-0.19567821574295854,-0.2031947848676343,-0.15224942536568775,-0.09704097872961485,0.06615442338145432,0.25056659141644533,0.32832936586180034,0.26768982817095727,0.15621688359211594,0.11627936308756845,0.0283785520894002,-0.2141180588676808,-0.018572856356832482,-0.09681684241342456,0.23227063150187904,-0.14180132053117003,-0.12906776242648174,-0.015027124642462576,-0.12225329279151907,0.1016298688198306,0.1751730970455603,0.02953206068581488,0.03271360598390396,-0.029362074965007055,-0.019090156629776325,-0.046325153476542306,-0.06557584387890442,-0.10132877680659158,-0.23747784277289546,-0.34566984710454984,-0.28890645214112437,-0.1931723677402169,-0.060189706352323395,0.14064339336618453,0.1513433053706093,0.06664024439455854,-0.03277707218045576,-0.25399867050795283,-0.032182314755310616,-0.058381003744861035,0.052253436424096904,-0.13119993876980968,-0.24062399609347393,-0.10692110185649038,-0.009163561108422435,-0.0489319915009437,0.021665490286182254,0.21888465546611857,0.3617587291506009,0.24160054089631372,0.1886934237945986,0.1987713311997263,0.2142174130875894,0.23044251354436895,0.2176406540807115,0.11994006313305228,-0.059388012730505035,-0.13602089405768122,-0.11537479626077661,-0.026460386882830558,0.11615757069345134,0.17403334175097065,0.1273892579732853,-0.031162146207084872,-0.17961422777597522,-0.17503166523490152,-0.15044149468964127,0.1171194589940735,-0.043622968988547,-0.09851089571900593,-0.02204239141460809,-0.16807874780415383,-0.109123313071709,-0.032525536338859906,0.21722112980650848,0.40685879531365415,0.37928517290296426,0.4131301820291439,0.3245487900494934,0.32340288930951533,0.3507532058352373,0.4103013646899687,0.38017480805717546,0.2999187113798797,0.27453260384968803,0.25240177292800475,0.3157834341649597,0.3657914587613306,0.37465880044719585,0.31408889194368783,0.268655770329505,0.053624383041067446,-0.09020666045441196,-0.2237239984478862,-0.06312307969181119,-0.0029689145732254615,-0.0678498202997046,-0.3295758745797991,-0.05514493242946072,0.08418685240095629,0.03402079065949064,0.08180185985735818,0.18134851619898623,0.34878227322132344,0.266128106963123,0.1111507788377868,0.10052669014378039,0.11115959988692337,0.21235369704117715,0.2697326391547701,0.23032752637102538,0.2543474432227955,0.3369463940681525,0.3926486104731826,0.41322350350343684,0.39897834573634927,0.3567510848702833,0.27236900916469997,0.15228064106151426,-0.00962309414585339,-0.22995356000472153,-0.3378597948085954,-0.2843045471567342,-0.047275017231957206,0.020941570719488812,0.0273805068508893,-0.02999644876830618,-0.1233526654610021,-0.029683318215267665,-0.07668632721522156,-0.004880361938191793,0.07783397760205414,-0.22483098059259093,-0.3354022243478591,-0.38494638284352867,-0.2499036207632107,-0.13007843228383825,-0.12317063514514741,-0.10846297819787228,-0.036394485863988905,0.1958606752712419,0.3116820462506882,0.24787050594630783,0.1812470819140312,0.10561187193210061,0.0555582802150204,0.054622766532636216,-0.046867070279830864,-0.3126389287443335,-0.4066628856904232,-0.3819574563375595,-0.18862930880732226,-0.10941849683219307,-0.023529976829830494,-0.18814565357358695,-0.060301139108953135,-0.24217008722315098,-0.12937319411399167,-0.1408720165152682,-0.2395189356157225,-0.5741452798576347,-0.6251818632400405,-0.5471374699987805,-0.3411060642060567,-0.21863972130523704,-0.33946708790216096,-0.29334123679977886,-0.1614777624807365,0.050391539726663395,0.09539322313064211,-0.01763735431277466,-0.10162235322273638,-0.10774647178536091,-0.039009961114874855,0.143135621183442,0.113378488411601,-0.14793313258944668,-0.43738863951930856,-0.3335341611415517,-0.07189144735517598,0.01606583587620132,-0.1071212739131736,-0.05185040710620223,-0.14862023062989468,-0.2549336107755159,-0.12458736719273522,-0.22004545277682896,-0.39578523364334117,-0.610978298104988,-0.6075507408524473,-0.43230524291641015,-0.20214314079816378,-0.27709450626944065,-0.4881427625815137,-0.45709806519603813,-0.16852968542672722,0.13300217885428792,0.024633178228732216,-0.11660841566182399,-0.14506186982381,-0.07700505557030922,0.13209271673920814,0.34482104203707203,0.3730345007471113,-0.004700976773527501,-0.34156339838947924,-0.38098782445633045,-0.004218563922582682,0.10059330668473054,-0.16004171493901517,-0.04536885688204242,0.009885331535850117,-0.30018517247948434,-0.09830183759247625,-0.23777656483649626,-0.4084568982093677,-0.45856236944370216,-0.34930838226821104,-0.04315277043140232,0.05317351269090757,-0.3264342114055757,-0.7408915997586798,-0.6516088691310962,-0.2150823597960394,0.08564668928515319,-0.05593046355388617,-0.18146261425920204,-0.10322578208922695,0.15326117997516137,0.40870376147841153,0.6211373604427487,0.6104469321602103,0.19343798322186675,-0.2290475338778116,-0.1974168629548328,0.15763173459941637,-0.11832656542430738,-0.141187269520788,-0.1954717358228816,-0.013798597679696396,-0.009245729548702415,-0.02883921651511155,-0.12597221215361154,-0.3340899295528995,-0.2729278289354049,0.004303880410493555,0.5579678716169258,0.5782589337087631,-0.07388785590104151,-0.8029826302596251,-0.6572299407512077,-0.17310147087014638,-0.03568822111137211,-0.17740661177042083,-0.2031651375893348,-0.005120896931215063,0.27817586449410875,0.5080924265646755,0.6862119819478193,0.7152803567760652,0.31753157750835126,-0.21434524642951688,-0.29184381168963724,0.04645265815952047,0.10772003860650677,-0.08121865436984613,0.028708863816177356,-0.10792223104914143,-0.10900880808136479,-0.05282552427737431,-0.10835595431873365,-0.2787769512661552,-0.07220719893535422,0.5452266887985419,1.2022758711774075,1.3563299504352209,0.8441651518014567,0.08276977116010525,0.014684410949287633,0.12300874789943471,-0.03327470278151324,-0.27423191450645024,-0.22455010803316758,0.04275147807683013,0.2238936255283386,0.37808111072931605,0.5680447530373168,0.627825542244756,0.3240915513498915,-0.0449236554923487,-0.04460427765415282,0.06257624203522157,0.11767897513589105,-0.1271728280790493,-0.14939588132327053,-0.06588582040798494,-0.030665116652604893,-0.036707260053829904,-0.32520252391433924,-0.3303044366133443,-0.039173548777631295,0.8030560960491608,1.5391306504227784,1.8455428020569644,1.5602929459123824,1.0165534574806452,0.5668924836910496,0.2958490487192096,0.009955740374424156,-0.1386843858091047,-0.08877763390394632,0.05332785714971501,0.07541817477926248,0.1482648840320509,0.33553100695345867,0.36486200199395397,0.12949699667522968,-0.024616655931433144,0.07252362299504082,0.048799386750197835,-0.0191212859004931,-0.0510442026289419,-0.10219032087514454,-0.1271961861117544,-0.15034493252374215,-0.14796433431163517,-0.21052983963360422,-0.4245891146924013,-0.08854178566101063,0.7636572928540566,1.4631982971251647,1.8012503045344723,1.486302057333182,0.914459642514648,0.40175764360087235,0.11077081907891433,-0.04757435647383644,-0.038019062750188466,0.07433048563691315,0.02502828262473706,-0.12523092488459217,-0.07735077492511251,0.032533768127549934,0.05846012863698997,0.07757678856020844,-0.03434566591355057,0.13012102753152607,0.30139581907693136,-0.09213442756612605,-0.230655405912577,0.05114899980290803,-0.051481405276134526,-0.017726739889911396,-0.09110144294176609,-0.37560588670087997,-0.46875051501415665,-0.15309461438079508,0.4729868136292375,1.1055012404290985,1.362133327810185,1.0305582336778638,0.3266060422249471,-0.03830742941849013,-0.09170264717211529,-0.013220289799469128,0.05286597539500341,0.1580852939880447,0.0612459355587163,-0.1201985218681946,-0.18599963244013498,-0.14601652628952957,-0.0847739000433911,0.07121335560625036,0.11871581974255734,0.21594688254250224,0.1893853576535764,0.03602285845616995,-0.0987694058159873,-0.09839618013485042,-0.1397604563281493,-0.09654093017180806,-0.18905042516031478,-0.28186097961294804,-0.39025060573867126,-0.32856577383192004,0.15375879778341028,0.6085111163630249,0.8257014014696048,0.4667175488189918,-0.19591500263767644,-0.32402110030223935,-0.08736453783911212,0.024988543364276646,0.22210873412948787,0.21647499874489368,0.08607508804025704,-0.10229102529150963,-0.17415962349200473,-0.20566880741796337,-0.09633627972609737,0.08476333996365971,0.09367856774060132,0.15229533079228288,0.2666854900948168,-0.0564615461430792,-0.054973770986808404,-0.16349827403562855,-0.07430510392113264,0.01813955163867045,0.08894954664959866,-0.16036764469988032,-0.25927428505147293,-0.3882757358673407,-0.14924456029576602,0.16081626335045435,0.37682907827346535,0.15841555695891807,-0.1926949098248093,-0.1632750496673771,0.006917638900067316,0.05521739767637583,0.17247847281818585,0.13175613968311128,0.044273215082415766,-0.018482135841988424,-0.13895171055897867,-0.15053050399521753,-0.039930016378898175,0.18564851515749167,0.21446671730233544,0.10892575018471928,0.18187858546233593,-0.08003148516768711,-0.07154293868724955,-0.05626343830732017,0.05469042126932535,-0.05188244587761153,0.05347903808853059,-0.12264812675066335,-0.036356649075225886,-0.23726885629944847,-0.24575669841386788,-0.07242881946754925,0.10157449431911533,0.1033596010104059,0.008188081105082958,0.00023896286595556198,-0.01655370128687172,-0.07186933994921257,-0.01701747056750308,0.02229885490146708,0.03736006584647673,-0.04209013733053176,-0.12401126765133527,-0.07605913259482801,0.14477794362924634,0.26821415631593387,0.21761125940587886,0.31758095622808025,0.1430392700852374,-0.026581619525237552,-0.2384641681756763,-0.042586023261976934,-0.07430267858644976,0.11042243735207032,0.017911742638904805,0.1717482682338042,0.1016446656910899,0.05502566776554286,-0.09483538309140035,-0.07682830875517604,0.03945105011029088,0.13564119200658906,0.07935194722687339,0.003669340255701956,-0.17640655092150223,-0.19823867303285647,-0.10328949911300919,-0.008809431755199274,0.035751282734721467,-0.00526675203590042,0.02657610371153472,0.1170917534980433,0.22993292648638933,0.2508690705528813,0.13530977268464547,0.08405659009132617,0.2257398360264336,-0.1368129884906728,-0.13498503365768502,-0.052451049145426025,-0.21237430844465247,0.05710281739313217,-0.018767209802817535,0.18404624289015606,0.28227429905838425,0.2528511610778134,0.1019266998275077,0.060075871765559286,0.055985131800165185,0.045650570040041916,-0.04236643907738177,-0.11765798639503794,-0.27290526688226635,-0.24202484031168603,-0.11029266368271388,0.00485450009873769,0.09708072272360513,0.049149635501761504,0.03654575235057828,0.14751644695447583,0.18314201241605021,0.10242388072263613,0.21907028442756837,0.027160986834460974,-0.10174566638462373,-0.04788681468977715,-0.2176244640959385,-0.2161006954565666,-8.514873222913543e-05,-0.18445713894180435,-0.007006362516394267,0.11974354666571724,0.23978091415158365,0.3470510341690867,0.28007509192733676,0.24684706476960908,0.1613750297614763,-0.019566603498789074,-0.11303901298042154,-0.28596849335356794,-0.2881662822363503,-0.1962333362227363,-0.031132511742291764,0.11997188179559541,0.11228823929669575,0.03660296113100233,0.07942925154311595,0.20669627816198088,0.1713998005955887,0.1318056440569661,0.0623351336379821,-0.13709836667547012,0.07493958215426096,-0.0421042842614334,-0.029092909949733486,0.05219930258375247,-0.28076172112999026,-0.05381488462931796,-0.1264817218791905,0.08869517069379013,0.2452909392594062,0.2934309052942556,0.3326276452008676,0.40663717963295126,0.32131675156107614,0.1277966294335867,-0.08115988997533993,-0.1597407772530469,-0.12694861001286914,-0.01895162461930414,0.08441853770803495,0.22151505072509223,0.2009224573765973,0.1647618977574871,0.1470520321007966,0.20224446212286018,0.29583710411459485,0.24972487623462847,-0.0028664687840800687,-0.007978832791696732,-0.16697410907629873,-0.006255675481619637,0.04927229665795024,-0.07468544457339643,-0.08603549145575438,-0.17487092324589484,-0.022821340398996276,-0.024165908484858716,0.07105485536496323,0.20756536902706288,0.25686399699165924,0.4867339015236302,0.4335441149599601,0.35047914536037805,0.13748632865198457,0.08424939014881427,0.062275690960698224,0.09520560485316336,0.14326274893284865,0.304047747619834,0.35207881294006965,0.1305578944671401,0.11703322653428622,0.30318211416076885,0.17992990300338674,-0.008570838167434033,0.10334365795103058,-0.12914247069903964,0.0323998134049113,-0.09475129589997065,-0.22805067217873184,-0.15580055333557308,-0.11243638666412237,-0.10373420776109103,-0.1563567391095981,-0.12501251816879713,-0.12928063947054258,0.16831761039604287,0.14315895548810612,0.10988383115264962,0.10816888623787412,-0.10368253524069633,-0.10952008931947457,-0.12718248109674585,-0.13547100768645748,0.015970500417541132,0.07744235720458681,0.07810588178800999,0.09430245637762466,0.04250441004485079,-0.144939435291152,0.17199357935161555,-0.10640736963348417,-0.010804125863229054,-0.2358560305556799,-0.1201269542060912,-0.10807432559303655,-0.1234132424864752,0.041792844533367776,-0.18783581897678087,-0.17835916174389965,-0.06099460703067334,-0.0671984068908528,-0.2743736044171922,-0.13618758889211843,-0.19981143802618329,-0.19149336278930693,-0.12856576052604696,-0.18069360936530726,-0.18060397926770136,-0.30201782060341814,-0.2199344896279068,-0.2715231557663708,-0.1700251084338225,-0.09725274829991036,-0.233892896653629,-0.12884321608542643,-0.12184021133565999,-0.09492657078802602,-0.10629590318906752,-0.024093576738322582,-0.08485696854485761,-0.15781673049018963,0.007660053825311445,-0.03552171043276738,0.08020106912837863,-0.043349336644162996
-0.0035289910573337085,-0.25526814625447997,-0.10643049433470769,0.06602238626900123,-0.009131329894769889,-0.2547201316173841,-0.14362425795889922,-0.09279070757331406,-0.11952732566642581,-0.06477351504943016,-0.10594450069268901,-0.05224857403704364,-0.035768458865195335,0.10374399609707029,0.08468145651417061,-0.03423547608365398,-0.08339942161568174,-0.31743693198180317,-0.12097787905568069,-0.051424715940841,-0.08414818513955391,0.015648469735691745,-0.07639705859976784,0.05370633666427104,-0.08256377908814937,-0.1307424957210531,-0.06916571976600688,-0.017163964386664846,0.1609451801332441,-0.213513891741273,-0.10527195278890691,0.048421396837709726,-0.009378800848665417,0.026400465551777635,0.02059176553096592,-0.29124505127133027,0.00868555063710011,-0.18334078634772072,-0.09202615846579501,-0.1303268377480438,-0.1585176107355552,0.011429841253723889,-0.09766948629553804,-0.03874500020296236,-0.0041501997512855245,-0.255722294677335,-0.0317209885549875,-0.003377182917993149,-0.06965654253745879,-0.015371506567136137,-0.10509794383615768,-0.24398057206198523,0.01332045545221386,-0.12494617207801194,-0.058300785305977945,0.024019047820632997,-0.088083396762401,-0.15581782219134574,-0.11980708739082074,-0.2700587857065494,-0.02759320006752767,-0.004589194813660399,0.018793274535768727,-0.051005644791464404,-0.28535507989751535,-0.22353247785450833,-0.22959267491254562,-0.42472005699824794,-0.27875433534716504,-0.3216396205660334,-0.34789684535024884,-0.5420071241386439,-0.5663275615026739,-0.646756855469242,-0.5791999208224621,-0.5121217445431351,-0.4978127481152656,-0.38004898905857437,-0.16612858302582761,0.02217264861891177,0.04402473721405864,-0.0965676655828934,-0.07271076776423466,-0.10472502423975129,-0.004868764164059085,-0.36855479597818697,-0.057156423986191314,-0.26094025091595535,-0.0867521601248557,0.02561947714855049,-0.313657402779186,-0.07963591953865826,-0.13871134960246986,-0.227384327493215,-0.26035899427923165,-0.18959669435168708,0.04858793455684132,-0.096744872890508,-0.21477574155125767,-0.38068013990545596,-0.513168505367815,-0.6463892235141906,-0.664998852577733,-0.4566435816427938,-0.33389302924063363,-0.15492082235078444,-0.10229184149350407,-0.12730015165571962,0.005333497777437076,-0.1267982446655634,-0.1312761394453243,0.009422134547768352,-0.05272980234869397,-0.044103336156552056,-0.07332378394357962,-0.022518736851937816,-0.14943644311404466,-0.08267381559207708,-0.0037928904417318192,-0.281579703062198,-0.11096285830395461,-0.046302694568475335,0.083798221269517,0.24334897661411026,0.2787824735077105,0.33321730284399703,0.3055900908734944,0.20395636615342572,-0.12645846564825797,-0.5721013730090901,-0.5568419085166693,-0.2942401473072385,-0.04095874684584511,0.1569786840956854,0.262640291516327,0.29823694497215103,0.22235693960473835,-0.07481779789970042,-0.07547658230726693,-0.09552607765528386,-0.13379478324817753,-0.10340938671666747,-0.005449543648280874,-0.18551147334654355,0.025221431039099622,-0.06179622901771542,0.017770001912186705,-0.08990264441266424,-0.20219776810746296,0.013968240426870374,0.220173476778607,0.3244805866506707,0.33339780296964017,0.411535739673192,0.505257204035633,0.5218543443089733,0.21546585429748696,0.050841035316222485,-0.014671424694630989,0.20991048066832133,0.39438908191175315,0.3507985889749132,0.33755398276123105,0.3445435969921349,0.23423530623665972,0.15243755510201154,-0.15500940819699424,-0.005409084962469869,-0.15097553042525597,-0.057285757404877416,0.011977545053271865,-0.14008597442036094,-0.06633499611903203,-0.07787170714726378,-0.027452156339666977,-0.18371010741785682,-0.00923892563662092,0.09855941740107958,0.08755564463639426,0.14440004833291364,0.16622383768422758,0.17398351158505568,0.2815806382427762,0.41659407647220287,0.46090741453105966,0.4399486728088839,0.41868719080453565,0.5223970646972612,0.6493108306470011,0.47997871743958853,0.3769913457559544,0.23283223361298439,0.3939384112651504,0.20169015505904764,0.22551275352784395,0.06078544916924351,0.09874059841829273,-0.07256284583412889,0.08851787987143388,0.017483825304143847,-0.17555106072638585,-0.023983930820015348,-0.09161209673171225,-0.0988994042001175,-0.04915215340933795,-0.02049187301013887,0.02738599847406194,0.005586988795673744,-0.008608309547563253,-0.05624051372306924,0.018971462962477682,0.2892820878316752,0.47362056214065684,0.5714530114565722,0.604209400342053,0.6438187823491778,0.5312642568790806,0.3634512188713111,0.24829355370955628,0.2849306152128883,0.3453167361732021,0.2833616446574577,0.1481572134294159,0.0017383072160188366,-0.015972914927185288,-0.05525340522508085,-0.20148953071522388,-0.10434628814919233,-0.025526498817522964,-0.1432957345772921,-0.031355930568682105,-0.050495259035628716,-0.02890629973130308,0.05651914187463352,0.031271657570221545,0.15285197658902414,0.054454814998213565,-0.06372910786152335,-0.03947251533367552,0.27822769549271936,0.5566868403237581,0.645794534350606,0.6311582669453532,0.5388427901922709,0.4204888912386304,0.3486053888327901,0.290271588359476,0.26804251617116576,0.2072376941980711,0.17417149697208623,0.08015625401982526,0.0261590396759812,-0.15782635276624943,-0.10953168935030654,-0.028863362492791866,-0.30107951782837594,-0.03905262361590292,-0.04269464323607999,0.06865593834309255,0.1655400089901241,0.10464563115236843,0.18230816547859513,0.27911242409475867,0.28214785897110606,0.20080503445275039,-0.03512359434698947,-0.0026167024570834703,0.2986322109454912,0.5197487840687871,0.49934989959616904,0.47837233890018444,0.32762595833678526,0.23635249097779804,0.19745049145969037,0.20503513216984812,0.05671540882509435,-0.03793048621125918,0.017608324583312657,0.05126543736725059,0.04827859708659862,-0.2172744346270828,-0.08803372561616725,-0.16099539654076198,-0.2924394868275686,-0.08265853876561034,0.035597843694382916,0.14097652167145075,0.3071063677952037,0.3074619145856665,0.3098080146404394,0.3221248086808376,0.3077749239602053,0.10902567726375136,-0.1290899480853095,0.051769597857245865,0.4134729422079049,0.40878966389331906,0.3306742451684984,0.2061792541973016,0.05958655321326789,0.05693969410975289,0.11429872639562542,0.13161910717146544,0.15975727410754526,0.08660890054852752,0.006740391862787654,-0.10238936666049128,-0.13250906177180397,0.03668705837784812,-0.20875729062811882,-0.2603531120780001,-0.31857477131898254,-0.2115289802402647,0.03624936890481606,-0.009537965612716156,0.14557067713286936,0.27393324879292463,0.28712431805228833,0.22769762132532548,0.08673022668857612,-0.1017953804742862,-0.16652447387835576,0.13407013273137613,0.3983146820442859,0.2724854016768934,0.0851811416129289,-0.027872872243448657,-0.08884221863435342,0.07504141323118999,0.13160303016772296,0.14598256311964752,0.1695714700706726,-0.04329130076178201,-0.05338172914521802,-0.2115953161118276,-0.13724594641625204,-0.002839895734887104,-0.21137993245043188,-0.07481145815052756,-0.26689311827622836,-0.17617997659183407,-0.0712655185879746,-0.02806083139840303,0.07528754046296268,0.19173557464404886,0.14679547818916752,0.010340163083044437,-0.19727555725780685,-0.3046512235391553,-0.13909053700099136,0.24236821059613198,0.2896739342182574,0.08834474584144425,-0.10007998094561806,-0.1885779036271859,-0.16999890923238667,-0.021755062762671962,0.000658715999951759,0.05044076159486259,0.18195949849354004,0.02203875015275032,-0.14092907402158403,-0.027830973439695015,-0.10249380461761169,0.03475193571525573,-0.19875250358724242,-0.05152221747814711,-0.2860196817965354,-0.16421416444461576,-0.10412389669107013,-0.07056169785523274,-0.05849676376894366,0.0671657292071097,0.009223350832813235,-0.09976963393214121,-0.3016737094055112,-0.3186021386930507,-0.058318902253312974,0.17213923881837115,0.11787240641752918,-0.11316186167042337,-0.24055889159208596,-0.3179934578797916,-0.24628939951934706,-0.06549773005471546,-0.07940089078224107,0.0280587538223018,-0.019514023148296783,-0.14850930976212762,-0.03637267551589788,-0.016537343642469046,-0.1032236495676818,-0.12693006591213873,0.022080978136060216,-0.10291170619734266,-0.10568610631192543,-0.21730989920902105,-0.18585024756006557,-0.3639291049518703,-0.29668668461344394,-0.14514441993893537,-0.09211415646396058,-0.1787077157471791,-0.2635452161457157,-0.13608268168055587,0.052206758256157115,0.0650410507101322,-0.1488688462664902,-0.3335037120800126,-0.3359745202928555,-0.28650089732930095,-0.1476603063337592,-0.05392093692245241,-0.10288880599867478,-0.09427042046291448,-0.16292677876122252,-0.16060185322592527,-0.11239803491823082,-0.020261225108473398,-0.10613817394661242,-0.09796645315207862,-0.13503095814117885,-0.13287870319924988,-0.24828226449426632,-0.29267488816134135,-0.422306420820957,-0.504078433279438,-0.39848437292368266,-0.26089260231539574,-0.07846708937700271,0.00886660618462869,0.0788212215184207,0.08960553728579816,0.0910289009377216,-0.07496065182210837,-0.3164825058912369,-0.36851291515499435,-0.34269856657058795,-0.2054131353571683,-0.15452581912354663,-0.11431790188610334,-0.07082330795208974,-0.09984310011196267,-0.010176280213423282,-0.08491084453007013,-0.2510368086547468,-0.006137567778937836,-0.14507982238057585,-0.13171845304256372,-0.060123801093082616,-0.15491974510907394,-0.20656010411128656,-0.34848274255530376,-0.39040530256494577,-0.5877574175413253,-0.6100560445380228,-0.31568931700184305,-0.054445737790556205,0.13119455791478005,0.15428722975978096,0.025651754822417452,-0.06255551288766585,-0.23749259981233384,-0.3353608380883971,-0.2785634487978676,-0.17591171334309946,-0.12868958635967173,-0.14287775072554149,-0.1575653549030999,-0.07301060259911031,-0.08640858364046076,-0.0403055739512663,-0.003363229520370605,-0.1822278779651339,-0.10869773218822582,-0.26027974240976604,-0.09822232893992708,-0.047398690172037454,-0.016392774014964872,-0.16774183367702206,-0.30399983815791753,-0.42956581151092577,-0.5720518457770267,-0.5328496779088331,-0.26510662052122297,-0.09402305262930294,0.013601969114039433,-0.038418050242738915,-0.09343113725919625,-0.04898278127097789,-0.09469002304911986,-0.175990543469755,-0.20581037353822634,-0.12422495401749288,-0.18518999440340156,-0.09339540981032794,-0.09474856524174852,-0.05054621081509733,0.03361815670742944,-0.0358520538811944,-0.051297278930263854,-0.24031534678248492,0.04776820474005431,-0.02391582847931415,-0.13120535678617012,-0.03857444727800301,-0.08983377855979603,-0.18911858009263824,-0.4528461430284943,-0.485779789090132,-0.4141209968831437,-0.33123998447872466,-0.336077973661225,-0.3077569392551404,-0.4023547306001203,-0.385238050617632,-0.14050843765176801,0.132307974157291,0.0021726025239058293,-0.22569643956310922,-0.12434975497371627,-0.053602112232307264,-0.1273059005652081,-0.038743447668286544,-0.026637183504532654,-0.06650430709731021,-0.006145608117227614,-0.011884530296578188,-0.009414391769454682,-0.13669501335143888,-0.001209371123935451,0.015431874181977194,-0.13953662197845812,-0.18535327878291313,0.0007139068843834258,-0.08317817686444723,-0.3678206406392956,-0.3578159778903281,-0.20867490602580221,-0.1765287224868014,-0.3829278368116711,-0.4838001234350654,-0.5033865974081755,-0.3093846649752445,0.27636536786939764,0.552305727363662,0.10263773101823687,-0.39634397408787386,-0.21746489299218194,-0.12469954412664477,-0.021353985822359787,-0.09591907199619214,-0.007197797538953852,-0.05049004652167961,0.04019952437654866,-0.05577815075995165,-0.08611686791369823,-0.143035455623787,0.05255005754598721,0.03314019779310943,0.014570839814328421,-0.02460427260101803,0.0855091824353771,-0.22818327570712113,-0.14839476002185314,-0.15991725655723882,0.1504753735363805,0.23733560151223126,0.2882823393688264,0.2678839540894821,0.2806818931449664,0.5420831750832847,0.9755417561208869,0.7995814554433421,-0.07028830836299226,-0.6046881713093046,-0.30692672798532944,-0.101206505046892,-0.06293660625748318,-0.10605773591657786,-0.025796776063166882,0.025597748189695835,0.08911253066074204,-0.032132897731342064,-0.04837917088927338,-0.030346727360630304,-0.2725363930730748,-0.11336502219717375,0.01367705234532415,-0.07681518700171427,0.0604810802160509,-0.04072418213928357,-0.049797373275766776,0.20531758523686097,0.5145515820988141,0.762279388414147,0.9967781212611178,1.2236363805100157,1.3955580623178345,1.5098971072926382,1.528048193115005,0.892449658305022,-0.273463248211561,-0.6504490306296566,-0.3099199631398515,-0.08511015150108153,-0.15445441804462315,-0.06807320003871749,-0.04463387099181875,-0.0010356944730066041,-0.03108900285858203,-0.016417260373807013,-0.21585914335472295,-0.09327067046965314,-0.13054622045801578,-0.06310409886558398,-0.01402988640156307,-0.1864724604248885,-0.19646289236730646,-0.025957294805815267,0.13807636115102878,0.3266084559063414,0.6467294026210172,0.99979384401853,1.154353233815357,1.4344743417323291,1.6499724558418947,1.8849837036109618,1.8817448424225143,1.1419915162229415,-0.0504962350650095,-0.3315816371286815,-0.08785401376213944,-0.07306975071926188,-0.14465656437031812,-0.14297879174471378,-0.016620613882191763,-0.06633921324009655,-0.055980183606793285,-0.1553591436720325,-0.03510707912182944,-0.04994127461886128,0.021873747584153228,-0.0804451017537663,-0.1762035911997969,-0.20290298088196265,-0.034211910792746984,-0.02215036974909932,0.0499945922914832,0.39468181506981564,0.5737194112925141,0.7199848058187118,0.9128064196276792,1.077593454081188,1.4606026036743216,1.8687250924729633,1.9695132511284246,1.2529568969541298,0.23157739443937647,-0.12138864984439292,0.045430220757037704,-0.011717968024252384,-0.1522971910945919,-0.13890170335484942,-0.1956397738109072,-0.0879207959171883,-0.2557750459566279,-0.169570134657902,-0.10019440591234176,-0.07620037390474563,-0.11101183252968937,-0.05800390426878768,-0.17224334302209213,-0.060658447776190186,-0.09475822311853484,0.13899670391811175,0.12964947261323037,0.20080971957973365,0.339085717156155,0.383445177822326,0.5311484434615997,0.7658907945639738,1.1918385889196583,1.5086986774642899,1.2544008963810245,0.4070028475067581,-0.4126085173384543,-0.5220324891667039,-0.29036748350992786,-0.22484375114002322,-0.2409441780263171,-0.2550995843186077,-0.27522281822682076,-0.36385365032395567,-0.11488020462292134,-0.26536578266907007,-0.07424137505576132,-0.019089566931910065,-0.05147630861777921,-0.05348755494534592,-0.009430261812538828,-0.08478061648172015,-0.20667591605345323,-0.11141122597709545,0.00647913044345383,0.12868519445653295,0.19556891226724457,0.21346390580583252,0.3166101166564722,0.6908056065583013,0.8682869911836626,0.7524595701430731,0.3493015938978151,-0.516063410977405,-0.8883532802392161,-0.7741338259260335,-0.5968057975592825,-0.41862229323138744,-0.3466086578397828,-0.5143316240926872,-0.379989073407704,-0.23619420914978995,-0.15457768036321629,-0.24017528420343473,0.010761417676098959,-0.029925009231356613,0.03484688142630168,-0.23439922760405404,0.01649963378193458,0.05375061571121065,-0.09815257512481781,-0.09269453139942968,-0.12400155730188997,0.011705792711242361,-0.004081477973151839,0.13541015841504067,0.21576364182619256,0.3474611520559544,0.40594884344513427,0.2879696797389566,0.025717765948947528,-0.5045046347317762,-0.7423963576673889,-0.6724908373493724,-0.38053072694473405,-0.34078007039994596,-0.17984953872005746,-0.17800685935570537,-0.21343775568206386,-0.27886420377363563,0.008877306155195247,-0.14104716840898013,-0.17156414823007782,-0.012893365748084546,-0.18714798637404,0.09637063399339012,-0.0033321217477528557,-0.12350909731791473,-0.18346487285831872,-0.07175594982886874,-0.050874181008018424,-0.13060436762098776,-0.1469661088153284,-0.07813674117996959,0.036932815106627576,0.014593601818054646,-0.015261092088984357,0.10739414032246215,-0.09217726543940859,-0.21445931827445996,-0.11201474407046616,-0.10208249453676088,-0.22763481787747444,-0.036548134039538556,-0.09824348821812326,-0.057003140667673285,0.02797828591464909,-0.2880296130532994,-0.013066623024801327,-0.07728567210693119,-0.20667953503241962,0.009750545202281446,-0.08771904060151639,-0.1314902076633242
-0.03343286391110859,-0.0798779285784131,-0.05299238665307611,-0.02731584289396584,-0.1670491621401096,-0.12855264055366913,-0.00891923565114572,-0.040625238696237916,-0.06453882469723228,-0.04363616985648204,-0.2009869846118378,-0.24421987012551155,-0.1403625611836021,-0.011902128687717185,-0.13172345894148652,-0.09736401227433424,-0.054286867656333095,-0.18855108560104944,-0.12276105238634047,-0.11303316233181862,-0.16127410889231175,-0.1034693980969075,-0.07983366225941017,-0.12709896360377032,-0.18748619573885725,-0.05724605913164013,-0.09356751600944473,-0.17320247329571625,0.12566265229268692,0.08771507452123824,0.004637859014893982,-0.159025597511927,-0.12276688344482756,-0.07258653114187065,-0.18528518471710506,-0.02682498283063041,-0.007481679496114013,-0.16663858431586961,-0.11401491437216062,-0.11167313426522309,0.040296394037623924,0.01455093559602617,0.05336266743109966,0.2494659293638145,0.008948417021039375,-0.03887947404876923,0.02001939371007931,-0.07960304235494033,0.055081104938839456,-0.003912737370619451,-0.16643371176832084,-0.1326301663622584,-0.11600491523742312,-0.19632755181459774,0.04261962186032296,-0.0705913462302586,-0.029439302594772607,-0.0012616662351363523,-0.3308957391040261,-0.11532057531421665,-0.23179861566405682,0.0011020742608540094,-0.17388020263694678,-0.0030428415198927214,0.11249547008773929,0.0726254231781704,0.24108293942337367,0.07091458438490413,0.028598249436304433,-0.1007801568826413,-0.10627996983190104,-0.0849698032245119,0.04447257188843693,0.10239074428517718,0.11128490091141564,0.0008339369635651179,0.20850121075558678,0.17698599477243127,-0.05230141881099619,0.22798918515690025,-0.08507448095907855,-0.10343463827611131,-0.06398040732683331,-0.03093064213786148,-0.10871544290783355,-0.08737183929520707,-0.015356513608344198,-0.192897839834617,-0.13187654606404106,-0.011806150883765446,-0.024502168963470433,-0.0337497608432231,0.03906623316850588,0.1371808843605077,0.1740528287678561,0.18533498353758132,0.11621511027019649,0.039683057977424094,-0.06507646157049245,-0.0934099184751456,-0.029187848695892894,0.15792641069859908,0.2688054336593504,0.25652713241741926,0.4274306554345248,0.27689741319388095,0.02282777854846342,-0.03516754571958445,0.05036112745327131,-0.08475318329970276,-0.06912996143811358,-0.03841732458713155,0.04565464522012224,-0.11436146819349358,-0.1520316419262512,-0.13781305065993188,-0.11909389027728229,-0.05374909894317858,-0.10864149879975192,-0.02488212290091583,0.110178577562481,0.46097937915435744,0.48235102469038493,0.4755448261371443,0.28062286501602973,0.17749801742749194,0.09749391014023848,0.055647457667869826,0.04227590428934902,0.13582348805829078,0.22430185275079803,0.35022174282057134,0.33929540000713226,0.3060592985362285,0.19814586453521446,0.2145824297758687,0.16080095114537207,0.15476921866396334,-0.020621624381045343,0.032342868919991524,-0.17113161111799716,-0.11236645397599787,-0.12080144356223055,-0.17359620575602108,-0.30605300803889063,-0.3858708994856887,-0.2982356891815142,0.02397291825891729,0.2996670630296454,0.46894711891986823,0.4632650388747552,0.26067403840811043,0.05004686455552308,0.0275411334160077,0.06874352480780203,0.12959063359817877,0.1489811090892825,0.18259789802385917,0.29818528965564856,0.43722294581735155,0.4588867139411074,0.4435613101716929,0.3248065943146813,0.36914027918898307,0.3677473252416084,0.07319954512486765,-0.058087142883930645,-0.23239973154665614,0.07545006811257328,-0.07710163569450174,-0.05954088403292737,-0.15847683503321153,-0.23975853632193594,-0.3931618064454018,-0.43098662507472346,-0.1542149284862671,0.22151813431744122,0.2755559867733784,0.07455805526463803,-0.2224868740523518,-0.3163653582301333,-0.1799343780059087,0.04168833144463426,0.21892637992679698,0.24484697806468422,0.18335868602727656,0.2625843108521287,0.39781195786010226,0.5675166347234765,0.4846864502343765,0.33023027872101324,0.34473958632444207,0.36107525825183306,0.25242003914294636,-0.05204942916039401,-0.1419178911877401,-0.1284616791881616,-0.23969688594832697,-0.08266799033859808,-0.4158430085223519,-0.5031003546471681,-0.7471216521273255,-0.6799375385637625,-0.4129508268661022,0.08457289729014902,0.1974158896102366,-0.029167123249977615,-0.32398311745622616,-0.3985655040558747,-0.1642568765845898,0.1520524865486091,0.33281639981773703,0.2354130332459382,-0.03372720216648343,-0.12775753970318587,0.09933631617890851,0.4334269324168617,0.47885451481434654,0.3156208171064812,0.17770253548960302,0.14576231348031796,0.03666299457681625,0.10209144107082913,-0.22394442009699314,-0.14904993754065918,-0.01934591999923365,-0.27647810915867455,-0.3248928919722015,-0.718776616125824,-0.7984991580730959,-0.6952830176321819,-0.30523427891818194,0.256498847019769,0.3965146462951522,0.03780999957110214,-0.35626478384073296,-0.3007567361496124,0.004099960952584288,0.4026582500503446,0.46685949521403663,0.06931488762097296,-0.3934817631034931,-0.5341313887314129,-0.19569556681524994,0.3095463846040648,0.47441945894220494,0.1349200717958579,0.0745353191988432,-0.03138713459878241,-0.1639234802929012,0.061042069337249524,-0.23953220444608087,-0.024607085887844153,0.03332226100047166,-0.196689576674354,-0.6233059733657257,-0.7531689673847886,-0.7654536390793425,-0.6340233589751642,-0.05088148405912244,0.6480510969328217,0.6697977092168583,0.10852053727600369,-0.34206536881637173,-0.1958089078467225,0.21904350196020192,0.6000826535681189,0.4832206853968976,-0.1791787072106828,-0.6920648872012451,-0.7466172664285806,-0.27353585609119746,0.25917486534760875,0.3074343068560079,0.08672899695171199,-0.0411198744320818,-0.08464057370627821,-0.24555232594181134,-0.0797738298789134,-0.17971975984969366,-0.03514726216193667,-0.17192502744651175,-0.18689597847372147,-0.32686042673340165,-0.5898955558669519,-0.6897859954035576,-0.4149410037384589,0.33451575131647315,0.9720427147581878,0.7723245404010917,0.056386499089788426,-0.29316425831205406,-0.1637712632256871,0.32402824671735553,0.5570103180086557,0.16094751603774543,-0.538405925471968,-0.8479561428003186,-0.691844673404942,-0.17191443523283312,0.2590685813776639,0.25634897003959556,0.09914634697560712,-0.03621433639178393,-0.029688185381996444,-0.07298543058116468,-0.10879081330545856,-0.07955270458225931,-0.021605696406172825,-0.09837253329611578,0.012226298141367912,-0.36775243496454224,-0.5336268828275752,-0.6726368326959672,-0.10524602592617067,0.7066218212784744,1.114531867582454,0.6210745663145374,-0.11908931666392686,-0.4165613530898606,-0.09698993541172463,0.31944430936528956,0.4256145578412942,-0.10829002333601091,-0.716937880748967,-0.7955498026998947,-0.4665249403214113,0.026914981765471475,0.20218653512568102,0.15353448389206137,0.06686106973742115,0.03456682232422714,0.060220572041797316,-0.016947672706657917,-0.042191370797147666,-0.16904993555050118,-0.07131919514550875,0.002549591767781781,0.03173481048910555,-0.33011766039630885,-0.5021189485456609,-0.407856678020677,0.19137787104986553,0.9936436532290798,1.0969958913403712,0.43500101437794936,-0.2623387181481217,-0.37351633082585545,-0.04544933057874236,0.3340450392544917,0.32098416589762285,-0.18997412536223662,-0.5396616795083967,-0.46330219284232993,-0.2283915735743316,0.03547144415698028,0.0450142525937422,-0.02070525248814547,-0.048292962525571345,0.002563023603632887,0.1806185631838842,-0.13051993043901075,-0.20614180976633567,-0.16528488463531643,-0.20678952140712734,-0.024312591238863795,-0.21632847187925666,-0.20161619951651633,-0.4501172758274571,-0.2917458160109618,0.3585539823740159,0.9630459264918976,0.9196361054641092,0.1561244279972421,-0.40198043039014814,-0.33106532436768243,-0.013493912505265299,0.24148049640737437,0.19417356534335448,-0.04047506446425857,-0.14002513551966586,-0.04134119384054868,0.10223141663964044,0.02893302293229696,-0.20975452647232995,-0.2979333522242312,-0.10859582955705302,-0.054838253244910026,0.15033808108704713,0.005105641621283161,0.053094170551104776,0.005136567503454544,-0.09511797013124393,-0.23742737812834777,-0.03980857432103552,-0.17907598217926407,-0.3611201370221362,-0.20824684718201036,0.3051792042280119,0.7983409258304663,0.6544370251136145,0.021052615211521897,-0.40149368488309534,-0.3425801545721717,-0.09110313789404956,0.034444225274105976,0.071896599234554,0.10462498278182111,0.2529080161504308,0.4573504244210907,0.4031441670905991,-0.0009927768030429148,-0.338800972966294,-0.3617550317895446,-0.1933082789093711,-0.013266268807304893,0.15341877649815155,0.14799972705082817,-0.18377579705515137,-0.16211166431755877,-0.28307521990170254,-0.09954445428726309,0.02212614402286154,-0.07013216729338834,-0.2218077142544229,-0.10300485382287579,0.18879263121125825,0.47785164141748515,0.3595017072703482,-0.06873508238011612,-0.2888925346494117,-0.2738712521834622,-0.1530522932382885,-0.02325578819081159,0.058008460860249675,0.10632602620046493,0.3146533546928115,0.5247400951351623,0.3934487197871362,0.009213264558325739,-0.36621693300311425,-0.36301828456930735,-0.21904315171897795,-0.03433266673457978,0.11612638681048242,0.2481100473092282,-0.1656048639734256,-0.3009891582825634,-0.18663795180514023,-0.0901953058723996,-0.17674194820227299,-0.11290009355751911,-0.3350846923249173,-0.15446233353803343,-0.030062994366150203,0.16538383308133983,0.07826528647446027,-0.09847885298626743,-0.12975223332795585,-0.056685540501987076,0.10577505200928879,0.2262866645517776,0.250577585716628,0.22655873728450926,0.2670512161318964,0.30941480083006273,0.17079163220882368,-0.13026592513584617,-0.2860278902639286,-0.224326924499186,-0.09253816210570885,0.05339721772605878,-0.018467605294258345,0.08908644720446988,-0.04699556247811886,-0.15264093385607544,-0.19161862100174365,-0.10627556555632396,-0.25754531601899894,-0.1734683539994326,-0.21666176695901965,-0.25641834137395486,-0.14646416858387162,-0.12329004976921376,-0.20172641767454927,-0.10303231484730115,-0.007799043306252636,0.23207128077541805,0.4719084763747064,0.5652643120368263,0.47038049670516724,0.2457950847143497,0.019590752913761143,0.03743622944513936,-0.04786454790847061,-0.20034369707560915,-0.16909709289103922,-0.06069007185361241,0.029875368615286925,-0.04526126685193978,-0.06179149688299876,-0.02172558142158028,-0.07177877258102094,-0.26003764359899817,-0.17448350445266658,-0.11877078080057486,-0.17109252731163796,-0.034148808281181164,-0.2512329781872992,-0.27912443330102654,-0.24646498538658856,-0.28641718361641233,-0.23013246199460521,-0.09978360179470457,0.19463753298561312,0.5006038262234609,0.6230735114111636,0.7038447240700166,0.46188536065562846,0.13815111441706057,-0.11996850283944924,-0.14785066073974498,-0.13661084083154557,-0.06002403372485897,-0.006726307129611679,0.11200585695412751,0.04675343389648693,-0.06228683073475469,-0.11008417151080271,-0.03793324367705813,0.055029012097795295,0.04088558940503611,0.0008654671980637554,-0.101716063148548,-0.07760099332011426,-0.09809233879973638,-0.09072053913813752,-0.20792858854551982,-0.2967085279299808,-0.3822124507850556,-0.2573482084966872,-0.0894979253563363,0.2212209842513107,0.403959112176142,0.5270115248714706,0.4745653366790591,0.2807761349190091,0.03735534511034712,-0.15252308116356625,-0.12642278972900858,0.004366852789188808,0.18026719105805544,0.2829549857185618,0.18503481129706378,-0.0720955652821882,-0.26164899972106126,-0.27032120577336455,-0.17305817337258456,-0.13297915511291947,-0.0329521288778537,-0.20842530196173947,-0.24703193904119194,-0.0183913900895271,-0.03982700816808233,-0.015757228658043975,-0.19140338721681274,-0.25924333200991884,-0.29093365239552665,-0.23614573861637378,-0.0874110024167688,-0.03275350977026067,0.0790246118267518,0.16682254832864762,0.07895965779194211,0.10793096845616212,0.00429262807701293,0.046577414313642235,0.18368728805289464,0.30436368339455155,0.36045184691096294,0.30670367116354413,0.020905094416619675,-0.18759843905964166,-0.2254491532517331,-0.1655595715957738,-0.27591410504022557,0.18157358763594372,-0.22060952301401437,-0.224552622298261,-0.05851408845212935,-0.23497416806853255,0.029237301421367448,0.012247937577634635,-0.028950489598685583,-0.13080186260658438,-0.17375684877798098,-0.12273520148900968,-0.09466962235776845,-0.11162508903294333,-0.2236939864600434,-0.20101026431629623,-0.07188032667045678,0.14820398751269914,0.23252052438721701,0.40817072055977804,0.4351701791679321,0.4218484267484945,0.23518910528260767,0.08018954573049768,-0.11599648103950569,-0.2520178810778604,-0.18334371916900274,-0.06990858535938843,-0.12895021344640328,-0.13602063833260955,0.006465333324909244,-0.06377656077443959,-0.12939636307141664,0.01848254034143216,0.014415255528636243,0.011819823272859223,0.0771542089504162,-0.007946083097657814,0.007187587456997035,0.11684250659758334,0.17266575042212656,0.05743722738791357,-0.11898282983919233,-0.1002436408331527,0.11791999961679285,0.3259451539855885,0.5454772638801354,0.5563125895695634,0.40971446053386823,0.17491093138412045,-0.0585678199835466,-0.17010659802190994,-0.2546418941746429,-0.24643858851904438,-0.17940000449240368,-0.16903072176099093,-0.13850985461283707,-0.14148661737923127,-0.18435094014959924,-0.32218027358814555,0.0226960008098031,-0.08576337225973919,-0.00845332993486799,-0.11832419059741137,-0.03978529569038701,-0.0386568208531002,0.1281270634388275,0.27419886685197264,0.38315975921880646,0.3308774549675739,0.2186132362761608,0.14976293164525495,0.2690818501299518,0.39773141446086596,0.4440337949746682,0.3468260319327841,0.0733231659185838,-0.09900375554423063,-0.2901013766940467,-0.3152290728983998,-0.3485330436158951,-0.3849621382077832,-0.2838531664733153,-0.20073215010238785,-0.04078494057113691,-0.1044051088437973,0.005831393860959721,-0.16987032965332272,-0.2507832459349485,-0.09159975164642425,-0.027077058042496865,-0.09083914355664975,-0.12445831304541226,0.06100427855119555,0.058166684678268875,0.2626627288680055,0.35637409386629365,0.2260079300558764,0.07494029197273942,0.04367503703805366,0.08568471532125713,0.14213021595480593,0.15285747595532295,0.002339506628764773,-0.18448784646828065,-0.23658772191829847,-0.36278035670562686,-0.2384235399377346,-0.283748120559927,-0.2856193251153468,-0.021049657939993607,-0.18936651242209585,0.11988073332912642,-0.04515048605869491,-0.26020159482455735,-0.24308331315490686,-0.06675604150978706,-0.05851902158898134,-0.281482716449538,-0.025807469894994373,-0.02045323422179562,0.10289852003872454,0.016731194439188097,0.24002612757081115,0.198007727321073,-0.012253444496198964,-0.15396703462611083,-0.1869473538792761,-0.17434804080625357,-0.08412812033664013,0.03301509804647462,-0.08172425969246654,-0.23680613174743198,-0.15419153538169283,-0.15442086109563416,-0.2598095120931585,-0.3176530977221794,-0.29343914906472734,-0.07369616992865241,-0.17103308441547768,-0.08886678466821847,-0.022113050001381043,-0.3205797298476464,-0.07435098261421659,-0.213546628175351,-0.07171013470240507,-0.19016312320226078,-0.10758027271164328,0.05043663771380405,-0.04366255261197037,0.157421065524186,0.11476990196413636,-0.05639536413304952,-0.20520690410888487,-0.29510284960802696,-0.33881282507813,-0.35463912102452627,-0.22193743048751885,-0.1013849450222597,-0.16178756800404762,-0.13599236113081875,-0.27700965393419585,-0.31539268767512946,-0.17842963089139463,-0.03914609804513629,-0.16215680168354377,-0.03553397145135958,0.02147968787473613,-0.2748559900239905,-0.2229213909981978,-0.009275412382159492,0.03530172533929294,-0.1216431357620775,-0.099123032668049,-0.1894300613312412,-0.14305001100799228,0.056502502332680525,-0.14992932664160083,-0.18514095106191344,0.007157057154954724,-0.07951258748471515,-0.05528783213408119,-0.2150965919005666,-0.08866062471332747,-0.053174562135497254,-0.2846818497341274,-0.2687641625724225,-0.20390243384023748,-0.1533226378121265,-0.13993286028344187,-0.06755283690063754,-0.13589861419207258,0.11503702285693179,-0.11595467854926701,0.03907500436062733,-0.06581377942736345,0.004933774915766511,-0.10929002143996394,-0.01454232810919456
-0.04622820714986879,-0.27046579037604795,-0.22116976612243194,-0.19450227189780867,-0.246340294474086,-0.12152554099696974,-0.19693831908121576,-0.0939948438206196,-0.15130107230811246,-0.061791103383603385,0.03004178712295253,0.06042147911197243,-0.11848415995839723,-0.136764421527719,-0.08168195517602393,-0.14110896083190655,-0.01047421804354211,-0.12347452458075023,0.13197023052890544,-0.19053100676228954,0.07533941777009266,-0.06956010646818066,-0.11835419977188504,-0.04998099795188635,-0.09328296986499467,-0.15351444364106634,-0.025531698018627574,-0.3196248068926718,0.0033808120381382443,-0.06806124485943728,-0.16642187305873568,-0.1391952062030664,-0.05880389404867378,0.0720524494561555,-0.24029553185597546,-0.2435725640001029,-0.09809508070592787,-0.05078826894019228,0.08209423474090034,-0.11210624058230785,-0.09641111661529593,-0.09962693414282382,-0.0868094654472712,-0.10038764988258704,-0.07962039918489681,-0.07772795211611008,0.04400436547681459,-0.11929650574968713,0.18065960726444233,-0.28442454450857885,-0.26684770942338243,-0.10577099894315407,0.062210038897854036,-0.05269520720811184,-0.21772607546206416,-0.06428677389385166,-0.2587336105072521,-0.010712288948546677,-0.14438955141858298,-0.16976509554683847,0.052473542462059014,-0.013287035455717978,-0.15874345382664914,-0.17042988941924472,0.003791371521949515,0.1617510641383345,0.04152815409223585,-0.17780715454014234,-0.16096973932055994,-0.2521675906135023,-0.12015749320541731,-0.06794649656305804,0.1125818969829687,0.116474183927669,0.3055836424871112,0.2101280651067591,0.12051958963178674,0.1372104172741564,-0.01382340783772797,-0.1745326727297712,0.01308042116735348,-0.02160031435186627,-0.16760290340365067,0.03234149892700852,-0.07761166725068318,-0.07233187623091894,-0.0788434779653732,-0.050398558709965915,-0.16255808603979788,-0.07920481663971324,-0.04302092852461456,0.033488000691989504,0.02774135507398598,0.1576508651855518,0.08189625651293006,-0.1642124055834238,-0.10042532298415163,-0.21831793049870288,-0.1879936204215444,-0.0919390426915767,0.0029726506841047514,0.25274899779494947,0.35469472065765695,0.26346121358247104,0.27188844669164036,0.2777512795573928,0.12237139736903638,0.08228625385240736,0.016065842540736616,-0.051016241754694845,-0.12968937485762483,-0.16862629360095036,-0.06158529763041083,-0.13884042924085474,-0.12321534252392573,-0.030525121112196487,-0.10903445010899672,0.13710697449026985,0.0396532688719182,0.13397363359939105,0.15943200083820155,0.19614381393687993,0.11237333951168306,-0.033985942231195596,-0.2000485849119974,-0.4017715249726285,-0.5181353272469326,-0.5033647458756159,-0.28392534280289156,0.044515690779606494,0.3333145943096311,0.452758676085456,0.3244463931546226,0.16267088145306877,-0.014855690547949219,-0.19445642248188677,-0.11440614743948445,-0.11283530051387307,-0.19022588652554548,-0.24279038256627075,-0.08102382004125007,-0.03935744274830959,-0.1342612260546076,-0.06938064975024796,0.04854529382368228,0.1940169296106886,0.2627818673781549,0.3043513424808897,0.30356775474670356,0.28807491925737205,0.1888516062204679,0.014905139901895702,-0.09087530364179988,-0.09809284314602539,-0.18867256353812512,-0.24372539601783036,-0.11306696148110447,0.0802290532919102,0.29509197530815445,0.5185096173181569,0.46938616730239713,0.2790947460740304,0.01618125083619301,-0.2713515178015001,-0.3582618386135638,-0.26759197580227356,-0.15593172785233314,-0.19139902038444767,-0.09516445070395664,-0.03263908244305431,-0.03877261968081641,0.08566360266192617,0.046075823385411094,0.24314399308554924,0.40456594723592004,0.4800280288344778,0.4234147241901958,0.2965037593800562,0.14101106377340186,0.06731480648638188,0.07059708530225503,0.26897485273996413,0.32441309525920753,0.2603404864917042,0.1592896291495625,0.0874207854284765,0.10387452372495805,0.24516294052282045,0.2934999997363105,0.16634149578275018,-0.137894979034508,-0.4089272979920204,-0.47881196641717916,-0.2980513903233061,-0.09826857086319986,-0.1030365165601391,0.03037934938781613,-0.04405190705695533,0.056828609049911154,0.21124640647035947,0.1475267063967748,0.296580037583069,0.4248905085958989,0.4370006958328247,0.2985039156546389,0.09284331244605201,-0.062000356617231,-0.13602898992707105,0.03127903050244484,0.3702685125583228,0.43927956649454447,0.4079759477549544,0.15615449666675468,-0.02327932014641028,-0.09366986287744503,0.047936646285573085,0.07600115274207592,-0.0301396297573607,-0.3297360464541168,-0.5688496359027753,-0.6312399895262157,-0.41824824087070406,-0.06547594530582908,0.01378347224609957,-0.00348973195439212,-0.06968238458852505,0.05502800137546342,0.20958762217182836,0.2924936970343438,0.273772166119077,0.24360980076726343,0.14357728396619862,0.10214359324493996,-0.1353788597715143,-0.34386528364792984,-0.3127530029263001,0.0015438834681963834,0.29707591672842215,0.3026798926361729,0.1893251938453412,0.008131722615600816,-0.12821699514946194,-0.18507392536618875,-0.05969597217684995,0.08011190388855298,-0.022673772191367354,-0.35376197286811184,-0.5500051148723436,-0.5548805222468789,-0.207339729052725,-0.2895598630305986,-0.0887282164048823,0.07695162535276465,0.08487307288379115,-0.044905769134290445,0.05376164850074122,0.23243934522774853,0.20170614409477328,0.13090816920845005,0.131486359806735,0.00415677450812358,-0.2533477841861856,-0.4117384322643138,-0.22053699091393186,0.1330659694501354,0.3730772378906301,0.24736039512550204,0.06315603260047047,-0.04111862673407862,-0.1071703676106665,-0.09322139350704953,0.03106738006547572,0.22555316702538622,0.0768155094375961,-0.23873649626981974,-0.3032854223121295,-0.40493567100731237,-0.23895378460440192,-0.1310051220319602,-0.14155091604385192,-0.05915954078910443,-0.09802748539235952,-0.001524363213358235,-0.02539161286736959,0.05907629057229598,0.03462961158833852,0.12892538017071953,0.17239670127064902,0.018225141049385874,-0.24117712783335035,-0.31997273924432507,0.039224885137860335,0.3805244136266958,0.4659002910724402,0.17900195065445673,-0.025670988248236614,-0.048032804021055045,0.0017343981490386404,0.14444447882361197,0.19361350693251114,0.243688908774799,0.15771354285026387,-0.13104402930041134,-0.2771961926029875,-0.3246104386332312,-0.19348728335247944,-0.06291093406045177,-0.09728507255954492,-0.16108022360394472,-0.019720271546700707,-0.08803183579498086,-0.016312479965521556,-0.1452188117191359,0.023529826004658704,0.13476877618358807,0.13421214390192282,-0.018198553061009974,-0.19973718897216286,-0.0592369471311051,0.3016596709535352,0.4029981472499109,0.24696803741784223,-0.021556401951774055,-0.10289978857343227,-0.03794857522012412,0.10925779787646167,0.19751755202452342,0.2662968049768555,0.22622657609883257,0.12735232834109914,0.017800355234234698,-0.14758975461833126,-0.2668551054613997,0.0428036048805553,-0.022393944747671368,0.000669368648349974,-0.2504874065578467,0.03289177551179834,-0.011181744227353126,-0.11729474096930483,-0.14771913322809863,-0.01803644617981038,0.04120215016733576,0.034251490504197145,-0.1032246819795934,-0.12087196262114311,0.16314472749756861,0.36393779708799023,0.12874474311688014,-0.151156241105234,-0.3605322244620473,-0.25834468886096473,-0.07550987249224857,0.10557924280207442,0.16900936861429058,0.14380759033822302,0.1771140281001024,0.15541112375753843,0.06880325621448417,-0.11191754456426582,-0.18945740428348354,0.0008321771620144617,-0.06877130409452367,-0.05913970302633098,-0.18131127808088288,-0.14564105391849458,-0.028105744372777245,-0.30957964666525917,-0.13323353136767394,0.05795599316697381,0.02516338300208176,-0.06763962190150098,-0.15965326011763123,-0.038753422514005806,0.25434946279653,0.17631538826066193,-0.13652095156319674,-0.4250772739993647,-0.47755698567610577,-0.2639366678228883,-0.07675724026678507,0.032288000934555444,0.038704781499582466,0.04612977535787744,0.14618446891800094,0.19727954284500154,0.1902854899124451,0.05830577569548396,0.06576926679703911,-0.11744429364914372,-0.14477017787583701,-0.0685447271415953,-0.15303001592026277,-0.23071786379520967,-0.0640823329625867,-0.09962775946965757,-0.12321335467751689,-0.07125444923077802,-0.05982224183834216,-0.15776856549677878,-0.18962415416153144,0.047021483533671554,0.21992310728095493,-0.059574939931628226,-0.2973722208664195,-0.32178729976103,-0.21259412804389835,0.012204735682195423,0.08578103061821941,-0.02603562235833111,-0.06410477928675766,-0.026801980656886517,0.11830603555287683,0.21215462072167968,0.2072603792461538,0.24077935007182644,0.17781161860381206,-0.1298675902587913,-0.16707938304971204,0.04074375394786161,-0.10117133131631292,-0.007182432210069524,-0.24644230981389692,-0.03691821975151639,-0.0002021446435734092,-0.0455642157075399,-0.08386201607535936,-0.1292376477737988,-0.09170388812872939,0.1516930498153418,0.14709814499220714,-0.12170759936939886,-0.20584457159752953,-0.004476918387254664,0.1967993915538552,0.31571780815239575,0.28091361322168557,0.07797555502609398,-0.1006199589975065,-0.06552858780211043,0.07605650876808803,0.13465629195407097,0.3002974437092356,0.31649172275531245,0.24329656743237343,0.04752338639920328,0.023707247892380864,-0.044213749621430855,-0.03135424439060987,-0.15036243374633682,-0.20104043653975473,0.08667517595809165,0.12050274215379772,-0.020978988822549914,-0.09130227103359696,-0.10914417574710826,-0.096223559522939,0.022350842119379825,-0.08501468739186135,-0.2834896608096252,-0.1637686293261476,0.14539238080819533,0.29991387166049605,0.4869323534051894,0.3647381818930843,0.16107110365204408,-0.07145555043050915,-0.15628527950524346,-0.10462989974591695,0.06826522673031114,0.2778633722759641,0.3677374379009107,0.26799379453237576,0.0006411057435550787,-0.10814700589010856,-0.1216279468840693,-0.030018991709418356,-0.15443949002470728,-0.028559804631167186,0.01942858382918898,0.10737525537912583,0.0015666112032643455,-0.1465364326661778,-0.06651830204659595,-0.06599311996616782,-0.10162650228017613,-0.36854864471397647,-0.5172129399448796,-0.24746091923668587,0.02448667264538142,0.18330107311871452,0.5150431710101584,0.5093973087201122,0.24884737600278412,-0.08879730739217524,-0.23702439687866914,-0.1794444761554387,0.010538899891980457,0.2775434519630443,0.31654299756105436,0.16306560117818952,0.08834321381031017,-0.00414306694713736,-0.12540974397810908,-0.09597240154706346,-0.3478217080298769,-0.008971142169734748,0.18296918864418144,0.30358209146554643,0.0888041264977855,-0.08072703943554976,-0.0591741377958171,-0.0027782175185666227,-0.09364842229100674,-0.397145853479428,-0.4430481430150924,-0.15217060192249396,-0.03269572609817777,0.16995013849732638,0.5549469031127426,0.607094383189634,0.2950660129772176,-0.1845137864096988,-0.22072226854905053,-0.13256270149025284,0.06048568422802671,0.2551709896586052,0.23366959213093905,0.02949656519827864,-0.06273967088489858,-0.04048313002414039,0.02337485705642586,-0.13079558816191528,0.05498432813933206,-0.11082600888119344,0.23496931316845102,0.2920869277186152,0.21434841739279797,0.08325011422215221,0.16655049489614135,0.23224666470127606,0.23148944160446727,0.08732593209952816,0.10209497651299398,0.09369934810402432,0.010326919295685764,0.14709440749398017,0.5537845656071544,0.5016665625886128,0.12424371636124443,-0.160400259989226,-0.1778769287397625,-0.02157980437119081,0.05790859538198159,0.16937136092926283,0.10717436882673081,-0.06880226429628777,-0.03336470736223764,-0.159397503367891,-0.2884009691452105,-0.17695011830903376,-0.03903611348772707,0.08530635472282963,0.2902918667379107,0.1815968356097729,0.2160461732654452,0.1874191838486852,0.37424335994993035,0.6380299149063404,0.756862297020489,0.7372624354971756,0.4958434874193637,0.13231441181961598,-0.1527936560042926,-0.029002528068145808,0.34641108511967944,0.31225340917807876,0.04776464719511552,-0.03782956964305463,-0.014897579630630722,-0.011865995681243495,-0.005702456122356129,0.056890561525090436,-0.026606950330641737,-0.08986886679368236,-0.189185614403282,-0.1390584341887717,-0.12055759778200968,0.0425465869845251,-0.09965381237879695,-0.06803088050750093,0.03660123388544866,0.02179395042024379,-0.039454679743539986,0.025972012352740954,0.22088578556205615,0.5851709009356977,0.8134494206762036,0.6941521672282315,0.279426507240731,-0.173381865123741,-0.520911370718444,-0.2246263462567746,0.2500149513640643,0.3546322370269434,0.29984065022462386,0.15728786593562935,0.07206601169556937,-0.06220763198411903,-0.17540949520664412,-0.1375570619678926,-0.14144767836328573,0.0844219158210679,-0.06399606205522573,-0.026722729043833913,-0.1730504246236015,-0.02946490405226032,-0.23106828128829326,-0.013325809204819787,-0.11873176921701788,-0.07071332400077049,-0.3203319486189539,-0.3711035198200895,-0.3261738659068645,-0.0841061239690886,0.11812576112825951,0.09363162997022306,-0.25527521104776074,-0.55837691510773,-0.5484977002613067,0.03321376290016159,0.5393546688606303,0.7300111739846461,0.49981659440223675,0.24557120180231204,0.04935354944043393,-0.21124847650302336,-0.26290315999259933,-0.2214772747063371,-0.17203970487285614,0.09563328936630353,-0.09411998788882013,-0.22979440831049283,-0.05314652789182997,0.031472519414317675,-0.15206994930917098,-0.1488124968975809,-0.004298442399289042,-0.25762789900646277,-0.4763267484538933,-0.6425394260922566,-0.6903319044024548,-0.6871260733201705,-0.5737834246834157,-0.49718655938549977,-0.423345566573246,-0.2683515358496566,0.07135464846795617,0.7304190455543029,1.0860991949562055,1.0122412746098457,0.5400291342967687,0.025238350950389517,-0.16861342825272332,-0.38013744967135155,-0.30574913583164987,-0.214560598394973,-0.2668634117612109,0.0381603754070743,-0.006912085625904144,0.07871559003288268,-0.2567446999282723,-0.3383655106475056,-0.16105610795293332,-0.05002437285439537,-0.1537903261384549,-0.23222527791408712,-0.33276159441360076,-0.5858730268288318,-0.6918294009060109,-0.744856728710848,-0.6776365248641981,-0.49162996430376105,-0.10935877064398675,0.39409255164540086,0.9487879734172165,1.232648056009449,1.2112557449834087,0.9654819480776144,0.3825289141634238,-0.08314863542532525,-0.2756843846478867,-0.37342360020776666,-0.2661312359284667,-0.28434383828711707,-0.11148970863267976,-0.00021689726344051793,-0.145195678156404,0.058250264663814756,-0.25302845878892494,-0.0962334378211325,-0.11944770419434694,0.03143584477388634,-0.06764947598189705,-0.0668835359706822,-0.24838803032205048,-0.19698411608928362,-0.474379386843367,-0.5425002017876516,-0.73160346910817,-0.7223869274779189,-0.3693973092709893,0.138101188078176,0.6527657793070826,0.7916259738387799,0.7464064436895163,0.485870072360772,0.0700035327194714,-0.22435669573044165,-0.3609717771865113,-0.2748565698603562,-0.34862775440103716,-0.244563084488822,-0.028955441810773593,-0.09789115684788069,-0.03560210699123964,-0.2568311869366507,-0.05968607109555643,-0.057306097002546776,-0.07396868772897357,-0.11483560919339074,-0.09416339642045451,0.10917520149535427,0.07895450638246414,-0.26755281829634137,-0.38613038294503443,-0.31016460565891996,-0.4802741191576344,-0.5328339790661454,-0.3544005184543904,0.08909238491258317,0.4962133810108969,0.4669960495361685,0.2446622948971223,0.16276818227360204,-0.09247922084672075,-0.3252785985532176,-0.3025018629447467,-0.4054745669086029,-0.14978585588035478,0.05431226709400573,-0.06465743278762298,-0.07240543398483641,0.08384693226161123,-0.11971693190435811,-0.0995583085214537,-0.242943716406251,-0.07096650475831222,-0.11316430199756294,-0.05382104631843828,-0.2470679101024205,-0.17176574055044003,-0.2549976026031633,-0.09441311129240655,-0.13141377819230188,-0.3102428846032633,-0.10814250304506187,-0.10455228235378417,0.03507558445603909,0.13937952441107426,0.1768292768288484,0.2545375783918425,0.11254504317245555,0.07067230972517961,-0.13113801136660427,-0.0382713507072963,-0.1377338037990204,-0.06714291160459188,0.016531418406706567,-0.10991168403583028,-0.026849857376420715,-0.07026559268435432,-0.10914220823579746,-0.07332615613258756
-0.07345116441754765,-0.09403117455701408,0.0559438430517242,-0.03730314865282938,-0.12516876862993426,-0.07886291997290525,0.07050701860948469,0.049166229478127224,-0.009803559065493168,-0.13406441561510699,0.005383283634918604,0.023051946344453633,-0.12542677849903866,0.041975934022900264,-0.035526880716510736,-0.0914861720751455,-0.004033378716245008,-0.02953673195400268,-0.04426210454458416,-0.19824751502662016,-0.10484882452410746,-0.1230072190700988,-0.007512430410234329,0.11280065042783066,-0.1822994861946073,-0.2017542433010672,0.005269011489945118,0.03443283699657923,-0.1550765683574468,-0.09009022879217445,-0.08628732617239994,-0.030028725041646616,-0.27633514226244343,0.02613281271407143,-0.007697682769991028,-0.18037209564182494,-0.002875332380365239,-0.05171253643083155,-0.0428069796540526,-0.027425582297151935,0.04309705865245882,0.10971373831432912,0.031701451319243096,0.002201331650619937,0.20646375718835264,0.07837243978162595,0.05475083909546793,-0.07269265900775336,0.0598939461921875,-0.11671708417102052,-0.25541514329167525,-0.18618412855668487,-0.0701041588078184,-0.10012223947714652,-0.10906879467313094,-0.11230776667348712,-0.18806425849516348,-0.04872585369742997,0.11634500664604544,-0.1115226551276916,-0.0266854465354852,-0.12553787324652735,-0.053254003272572396,0.10338592483754423,-0.017378579728316416,0.07205364499267676,0.18933557903666148,0.1626371674282374,0.15076582153131193,0.22440645279411425,0.08100169662047392,0.21854908071073764,0.31940991794761897,0.34227352719383947,0.3402109446779377,0.3206877871233018,0.24133667003110731,0.08944461942915188,-0.06989677909430536,-0.055062794370410166,-0.05285718582847822,-0.141547246367104,-0.19301573238528252,0.009931432177068846,-0.04603242209482178,-0.07765766644395072,0.07413236891493419,-0.11396805214331827,0.05423316313317697,0.03478081782083854,0.006796705560965468,-0.03718191552053505,0.07920660334562066,-0.06068174288488836,-0.053599873727759526,0.014269452254547598,0.16058267708100854,0.2976740453407292,0.2723689311926152,0.44631196818256413,0.44352228995263343,0.5963801970736958,0.4721433754507732,0.3498363887016396,0.202707167860009,-0.07398053779128812,-0.007779118618272572,0.09810409203473744,-0.03161565767728558,0.0091220069201301,-0.21747068186229213,0.051467038138475425,-0.05091454599836269,0.049669389747814936,-0.15423838985981475,-0.08544431782030878,-0.15820126424972253,-0.09573573008717338,-0.05686278322489227,-0.13542096397155268,-0.23086309305828875,-0.11011172596966365,-0.228923679172221,-0.18667064577891337,-0.15949482318671057,0.0010421221074457835,0.09799420918886091,0.270668912747365,0.40722597563896223,0.5579679990038755,0.5643071361776378,0.3529914882474772,0.15932042423663434,-0.1353801475176166,-0.1122701763628669,-0.26415534213616537,-0.10228068864800569,-0.11735375643212341,-0.10340370950057862,-0.0007179241120598863,-0.12979444503575954,-0.08095212058553711,-0.028246829978553316,-0.11516564102591889,-0.13423481928830525,-0.04583259193728829,-0.06759271251868422,-0.11631944576240758,-0.21657241644360956,-0.17167533115101727,-0.3450558052913826,-0.3426814059936446,-0.2164870465821001,-0.09917376676523638,0.09247504591015179,0.1999882527584415,0.2696182469347028,0.26201208904344403,0.18468147455594833,0.07105455378684507,-0.008776099740075571,-0.05602606594483109,-0.260347918391166,-0.24600779945918264,-0.11591812225986449,-0.02984636300678923,-0.14782411436652673,-0.09509021519890902,-0.08913758633209087,0.013789201422277342,0.09180998633914976,0.038152352515254076,-0.3328745907715475,0.03450752231341713,-0.05955728438269121,-0.14443498890919182,-0.2648400890229797,-0.2576017473694323,-0.24616278396958932,-0.29487770611196146,-0.2132895606990307,-0.02620282628425858,0.0991937778774713,0.14355207953469093,0.1175188189302282,0.02147516798941902,-0.11901386837237182,-0.21024582098825853,-0.17394981483749605,-0.20666959257580372,-0.315073417363473,-0.33245668109824594,-0.20799541934022267,-0.15097216972671199,-0.015912993792082684,-0.10760518683364631,-0.02689885401829974,-0.1275079030838332,-0.17546027838960512,0.02672936988264826,-0.0897531962144522,0.0966202290775377,0.016071678288074327,-0.024075312531148484,-0.14976523491137442,-0.1586749140168075,-0.17771223597162497,-0.04393827138933805,0.04779850315563564,0.12777505033439288,0.128929102478163,-0.009661288378902351,-0.19405001115860063,-0.22891708831953894,-0.26790918247764006,-0.26870647836005057,-0.24394999399315892,-0.16645026098305754,-0.3126197785449553,-0.3284344701784842,-0.22783151330506493,-0.11400348835043081,-0.10972402201550503,0.07391099526319504,-0.07767829161423764,0.07448180300831328,0.07687821685708424,-0.008562488523833343,0.014296551523272215,0.23561869815453784,0.22571103602010065,0.19406801790923617,0.14797325040521025,0.07289208282540029,0.11013732194582983,0.18507017385896765,0.3037849383234541,0.31427096576330515,0.2083890962190228,-0.03309830958104411,-0.30764224022095604,-0.25025975198062994,-0.173214034925344,-0.10971878911162833,-0.09000387436485706,-0.08615357536231379,-0.061126463901688535,-0.12336989150199064,-0.12928092648822875,-0.0968261343106096,-0.042483717021166136,-0.0866138146299561,0.06328252670542134,-0.02353629689299839,0.10555173560202095,0.09522175748074575,0.08251199807812344,0.3164896692454275,0.4021960735062148,0.5500790900649988,0.3855215435305178,0.35083816584587635,0.393998431234565,0.4048565726187022,0.4249888900548682,0.38478210384033684,0.18019595622171175,-0.06873779082388215,-0.1964151497488106,-0.13266313556620143,0.07542132594885223,0.1708250264764285,0.17641208708211775,0.1187386628284834,0.08892394189794496,-0.07079011746695818,-0.041018575171889164,-0.10553485319840757,-0.09180472600717855,-0.07222148180942223,0.035160068353066995,-0.02937763641958974,0.19431021236356877,0.20965869917445865,0.2285260163283007,0.43165899601250063,0.47697470476179443,0.48810259129497563,0.46785275707860163,0.489550299579751,0.3739632478730565,0.25062170016847846,0.06775143479623655,-0.059435481819999504,-0.1740755250195646,-0.3245096963393471,-0.36747441754932114,-0.08920943976576229,0.20168205417460205,0.4460510165482763,0.37776717627595013,0.20046451494934506,0.19730058562134473,-0.0004508030042556703,-0.07091603840418767,0.00942628460380887,0.1227039166270201,0.08257642817347367,0.027359367279579418,0.00012992717908585726,0.030010725113347316,0.1457911069742994,0.22440324345850374,0.34716923032504976,0.44620577969024305,0.4138048710307291,0.5088124360371002,0.4645379465556426,0.09677347163553053,-0.34611058015256385,-0.6132390700929149,-0.735691038721196,-0.8199122942727511,-0.8687581439174626,-0.747845892601043,-0.2576810704003617,0.34519255680184135,0.5373055895430663,0.3796664412035136,0.20224091524607363,0.19922473782454317,-0.030705669189560334,-0.08317797171367472,-0.06526898445208425,-0.15492495600714315,-0.19178864348264052,-0.10422003594131972,0.008878598920985345,0.025552458206567936,0.10789991609133219,0.20302304002632474,0.22048539059057262,0.19143908958767794,0.2619141078425713,0.4072870048994973,0.4063265926016078,-0.10869497419346419,-0.6391330167554272,-0.9666859289320656,-1.1714805424263666,-1.2612890106894967,-1.146669745717455,-0.8926810574273742,-0.21507132097585627,0.4869291739751139,0.5052662133055509,0.32975913132678025,0.18160355023453217,0.06233718043049316,-0.005896632230061313,-0.1597422698095104,0.16098465569976333,0.0025112374622181864,-0.21520850451372442,-0.1668174651045147,0.015311630640005413,0.04780715254598438,0.20212443637515523,0.12465974604489448,0.09914885899919253,0.13069488696836049,0.1823643346732256,0.3836123760291716,0.37852391626701154,0.06167239882304171,-0.2828229981783536,-0.6471564771505403,-0.9818072377293822,-1.0616550880507158,-0.9733858309844928,-0.7212104026096879,0.08207420353988337,0.4812631459766091,0.3930433773514022,0.24096918454448749,0.10621356859070495,-0.06784540025240496,-0.12227733733880786,-0.11380168403045456,0.1401781558090603,-0.16977073935969406,0.06626738346195532,-0.08155810848814124,-0.031294867815370116,-0.09093302423331362,0.0947520159233518,0.2700505731350015,0.0908755050985748,0.06182856641783369,0.17912123062923738,0.266847877928294,0.4401149076613738,0.4868820468049381,0.4054454085878798,0.008699669364921395,-0.32262817203853617,-0.3866602516687669,-0.4515176598528795,-0.23457779632527498,0.32480377918682235,0.447000444971928,0.29750012686277355,0.14439633389848378,0.029445887435587178,-0.056328500233256494,-0.17032115375442192,-0.0665978852769079,0.09847406522563783,0.05227819660714478,-0.014885877811258373,-0.09556322076526988,-0.15388993560566575,-0.12333913409192748,-0.04615662052182897,0.1359023955346592,0.12251667325393346,0.042529654107549796,-0.022056857895168692,0.007692991194851854,0.27122186588423325,0.4485155366236686,0.5739698042505393,0.3842684590658832,0.2284780263492478,0.11603850470533152,-0.011295892063017522,0.16591462114462907,0.4836053915720898,0.3436436644022452,0.1722805400863007,0.08548783960777838,-0.0914479978094665,-0.21503481455599083,-0.24525408724247869,-0.2516193925208938,-0.05998358120653525,-0.09688566420913027,-0.11834488821781833,-0.1067772065430061,-0.05807951675550978,0.07269611675269867,-0.01166957076524218,0.06174193719634001,-0.012158745022633616,-0.07007029887844678,-0.16620268797488635,-0.1715251406802171,-0.07730924807884004,0.11775758684294142,0.21454750363119812,0.22237798613706397,0.23236007451397836,0.15120018717667846,0.16155686026935073,0.41083851232440993,0.5534858532504348,0.4040800590518939,0.2706665794707736,0.09984596253686769,-0.044638190554201616,-0.2515956078850784,-0.29893113329907606,-0.21039349498334384,-0.19100307873873895,0.014051609423340362,0.12633211208688774,0.0015327698892833163,-0.16856020334291247,0.018270710640316375,-0.1306362459932072,0.06759605399850076,-0.061041375439187535,-0.17539185443694702,-0.39172250516198737,-0.4320178586928992,-0.3398885294778347,-0.08389859543399789,0.03403876980798413,0.03833967261147179,0.09694185844825384,0.08913604227171806,0.16953826746155212,0.4327608002350756,0.6214013780358036,0.5798493263697885,0.4203966580904801,0.1663974130743971,-0.06590216638309276,-0.23662110144267445,-0.18257700761255802,-0.2156898048975678,-0.09170998823207853,-0.12459026450988973,0.04055846745460449,-0.09076272105714316,0.02343173410554664,0.09674133122002244,-0.07564406652440589,-0.054975488115093715,-0.16513214765849704,-0.2069896839803637,-0.5119129096976331,-0.5965868437816872,-0.42852899698308305,-0.10128408798565797,0.11170734240183888,0.19123842402393126,0.1751539373677081,0.08216579719522145,0.1908129018992793,0.4672838484564166,0.6666061217365389,0.6380141439984469,0.48196785394042063,0.24045599251370697,0.009228087988465649,-0.11137008035681455,-0.06771259801872342,-0.13008847730225018,-0.15480872539556362,-0.0808913424218541,-0.07702261035956683,0.03590788443878686,-0.10534962610575557,-0.1906441278919309,-0.03763267905805635,0.0416318692848993,-0.17665007106993452,-0.24734665816770615,-0.4750989949713151,-0.49135182377704356,-0.29246042900020597,0.1344716670972993,0.4232275577071248,0.5120984011882016,0.3501793712581313,0.19334728017929523,0.2987455592386142,0.4637748587789551,0.5919801531394947,0.6288322199374824,0.4506050243809731,0.25763507440547184,0.10544706279176495,0.17305500114168365,0.06945217651400763,-0.03779211658139844,-0.12177160835424425,0.09115462459028051,0.02402506496509892,-0.08908031274190975,0.09016716386893334,-0.08563292469092143,-0.11593961842859987,0.06711027941547647,-0.10757389990664652,-0.22729033661955286,-0.26543202913959196,-0.17338179832395273,0.02276756414791235,0.3149092216077355,0.5835200233029497,0.5232073272874648,0.4264343337780572,0.3235593420835161,0.4319562381572069,0.4566363980988466,0.4865040726914117,0.3715632644390249,0.18156042348802048,0.0403113904782136,0.22824527322334165,0.20395884371041453,0.2489495405737975,0.036683314322517806,-0.040938891024925025,0.07258312555015478,-0.1359486925337739,-0.09059699235910858,-0.17142733504886515,-0.02050884545277586,0.009889122796024831,-0.017566145492354447,-0.08104631746171424,-0.1327285058996442,-0.05624708312316653,0.10113402841265541,0.14399789604275087,0.2826665802652395,0.3966167943911725,0.3471465358877455,0.32775653713025954,0.34549307455420264,0.30916691307277744,0.2807554181508443,0.08420046807668767,-0.023221087628651313,-0.03173032205659157,-0.03140955567720969,0.10407141918779006,0.20374677994827617,0.14125057032082103,0.15482213048499957,-0.018293525442960534,-0.013135601089661624,-0.1547021738087258,0.038184387262715364,0.05164037180542467,-0.07092049995377409,-0.11574816235504903,-0.10441899965644513,-0.15589187236141533,-0.15037858850221444,-0.03728478881890736,0.01100246657797817,-0.007328436020778073,-0.004233546530530025,-0.022683536985345344,-0.07557975391903976,-0.03036139750412208,0.059374397747280365,-0.04592137926275163,-0.129400273513457,-0.29408924206967935,-0.19305495273785608,-0.17328398472677994,-0.03561247187485061,0.06295850394819966,0.0636924019591284,0.0927086110955806,0.2373189447801419,-0.05505109015134633,0.054114538190433874,-0.18445604455672965,0.023674891207958154,-0.005701284775262281,0.0005150357931396419,-0.07014539249493544,-0.16191933940825526,-0.13949873796094747,-0.18360301692050915,-0.17756135971563455,-0.144022644729188,-0.20678314143889753,-0.2536023147068575,-0.3609939612153329,-0.33515111205803383,-0.3211538507229436,-0.2497829126920867,-0.3316524737483543,-0.36952210429349097,-0.3424541683106042,-0.19281347595267012,-0.09038854405848917,-0.03232497737229724,0.10667659842609649,0.14439883364193146,0.03652197385273866,0.1917621329099318,-0.20480658963076429,-0.18283608370458648,0.015816886067864543,-0.07663381828963294,-0.19718849155036117,-0.14858850851947347,-0.17446985577708626,0.0030935770503316418,-0.11656370922319753,-0.2730030746373486,-0.18491422464276094,-0.21687218056926214,-0.2565106588515131,-0.3044054942350431,-0.39175127655661274,-0.34358057661317576,-0.24268227643436954,-0.15899627002264927,-0.2606604899700014,-0.32597424204190983,-0.29361516579415603,0.00407576765638725,0.07214665031350245,0.13679826721787428,0.22112299100533103,0.005349389815630634,-0.06292056529720685,-0.14644295962229176,-0.049211446938453494,-0.038888829990003135,0.025575296581007628,-0.17276617377993297,0.021136904744700976,-0.1282272633868074,-0.11158292665335974,0.08626421022001905,0.04994642994791218,0.05066417974122174,0.07657919101632035,0.07461208111513301,-0.055330381837486856,-0.039656017487805874,-0.2589767503142205,-0.17477109441248181,-0.13147027050074309,-0.04991849494629082,-0.09894865504085947,-0.08714603176507484,-0.03574766923794641,0.14477745976172837,0.20009463865354257,0.09469573574728457,0.0892067498578807,0.2231555535749331,-0.05198117774624682,-0.10088994444007778,-0.046866862281372094,-0.023657638986208582,-0.11287253642389945,-0.003454402450980276,-0.07359726313911479,0.10176238520184651,-0.020013362153898397,-0.1539610444585391,0.07035332698927887,0.1439579168992787,0.13199236577169057,0.2449078636565158,0.05656894883462462,0.03696955881331327,0.07442713375408312,0.10217174015869604,0.2088305827179724,0.156866930320034,0.027995210246960882,0.24569798517852406,0.3163478946545303,0.20249784184946068,0.24692888400359392,0.09205017542928391,0.09640954246372145,0.07711566015732127,-0.14084082538209203,-0.18158007269444643,-0.06083638554522312,-0.24072464678823757,-0.0361925316491065,-0.1103177180000847,-0.08328372188360558,-0.15656632880252472,0.031219830937317755,0.0019747862587451287,-0.021447393502272292,-0.0070561324569576615,-0.004733835778916476,-0.022777880417188506,-0.06032420848360692,0.26232751770426344,-0.03351459427094804,-0.016880500554930376,0.08964973594427289,0.24539636585214647,0.24102402613886698,0.23779063843182738,0.08600025939321121,-0.004538566137637798,0.024612280678705287,-0.03081943944268912,-0.2512484839330623,-0.05342758700150815,0.0027350005909676438,-0.14577477184651222,-0.019396612553969045,-0.12665115685398845,0.07305983866560324
