-0.2255985954698884,-0.08066142305952441,-0.09042127332476535,0.032780862561874596,-0.05526275074831052,-0.014406911866059071,-0.12621995949858844,-0.25607633074501024,-0.0850312277620627,0.08617140528916878,-0.019093330377647003,-0.05330485022197736,-0.18400630509988478,0.05128608384175624,-0.0864122182285108,-0.005706848951665752,-0.1775262129807315,-0.07382103524598484,-0.12131091003500667,-0.12088958214768025,-0.16736100612086596,-0.2040037379204757,-0.0016306244971295758,-0.042690712208415506,-0.17459054117332976,-0.042513216596870816,0.02027328509281346,-0.24915584246789985,-0.2992949170662432,-0.10399885852291081,0.08563481214121157,-0.08641067315442946,-0.141238160990636,-0.10186411370533191,-0.19613862742143132,-0.1354949890909886,0.16608328498553102,-0.05273771665000186,0.03561242158386028,0.1890428931034379,-0.03407712662706803,0.11960016875440392,-0.06625172597643077,-0.02890245082404163,-0.14395653780260373,-0.3659483943512451,-0.21126876199171257,-0.12198900483360338,-0.05067070078912711,-0.12867102674771036,-0.021512204293215414,-0.15035738355302802,-0.12328607427353007,-0.037802988598276674,-0.21010998270288106,-0.26459778090188774,-0.17785227389566716,-0.06096904363548112,-0.05299337113405557,-0.08934001562260142,-0.08412305222573525,-0.001297986732757713,-0.013420474515027347,0.012945896938275737,0.27734514578646463,0.1259793011382649,0.2101328124021794,0.10657684529362996,0.06839511105067689,0.3479938290684741,0.09945273184347826,0.07336508809897581,-0.2178950602792917,-0.31391082598398595,-0.5171088760161959,-0.42069058217108274,-0.5256319369598368,-0.26397702588973765,-0.039814476371656735,-0.09232743393734523,-0.07313635850698909,-0.24638133916139238,-0.15448715436075977,-0.11829263832541302,-0.028825157996796844,-0.05817314931309805,-0.20421814674930744,-0.18087999728698437,-0.08664124825127896,0.050678915539706,-0.15485508158783226,0.24667012254559692,0.2928922598086839,0.19021978726146332,0.13725577954488113,0.267305525253066,0.3462824830718638,0.33000324770380796,0.19350670932160552,0.04641979049689362,-0.22167993390145754,-0.32174699062658796,-0.4508224219080966,-0.4516460216801779,-0.3596072087279754,-0.12468093256037074,-0.12161141702417184,-0.13856814793478284,-0.3369420768010342,-0.16721863370731882,-0.2929587850339778,-0.03532647146696108,-0.2738002173042747,-0.046299952452009255,0.02240253710420432,-0.09809976427723092,-0.11259588023955014,0.03299631435517347,0.07222683044166735,0.2206071154483847,0.24576541914199088,0.3347153871377727,0.4413231287880661,0.465289703002312,0.6104114336856564,0.4879413117818852,0.26018680175591113,-0.04428653453935191,-0.2185018031927325,-0.33391389439123303,-0.28207230141771217,-0.28293471184140906,-0.26685029944979666,-0.14386660084025335,-0.12330958039938546,-0.10871780703544986,-0.06954359311150755,-0.06052098296813346,0.030936523782306657,0.005385469722468293,-0.1146505886459568,-0.16290489861538301,-0.24766035387924876,0.048532334544255464,0.032462813910339484,0.14362188200149817,0.12630282289347536,0.2010314512252871,0.30963596791557596,0.4384255825739623,0.5861695075898214,0.6025068877447229,0.6645771896106348,0.4732982001351513,0.29392461786945157,0.2085953220107259,0.17025389825807183,0.18903830652620213,0.18948892912523801,-0.006288373541360541,0.010440537489002142,0.07077943048339981,-0.025250244690435516,-0.017100206651590236,-0.12738611274544367,-0.06962275097465086,-0.045288651350788064,-0.006071852740759327,-0.006010958742256722,-0.09064070520890054,-0.1141836141418522,0.05406842331075525,0.06895995308015951,0.12985003430762557,0.15906393345411876,0.17295810386574695,0.23550317493791717,0.3542214516533127,0.4717915635313134,0.5004284142544771,0.47163756612807695,0.41318350848839763,0.2842629614345797,0.2996136737075019,0.3450073657892912,0.3300923274905005,0.2547789510998755,0.06420269443291107,0.07722067303585224,0.06980913347785145,0.019894323777357413,0.0017419731509708755,0.0012874499761016613,-0.01868189984202108,-0.03904068542089327,-0.1542386361269889,0.013439736185334828,-0.11741474600615508,0.065087983271996,0.13538609515357322,0.12885500742827022,0.10772418668916477,0.06387992850513202,0.03408345403480665,0.13959664126068144,0.31587167867881893,0.39651014896307063,0.4613442056051935,0.4270984643478386,0.3236698948715668,0.18150955283249845,0.15669587094928242,0.26303774349935183,0.2967075797970524,0.17950742574719475,0.09248377085330355,0.07082360019446114,-0.02849173796591854,-0.041097125410330705,-0.001046635599172029,0.003200413509301827,0.033188358372929036,0.06306061619125577,-0.2934587919086555,-0.2550723939875558,-0.07454964082237799,0.11737238214737158,0.19725779580605404,0.06841097521284183,0.1538999672022912,0.04852251199779896,0.010236602194502148,0.24490313104145736,0.3561841644747186,0.3914355721671291,0.3470332199005956,0.33020435263070846,0.24504145929280655,0.095889750751104,0.11727276369737433,0.11347054812235836,0.14598048204091316,0.09505220837245998,0.09958547645704721,0.02945008310314053,-0.09426254189471378,-0.09708096165950368,-0.03369255925666472,0.1876724390037099,-0.02387813002116571,0.1226956157824696,-0.12185840021394213,-0.04734537455376108,0.08867734676672268,0.11311171249471057,0.06073490483668467,0.13237413041828297,0.04478224259855138,-0.08047750010813672,0.09969881036073079,0.2474453644119176,0.2931043225040876,0.32016946245977573,0.2503744244623601,0.20868130085667094,0.13793659085875162,0.08912656861798417,0.11437407168553661,0.12993639482439376,0.042230437714890476,0.04693143156083274,0.03985473131153531,-0.03584570169560919,-0.14239910918686796,-0.10284095451996396,-1.3381887180103166e-05,0.079303366494221,-0.02854788392234793,-0.17396589814654848,-0.05361026033463972,-0.02524052828277906,0.17579771626418822,0.010055375486330287,-0.0004017318458739239,0.2840439388187599,0.18660049540167228,0.06401778389905712,0.13660937159838085,0.2930699846140776,0.3598789853389197,0.2014017438045923,0.1363447753981796,0.14830070596764533,0.17140521574650788,0.0602716906441209,0.07932032497606266,0.06584365383459118,-0.016104288824685842,0.01834659593302483,-0.014629045986497446,-0.07459595297855531,-0.21413819286430744,-0.12732999732970496,-0.09312237170475557,-0.024587762773962466,-0.14871217390834815,-0.1913876433969301,-0.12472917878816428,-0.11042991044081178,0.09066664256317082,0.08496497267464315,0.012226186076905397,0.13710337903944178,0.01777579743364287,0.09871664361244291,0.1672278997694278,0.2912013762306415,0.30978654014124685,0.2138794913724969,0.11545090446919544,0.07801368814352362,0.0597699935633362,0.04977895117159527,-0.005877326268356604,-0.02434477631125897,-0.11774474208239974,-0.031900362478519045,-0.09554825861144715,-0.23056563131365995,-0.29594333868890804,-0.23895521327643993,-0.12350956682271898,-0.05122751918608941,0.06921271607849369,-0.2010369553753973,0.02321970257423714,-0.003747082151706982,-0.23004951647934158,-0.05379112769942943,0.10875214463449769,0.10998262107610074,0.02807770519791034,0.038312320700251874,0.15041059352267408,0.19594358862482547,0.1959729351200801,0.17325457596231336,0.20887501385763216,0.18781877596724195,0.17481853224993749,0.05370523246097269,-0.06905605686335885,-0.07683028964013036,-0.05933032948580318,-0.07578327651772378,-0.1757424117164628,-0.25659727407250826,-0.2259388638249158,-0.2778882669945854,-0.16387847227229516,-0.1333809578602831,-0.11822332203550102,0.05710795339286593,-0.037829838965176915,-0.20626781193847082,-0.01426281113246861,0.060269576234635795,0.0923146069825871,0.17053128057219205,-0.04193275549781014,0.10116619405466999,0.2538434971068925,0.145289827598712,0.18982755498701034,0.13331655444516388,0.21376943374985746,0.2581408130184466,0.21738954775620442,0.06358317458598817,-0.11034248051800058,-0.05724791319980804,-0.02735137677959859,-0.024822620511974244,-0.0681250497831112,-0.16717555572588155,-0.33522401773723415,-0.2801202148957257,-0.05127189242146781,-0.23202085088376487,-0.29489893575360115,-0.09021854732239078,-0.012582617402609514,-0.19139918767809347,-0.14086767767314842,0.10357499553042346,0.03591330933749338,0.04559562966110509,-0.11096121404000328,0.0986610518692051,0.22883073191872386,0.13702391680062626,0.12051871686994571,0.15643023524852742,0.15324671789188046,0.12101965604388067,0.18576515852050776,0.06434064841910406,-0.08321365410551933,-0.13428510123492254,-0.12251334277878478,-0.04555880474284566,-0.09586116978836019,-0.2581338242514014,-0.3874573253080938,-0.27679141258686984,-0.21726394667479015,-0.20972366132702522,-0.12162101739841828,-0.12123303605994983,-0.06713937530698279,-0.28567479750950786,-0.05186111266320688,0.026525840590072222,-0.03866160892446452,0.012043642132745128,-0.08954524860027689,0.14886952412669383,0.2668412188767382,0.15474462544775677,0.009884212798246831,-0.012621206325603863,-0.008743985194076724,-0.030877903012775477,0.002979411605647631,0.01402168688363644,-0.03060558399606993,-0.2439125084789342,-0.3375419152009368,-0.20674553091913725,-0.21224601935965032,-0.360890945720973,-0.4312571927839752,-0.3751636101919987,-0.1760128030005563,-0.046217012306671246,0.08389934916671482,-0.14604615419398168,-0.14359105963041352,-0.036248016454078894,-0.049627446531805196,-0.050808773295076465,0.15478524896759943,0.10650098709114697,0.12186472166086311,0.18820795352818365,0.14376710799475895,0.05794910679816742,-0.0942984301013692,-0.0900474057747868,-0.07072523185151287,-0.04765414432054,0.04828970747754129,0.18020978147863995,-0.07811129485172111,-0.3555781455968224,-0.51627706748295,-0.4123336082357724,-0.26581558340787365,-0.35732442119657226,-0.29989141537216113,-0.31481149928067753,-0.0880003943273841,-0.168597565205267,-0.02206931584948385,0.07089392923852289,-0.08900898045720396,0.08745795361929128,-0.08103031229938269,-0.1726718282734611,-0.035469578308994505,0.2070394185612112,0.17712691178264534,0.17445822408679343,0.1063175682738088,0.07766875708846545,0.05317727704032168,0.059641380226419724,0.12325861381349029,0.20067106391226025,0.27260686782095356,0.10176974983753279,-0.09782371893746905,-0.36992251988689406,-0.3495595373354722,-0.1423309195496037,0.004115954866698578,0.05006039432036587,-0.13965403480688163,-0.1602948542818892,-0.135328299281001,-0.22168699460740957,0.06646713287096018,-0.2716720090895601,-0.1560553195187462,-0.09850419981321952,-0.07329763073123108,-0.03984848634838837,-0.0017932905937634602,0.15764767736338806,0.1433669755715186,0.1986811212677358,0.08458401668710466,0.07657157809479871,0.15621705125275634,0.2703033834322008,0.3831743230778086,0.2619241879635697,-0.009352925704065875,-0.4399514087945177,-0.44274542449704146,0.001337523165550219,0.5347614948450404,0.8095022023587739,0.8062236803114261,0.5752333321791935,0.24067301156158288,0.04188240371137465,0.03233029717392433,-0.18721181260571595,0.0061009920739902605,0.011745387196023194,-0.18854062538432143,-0.023622379483835342,0.04448391894273182,-0.08130431441879359,0.11606181726687617,0.1812778245252835,0.12982535684059943,0.17749893688592577,0.12684377527674062,0.1127567045810321,0.07559741940923363,0.1431671803108445,0.12898747038498232,-0.15448147626651965,-0.6490332453871579,-1.0724997305366268,-0.22539389131529922,0.9982367311267041,1.6700590803344282,1.7846101373493577,1.3934932334064452,0.9190998475459583,0.4461330536194841,0.14055471431091268,0.10828667729509359,0.08552459397891035,0.07460478228638663,-0.007609213286930558,-0.03293526591110276,-0.054304791765353695,-0.06164669857205005,-0.10410235632612182,0.09823836930015367,0.1161904252823326,0.08306553005804918,0.08784744455863512,0.074800434976107,0.009106810840428158,-0.060073508958737594,-0.08128672784029337,-0.14426634592021823,-0.6899987848366044,-1.2394720018659882,-1.1485517031935484,0.8213816557699567,2.13534951886997,2.1520064553360805,2.0831937524689916,1.481710977917675,0.8792949278178184,0.6187298031637191,0.34863820807388546,0.1752510548431895,0.1586386621846341,0.10331317284540227,-0.04960722416520091,-0.11030224553973848,-0.11366808802277481,-0.23170446674151218,-0.054038376560510235,0.0009381205083505911,0.05723203141422923,0.07883466423265957,-0.03957078742477334,-0.14098979429591144,-0.26902048315986815,-0.3270782790247877,-0.20835056041617467,-0.4089366052872821,-0.7842328272149087,-1.1496150449624212,-0.1757152401894485,1.8285251847899104,2.243994578948188,2.0820525164208235,1.6963669221783293,1.107661575295487,0.9224180238634481,0.5000193605208246,0.31372678582200864,0.3639726932464504,0.03927834561022601,0.10905672999166413,-0.07315381115021624,-0.4009965533635238,0.053827877851417474,-0.08317639726954643,-0.11341073527615979,0.07609680339336951,-0.028223507384806685,0.032181833328454756,-0.07580461749884725,-0.24831206249898113,-0.3715912476779041,-0.42093372355786857,-0.19091000492521473,-0.24611251105605533,-0.5393039364842919,-0.6445238825821764,0.4361653006390034,1.8019149159491372,2.0403900994163586,1.6535498052363937,1.1771150359974458,0.8788476114328782,0.6656807454676975,0.4928162484810461,0.2372760834820306,0.2102678158751505,0.21388148555018424,-0.0009045788844610265,-0.17710617429217032,-0.07907347688887155,0.018411738791276104,-0.15647948683763188,0.09041662861717,0.07864150565479981,-0.08918077625081522,-0.06686778712980544,-0.12015121439148561,-0.10952546620045847,-0.25679501322742326,-0.3137433041089,-0.14581105440849396,-0.0999290248520908,-0.2767676422195434,-0.40393043903217146,0.33864958366439013,1.5479376496462112,1.7180131166674841,1.2817391184633407,0.8581355896450005,0.6256431930808022,0.6663455209102371,0.4635651742041502,0.1052393024150829,0.11468729615898982,0.016917003666118435,0.04118418899106875,-0.18771392828232605,0.01013722734551663,-0.17870553031747932,-0.0616720753928403,-0.048833589185507,-0.1638340366180485,-0.07298889104284448,-0.1908151697279231,-0.22144653709694975,-0.1891269766324563,-0.2115507169117017,0.01530894571525609,0.08520225755388218,0.09188124691145293,-0.39376901645765555,-0.5106815557285856,0.14559783255722378,1.0073887772225496,1.0589620915896294,0.7981911367780214,0.6500919263558375,0.43166524686611246,0.13941180225644742,0.11485605437558358,0.3388626601130081,0.10817453249299235,0.044785328900361764,-0.34247751981336527,-0.06952147597140824,-0.055883375369774675,0.0300101285775595,-0.06188029810571763,-0.06372956434215783,-0.01937698061495019,-0.10412772242784361,-0.16834641377011234,-0.2178196017399047,-0.15480700108553516,-0.2801989603101177,-0.24993220931722102,-0.07531054002573546,-0.2897679514652542,-0.652101969310092,-0.6861784370756929,-0.05559106695703683,0.5053860718102802,0.6144240049502818,0.487091975083514,0.3823528815551158,0.12604528061989695,0.18641144516750915,0.11006211460613434,0.116736277633829,-0.07889407012342292,0.015191457729214318,-0.16764506643864271,-0.09415572539018745,-0.3125962295701965,-0.07332946329056036,0.030238093096844436,0.021875686364060693,-0.013310962477056919,-0.13883573101715546,-0.29002378599797285,-0.4508624393859427,-0.4248300159140423,-0.5038520921218929,-0.34897464676662704,-0.31665047229676707,-0.42559085733425994,-0.44523558921593454,-0.4858848722134509,-0.0979268483505992,0.2746045559695598,0.2557917574298135,0.3047423373198591,0.22242920015324671,0.21812907143427993,0.18550911585728905,0.09610096876558985,-0.11866432513730032,0.0057164496502968,-0.32627424650179954,-0.2447850586521506,0.004872886297655034,-0.10726595924667678,-0.25417670961683203,0.003212181923690788,-0.15448259864497396,-0.13304509713410587,-0.06011686148659719,-0.10141838820287706,-0.14834955702229743,-0.032682707186058126,-0.13334615860407728,-0.2683422360572969,-0.25464472357430096,-0.2430764520682448,-0.2403493090396652,-0.111116474416419,0.04742365051509719,0.1753524787777176,0.1945531542563837,0.2781660829992185,0.15486916209063772,0.20191194637331175,-0.011457833066228182,-0.08275441219626167,-0.20398885305978684,0.02680406489254582,-0.1095808004771982,-0.1835186186453764,-0.15592466320853948,-0.1639396143175905
-0.08797124035765998,-0.15530224230448106,-0.006081811119011377,-0.13092157163013624,0.04872158766474663,-0.09261704300655947,-0.2033771669166622,-0.19933804456253965,0.030506214528042204,-0.04511339584823669,-0.05881746209323117,-0.2629856314160338,-0.17140552296255587,-0.05521131956404393,-0.23450122218883201,-0.3060489345853013,-0.3136205168407137,-0.14468009039543192,-0.16350397164213928,-0.2589272619082797,-0.10947545834485821,0.001119917324907032,-0.2247351133217589,0.09243668158704059,-0.1968997501878227,-0.14885517645293742,-0.23388746645390449,-0.19422973761519213,-0.06136785714851121,0.05110810341185322,-0.2614482322865703,-0.20837687042018643,-0.20315032716544604,-0.19252179789561705,-0.3522685816496043,-0.13310260262664084,-0.14095355622133704,-0.15884561906588807,-0.23438669733435274,-0.18041874650292244,-0.18960680244415212,-0.38979203293681663,-0.13227993986974168,-0.3145275752733024,-0.40277870140534544,-0.33633812849106254,-0.16386208088328708,-0.24098412191465726,-0.15118449056942654,-0.051643261470321576,-0.1908846973593456,-0.1740537823371968,-0.18010717145701977,0.08798336333010469,-0.21873267799316426,-0.11713507081204533,-0.11131388602026338,-0.25127613577315067,-0.07850418424500409,-0.04836026224156113,0.12547251385166056,-0.14739351799779218,-0.22205679130560618,-0.39536156891631413,-0.4222811995071268,-0.36079668941524123,-0.5561807848848996,-0.5000351036088584,-0.791398300015606,-0.7406304243695078,-1.0442314383014784,-1.116403669370408,-1.1911873476184254,-1.2528983593621905,-1.0257699568344516,-0.9783362909408325,-0.8659074294790602,-0.5646015531375977,-0.36366415427532356,-0.20821280777755796,-0.004771151394308712,-0.022207073276402926,-0.14052743986077165,-0.08645759196505425,-0.18927558397396918,-0.255727377822979,-0.007183068478996573,-0.09886136785952125,0.09862974861701107,-0.28164658387492164,-0.15777784199729447,-0.06949398906327624,-0.2693333855938465,-0.280600241948043,-0.21873320482149966,-0.11980504203071145,-0.07851566057425713,0.03695539214956159,0.0017585896668050494,0.058379300285538456,-0.10006348560689136,-0.1279981611341106,-0.1797074291222077,-0.21786198822856293,-0.2274027390508649,-0.21260531614570607,-0.16843841400726317,-0.32943890717952246,-0.23259844970965576,-0.11345738986489606,-0.14109480641922637,-0.13437880915809072,0.050592986959773566,-0.15414201009824666,-0.1154826531036291,0.03619908242302488,-0.2065902079332943,0.09568083814426359,-0.07295798215701091,-0.0628155928395378,-0.07549455092950508,-0.060405617574082776,-0.011305619633323633,0.006480276705428102,0.06720291684465378,0.08775809073242788,0.20598104445305337,0.34126946434225675,0.4153079353125518,0.3365098766837913,0.1477574961705087,0.1009374995091972,0.0744324408938216,0.0050104210086159996,-0.02640379662176489,-0.21372536083254426,0.07033058505327565,-0.0007770207246819244,0.013218803213721958,-0.2951401989207706,-0.1952712784356111,-0.11048093670393892,-0.2080424442497949,-0.08724424664175259,0.03129318697122955,0.04537934976770683,0.0737501606093114,-0.03131576027120158,0.1150079296926703,0.1709042529356881,0.2084553007522869,0.21893301134110926,0.1527462237793939,0.20912406488606006,0.28878006957702973,0.4952985131159974,0.6259604916058534,0.7173366137477275,0.5792041508180349,0.3453115095699781,0.17242056823968346,0.10436735016816734,0.0020008436089388806,-0.07509346029462906,-0.037160092473090246,0.019777040155069484,-0.03131401785413093,-0.11979490668134041,-0.07303909535143847,-0.11418717987373087,-0.0969409286059105,-0.1220792355022438,-0.027935736507859726,0.13065524995747912,0.07835830557617983,0.11570284962745908,0.1464882310815049,0.22219619794473155,0.32274248302490016,0.2791914736445033,0.15374337567053428,0.1750068277596706,0.13573748200689492,0.3909396875654081,0.5348430144285473,0.5369339315533734,0.38434118353225755,0.17088077442612487,0.0483007514848674,-0.05598170842971204,-0.042854444794187284,-0.07640780957116051,-0.0252904595520866,0.1457029275560637,0.01874059857015314,-0.06848919254705606,-0.07735735635327032,-0.03076307529951123,-0.10604217715780243,0.006158051641239101,0.020959494094607255,0.16435582756512235,0.2632619652220626,0.1875056769922545,0.17738965816192337,0.18670131357359548,0.29254156430152856,0.3289554995159566,0.2079473459818581,0.02274482895865428,0.056991778531770586,0.250957016858186,0.4790818086841602,0.328644820764397,0.12556256082323353,0.048856110600726574,-0.003196470188497291,-0.045477863016266024,-0.06085221222164701,0.05177135831024218,0.1291644453843894,0.12696229096817233,0.03033921164334134,-0.16335556029359516,0.03630934865862325,-0.14204824867253693,-0.13775877361015257,-0.05694315940222048,-0.02962162426480843,0.11305534549342611,0.0886489463895894,0.06090638670546068,0.04957494590677866,0.15585646627111913,0.24207872531086685,0.2254612028170898,0.10816155792077961,-0.07664689517898579,0.06048620933041902,0.21521601448332905,0.24248886843022974,0.11129810960236097,-0.05200909105188991,-0.06730793064463429,-0.042356595217334966,0.05700918549570168,0.07112944225329366,0.11384591612082684,0.06553448182965853,0.1064886368503737,0.07296399718233197,-0.20665742031653028,-0.09502331548048776,-0.217349079548431,-0.3435306917644866,-0.15154779160513876,0.01059563486651214,0.017455551540297768,-0.006742630058154487,0.009721007608524053,-0.03276352778581522,0.038018666552261576,0.1618874435552078,0.2169344809935516,0.011988536801430371,-0.15881706749521496,-0.0515901559319894,0.14805486067843104,0.12675084607919673,0.006585974737793978,-0.05140660121853639,0.05251580007167344,0.07033468650875757,0.14138218072606779,0.08619583858346445,0.06484078165329694,0.13642141236566183,0.0701748581526792,0.006355932513218296,-0.23190477831204856,-0.003891762208635636,-0.1203789087305097,-0.13597641555082354,-0.21746501917130717,-0.05262512690650865,-0.019240774837488005,-0.0781231025182523,-0.018697745007379772,-0.06662909660973013,-0.04048848779753856,0.10348094431898376,0.1368239829424208,0.011597157106496817,-0.2060980343778758,0.004165033292938027,0.22325715116366696,0.06831641440382202,-0.0010222393120727963,0.03706424887790298,0.13617475020999728,0.16523738341784505,0.23843982468155384,0.12189843063465779,0.04261445197895225,0.04776476579590903,0.09448968090309137,0.07252253428835762,-0.07945910928118782,-0.2256662276656135,-0.1481091768342978,-0.09179671671300436,-0.2550665709161488,-0.10251744415625108,-0.07957999781397673,0.0789454726298268,0.03011106391936308,-0.08616860031508206,0.036526051950011386,0.19992695641401131,0.10281713612868415,0.0621902075626405,-0.03167000980508708,0.06423291855053234,0.13313486064544078,-0.025890741512742232,0.023085380727600986,-0.0036453857430429723,0.04848458251040982,0.15686166173709018,0.23519803149455237,0.1683186789594217,0.028459797906173926,0.06362780282663792,-0.21671401281799216,-0.06821372405573517,-0.13712223635026102,-0.04034730679201429,-0.1823938988061264,-0.2663342287537323,-0.1790389632700973,0.03994706033764072,-0.0427031108970406,0.022734788013072237,0.03430090630722459,-0.06861926291057996,0.13774952092218812,0.18470481182377263,0.19210388651761778,0.17044014501918103,0.09506543239043627,0.005642425753955228,-0.022224340017475978,-0.03758719877641078,0.0012661105921556854,0.012319322267433147,0.005005535704792503,0.09708634860039116,0.09934131321082844,0.010112068760491774,0.09293804625715142,0.014152131816848875,-0.006060752053486134,-0.07020450514309405,-0.27319619647380583,-0.16984982240706248,-0.23498234881101074,-0.11989162562155889,-0.29002030506016246,-0.08754967441561991,-0.04481608230016158,-0.10702655632187404,-0.05703416236487643,-0.08093202041052885,0.17367330870258657,0.2774600049184533,0.1765243817463629,0.12621655536041243,0.157568275544167,-0.04514826439397071,-0.06084785961856503,-0.13257655834076223,-0.14209444169380867,-0.11394754819991486,-0.0592851764701129,0.0008761351481799746,-0.06870611238937788,-0.19057836346377965,-0.015007109621970823,0.017317921603010652,-0.25503746283342643,-0.19389181139665532,0.0412021170316355,-0.16827649651261364,-0.054207772339351354,-0.015975696322661593,-0.30556703474178604,-0.11770592640365207,-0.06849449635748425,-0.12499631938475947,-0.18832192460719624,-0.07289759257490351,0.08086636489262419,0.15853663354828018,0.09465859273060073,0.05777216565451891,0.09085827943684567,-0.08823624578759338,-0.14356125298072414,-0.16764604937797276,-0.16743683409640953,-0.17661853839805366,-0.09340378391669842,-0.1345214123703472,-0.2618904073041968,-0.19784139989767924,0.058914952423642274,-0.13437875932694085,-0.14639728188412576,-0.061413781931520306,-0.17396596367394984,-0.16725726481211703,-0.08867581591977344,-0.11021998880065766,-0.10359578692720198,-0.1993324659022774,0.0076125362878567025,-0.11310927672349307,-0.19996985583682098,-0.09743274006001451,0.014123573349699922,0.04906133385766783,-0.011789863690195768,0.004018123148396176,-0.07531022741759648,-0.24845687856749482,-0.27063241554740314,-0.21120479949368257,-0.06799683064779963,0.10062075026837736,-0.05563631019943178,-0.19201905452435347,-0.2750862727766649,-0.10775579963484334,0.020108529999016227,-0.010276072062431288,-0.3274887970218714,-0.12852053570465113,-0.17000520994996346,0.02006709962459212,-0.17507652850577796,-0.16670425058160043,-0.0230958100618171,-0.054309916039424505,0.05703519220443347,0.03758805486656255,-0.1091578718896086,-0.08533658265080676,-0.008427028504113088,0.0882843455760821,0.04506186587309741,-0.0713940029297582,-0.14893725778215852,-0.23890155418085002,-0.14709848194011235,-0.038250948211985776,0.24477180752554945,0.20277548270436366,-0.008931242011683873,-0.13775594126359156,-0.07919611300538335,0.11146799355184098,0.10362535974600091,-0.031929696801243815,-0.24632803783853896,-0.16997273886279882,0.056236973418261275,-0.08706418685577885,-0.020630108419249858,-0.2317197817199697,-0.23120599151103913,-0.075973067054633,-0.05229346968144636,0.08574591055601774,-0.028988282095828044,0.033768453433445686,0.02697064909297348,0.17052731318224412,0.05876567804147146,-0.06900891470400727,-0.16058097717523143,-0.06800062095964468,-0.03205995443240831,-0.016112511976975958,0.1161536990182712,-0.05660083954718166,-0.087359790838481,-0.06043131301742883,0.06995680956066667,0.18808508896335022,0.14991582854166957,0.018727662186232556,-0.17175845826331398,-0.2118499403478064,-0.19832871257806287,-0.025794417568811026,0.11535911962755131,-0.1269080227254268,-0.14878515805399337,-0.20027631065740994,-0.11784745966460763,-0.08951524926574352,0.008165757459366823,0.007571921076636918,0.03764292689768165,-0.032341560436366025,-0.23220081264785522,-0.3277648055903401,-0.061067241280264174,0.07462491640222216,-0.05803053348204248,-0.3812234417308344,-0.35890896638479614,-0.314330445666514,-0.2055640163152941,-0.04371174726132909,0.14735394300523155,0.23220015677565936,0.2009778391948763,-0.06491134851922495,-0.10157749895709295,-0.14342980519790924,-0.19810701868078903,0.08819723824352035,-0.07290502663122492,-0.0965789703099237,-0.1260864667940536,-0.35069779017605496,-0.3314711641479913,-0.22619556301338073,-0.18472598455281852,-0.17855680843246477,-0.3391211427269818,-0.5077016524711446,-0.7310822604178856,-0.5287145138997854,0.13695718774078117,0.16847815071467298,-0.36554571454667173,-0.6973532381423382,-0.639505737319773,-0.43689787438068817,-0.12782394642817124,0.046137868923591153,0.225507527197104,0.1431366915421537,0.022542381671074554,0.049612297809375316,-0.22779353589762555,-0.14116183539953997,-0.09130757552948919,-0.10933591148029816,-0.1710299160073581,-0.18140364496644812,-0.17800818465794874,-0.3108655206669455,-0.2666023594512312,-0.31266769285605966,-0.4695571923003378,-0.4958075535558177,-0.5385134535270661,-0.7184693063732356,-0.6773482977540578,0.08886281297577392,0.9835361989775847,0.7487067057127932,-0.13552663494176798,-0.509878944663115,-0.32267358452431744,-0.06985252668518216,0.07596101791661487,0.15123467220606324,0.26177457615407584,0.12466382572400293,0.04666359252782669,0.011202886352166336,-0.07712956638886194,-0.20042318617486615,-0.16554439279652408,-0.06921630491043829,-0.18394452536213812,-0.12271821947851155,-0.09458573888648852,-0.2933041673606927,-0.11875443462040844,-0.09815185503986615,-0.21471143643004983,-0.4366976480193993,-0.38984132399653776,-0.13963482695019086,0.5936950637800412,1.6759731243096765,2.2178218998180506,1.6495932011435364,0.5881401652041904,0.009862000325286412,0.12876256912503836,0.2518358768182127,0.2609708743597292,0.25824461527411596,0.27536032071178784,0.05718048951613858,-0.027754371353753027,-0.27084991961306715,-0.2829067650643561,0.02787381220924186,0.05608460659258344,-0.30630701750259653,-0.08151973489215579,0.014684441342115363,-0.07522540131259131,-0.05287373394990623,0.02561184876124142,0.1516641017431759,0.12185338246330525,0.041678117146966016,0.12040310401829096,0.699674738968374,1.75766591853231,2.418420914342223,2.761490042580196,2.2812817169551662,1.0317340710318348,0.09973463134076972,0.11324182737432148,0.19262494025918928,0.22237531775847832,0.13772266151667045,0.05210093416220038,0.04325432838155805,-0.33430266535960723,-0.13038222786528764,-0.12554739673422996,-0.06328233369551355,-0.21268638901226064,-0.10934758257011502,-0.36829232325529404,-0.05597797890683092,-0.0629097090664661,0.05131991056142126,0.0403061608594284,0.10747749809536844,0.08955836000323007,-0.06146591258932939,-0.029657337081031337,0.6901021005073664,1.5179784533040317,2.0427570942911046,2.4942260568556676,1.868152868330543,0.20905083177038578,-0.5816569511416865,-0.5257478841403658,-0.3730505630631506,-0.2975364545951508,-0.16070137148234107,-0.21288233286504846,-0.2107923141363161,-0.15438531454470739,-0.23364071135294814,-0.027039254288958217,-0.10567383746853283,-0.14863888372011946,-0.05352587952118785,-0.28389874651388614,0.048199244944592434,-0.08039861230133888,-0.043614953065160736,-0.11365319811622449,-0.3987292718445183,-0.5726508702029627,-0.6164821454954297,-0.30851586724318086,0.4720518402558503,1.0834076181524968,1.7086615209965812,2.05126748578185,1.0962303680835752,-0.43166567038587567,-0.8436038449908607,-0.6792427871722048,-0.5552524935293461,-0.456180484949689,-0.42704485888087007,-0.35298853931909707,-0.34518750489308214,-0.045392427989221565,-0.26025772744303055,-0.13978409704823888,-0.12777636346047724,-0.26513151228456816,-0.12445664211776057,-0.09134541212339566,-0.11181210048985805,-0.16745585794422382,-0.3247345776143196,-0.3029295656089048,-0.4853876373264491,-0.6786099353831448,-0.4464581141913316,0.10766686597773406,0.504784072376046,0.6597505786724243,1.0274967185093493,0.9696861512613645,0.11125211308516446,-0.7402487245717816,-0.8736761565364288,-0.7013757956739828,-0.6738452096898556,-0.6521312759933741,-0.33500877592209244,-0.26345123445538754,-0.18055836117732357,-0.16412792895574693,-0.21562798499492034,-0.09041935157506001,-0.03292364849680424,-0.08577091222733729,-0.16983207117291121,-0.0827542505599491,-0.10921969469826855,-0.08955515680492711,-0.06761010698352292,-0.16738941860589732,-0.32107181795688733,-0.3203753336715008,-0.21566546959706162,0.09192648796574866,0.2152621681274896,0.43768935865872416,0.5377294910816975,0.39168174565703046,-0.35309671699008166,-0.8902886575667954,-0.7703943124106246,-0.6554320784387491,-0.44089485435828046,-0.40912229202697714,-0.41225551011157124,-0.28484495427837586,-0.19837768857795615,-0.1045658299480655,-0.23576257935116895,-0.1674390900776734,0.08258216420667133,0.06919441106980802,-0.12993530007861118,-0.21430983166193188,-0.1252942931378399,-0.21634102614689096,-0.1644303595485377,-0.18854629975648032,-0.15940464143589853,-0.09234916850104985,-0.14069595705311008,0.22366695985218493,0.07365629157416792,0.28802605857020336,0.26690317074094055,0.01784440221893217,-0.2878437757825026,-0.3743530066872904,-0.2680470238069507,-0.3594675814184538,-0.24346541066447563,-0.19903223319828828,-0.16469567793462098,-0.12768019127931418,0.08351069883369325,-0.11659947400742325,-0.1462904150724319,-0.06192132842318446,-0.13431340511712483,-0.207731646901106
-0.09579463602408894,-0.3014194967433066,-0.32750251639323996,-0.04929614216426867,-0.015034960211631539,-0.21162944272020054,-0.15391454152567705,-0.06602129678389904,-0.2219979384927739,0.12204977356930738,-0.1633480063225507,-0.007566462091091896,-0.20689264156615786,0.010383644464434122,0.046594985657024565,-0.07870340566646335,-0.17292542748026907,-0.07345696908447386,0.04975431762751376,-0.20404225110346874,0.023478900531955647,-0.34185953020849313,-0.10919150441951632,0.004726812174258893,-0.0901445965653772,-0.15991476412500874,-0.17412643472904712,-0.15753500118637992,0.007909496144920038,0.060452870457800276,-0.07340350754780146,0.06590732730256743,-0.0808247468756336,0.008559427476242883,-0.06463258570715408,0.002513130350394559,-0.030119828506363782,-0.13799408719148865,-0.09833520578159279,0.03531509116692452,-0.06084569773494367,-0.11948486245089718,-0.3311188055236421,-0.19054047799403698,-0.20327240640332317,-0.14123691873048252,0.056806267842265896,-0.10035995622773582,-0.0002167464715072032,-0.016069422038492986,-0.03143495058910194,-0.046217794121636874,-0.04089277033124817,-0.09949281239621512,-0.08181375143647612,-0.11111363093697238,0.003647508930311096,-0.12153897501948845,-0.0686167296547854,-0.08900495952409944,-0.11177242412305229,-0.04502605979118579,0.10447697199220321,0.08483330291427872,0.12509613109032047,-0.05346983880539116,0.01750940410463346,-0.35381101842740426,-0.26989132230615626,-0.2266126959390607,-0.4966938856187456,-0.2804273975699924,-0.2631127313946251,-0.2778131323484498,-0.29551307264068594,-0.14038850453978305,0.03910039701278199,-0.09507195628560446,-0.009685359030200343,-0.1985475580047601,0.09005383733991673,-0.1562855723397026,-0.012561016862521868,-0.07005994349969438,-0.1203622721899756,-0.050808638454520764,-0.05105819527409801,-0.19617488047338605,-0.007536464487281925,0.05755656275026456,0.01167617439314618,0.045839009855755265,0.17456069530284415,0.12759549144363164,-0.18252828092890566,-0.23827401086295305,-0.5190779633217436,-0.4713204345209061,-0.479928744366477,-0.6836214405895226,-0.6337128549068227,-0.5449905650018885,-0.30807676180442717,-0.18898088668650298,0.026621558275232375,-0.16402139652308725,-0.1654959927412529,0.02932977213049619,0.06837082059199436,-0.013769379731213425,-0.21661235244357693,-0.10656465863301941,-0.04789480818352616,-0.19945532291845341,-0.14956600626722452,-0.08891985424506361,-0.024792012329006873,0.1412481170249107,0.2140009793575818,0.3425326253708902,0.44081344910345005,0.23482701445650517,-0.0016588584117794155,-0.2697518495003172,-0.3136655536877695,-0.3254457747723538,-0.2355468748327728,-0.21175055588331168,-0.1880035460956444,-0.0893845565236873,-0.020099283772533304,0.013162260944045401,0.021083522977682453,-0.016062893030692832,0.0070987355858753,-0.11119862712145147,-0.0801234131344018,0.015847833746831252,-0.059043836623486785,-0.07038879200070648,-0.12529335610844974,-0.04125132014743085,-0.031287909194257175,0.03526177480972765,0.1344153250764655,0.3603751894957674,0.5974038171288707,0.5212781233242713,0.44442736953046946,0.27372531535489086,-0.02793362307101438,-0.21176920437080488,-0.14452693948435172,-0.18177793966961747,-0.26148683362398994,-0.1815934226882555,-0.09696930355071033,-0.0025002921230548544,-0.03233503127538545,-0.0009370129855366499,-0.00025913150597444714,0.04014811829369108,-0.12289713112636916,-0.21397157282422274,-0.17478638293862764,-0.03546648488364396,-0.09620568236660408,-0.120398149325251,0.024801773352514957,0.014671498614370778,-0.14704055886239537,0.21826213379691237,0.29712418712813127,0.5785602914185175,0.6309799481650689,0.4029345180551657,0.16119090645129522,-0.09675205352712156,-0.15752591776344177,-0.09345072325958326,-0.10221524529630607,-0.048421177137433165,-0.0900394640352405,-0.11029784486607215,-0.0970573365685363,-0.08693435842703512,-0.12214280535994991,-0.11452921506014799,-0.01027512994693645,-0.041004814510376034,-0.15572673832997475,-0.2975941361240657,-0.23581426286884868,-0.23343709857265899,-0.018849975528408405,-0.08860764543633581,-0.08190991127278587,-0.3106724931222445,0.17244272067493274,0.3277851284498365,0.3529575609007151,0.5105624880767815,0.3188543786340245,0.0511967269727866,-0.17608969826438708,-0.13204506675063277,-0.04966880141773942,-0.0030296038841103596,0.004733879669251408,0.005092887172203471,0.10513732121452188,0.09228669837075511,0.08121942672778498,-0.05221522298528772,-0.14759039504696267,-0.08947264022635117,-0.021725348234250583,-0.09194712498213575,-0.3089378756430776,-0.35742453470401886,-0.34286803930146864,-0.2921206762624282,-0.20424393589571752,-0.05545512898429013,-0.09194018925761356,-0.030980940201163168,0.04986695761005974,0.26205020534734674,0.3177819531835033,0.2607656315082193,0.09657488222998306,-0.1256327229511594,-0.21356376480217829,-0.09124202074893585,-0.020371109328322555,0.007130334396479343,-0.0372145221730895,0.044229694871814586,0.23047122899639358,0.33653472325687106,0.3270724681422091,0.14700255972227125,-0.031733207257015034,0.06382872955485408,0.04708251511603171,0.0526299871183545,-0.35537314296839434,-0.3461855163368999,-0.2687567089082781,-0.21183089343031203,0.11340637953934547,-0.15089426934705405,0.15949952733899975,0.08747804972374743,0.1542542006258061,0.1752085563689756,0.1887877092438898,0.07896081812139653,-0.06816059597950844,-0.16942982331905407,-0.15561737208827273,-0.06508706934780274,-0.04003981617653132,-0.06430021191139186,-0.03560984260275003,0.06899901171827799,0.3097105494278947,0.4916640707305994,0.46164947965521036,0.37230665042252237,0.19535931040722626,0.24006602303719762,0.21950085685352927,0.021498023861419063,-0.18452327744604868,-0.17736798518764346,-0.11312208301460053,-0.06740136958930554,-0.02632194466207623,-0.015638791671755387,-0.061648732895211285,-0.06948411192374661,0.22686706666680861,0.2621035655422043,0.07969144646077703,0.02649321194010891,-0.10527002915593998,-0.15431407239807948,-0.09265490713131506,-0.029130899839445716,-0.07239173926797807,-0.08369960994222232,-0.1292470832316442,0.19634801397126006,0.37293321292656545,0.3336650148969149,0.26027950862060734,0.2759428770784066,0.32808295560537415,0.2567215166269992,0.19943551604375623,0.033605384660299754,-0.02657375373890137,-0.0322093397398903,-0.18982509556597932,-0.15466464489152598,-0.0843051519139065,-0.08664233875369681,-0.1219345380257846,0.09439384643019708,0.3286464949740785,0.31200579512309784,0.04227883039346235,-0.005826639768087654,-0.008794135997189619,-0.037912034635306235,-0.052805542283889964,-0.08520720960591141,-0.11793170407396847,-0.22512183342127728,-0.0984386301631859,0.18356429695758933,0.19476445089867556,0.013760159039132943,-0.03765634591683752,0.13904014623842806,0.1992161551052389,0.21702812865256388,0.1359510586371444,0.038565168536478456,0.10146844334334001,0.0813357817119161,-0.1689060029577801,-0.2627772040799613,-0.13148911608287653,0.10808807280169389,0.12235887122872939,-0.057295791008215455,0.1208669339965642,0.3015947937628263,0.08514422116528343,0.07263485618414688,0.1574801874582727,0.10106541378443211,0.014668891493528105,0.027836708989326105,-0.08687007902659308,-0.0654848037239474,0.01543967093006865,0.024489484061131012,-0.14436003910729053,-0.1785523265036926,-0.19764577582303136,-0.030163543083035448,0.04281586695332167,0.043947885280309275,0.05734976882743157,0.2035354957759609,0.19792294760487522,0.09693933535705318,-0.08893360147733588,-0.269084828584407,-0.0770473924382592,-0.2108622053178411,-0.18549445384108654,-0.0696737079388351,0.04248489134029254,0.3342520837268116,0.16953292940168407,0.15356954595304437,0.254848520678484,0.253529223656938,0.1973402899863442,0.14067027964348722,0.10346916750633146,0.13456646216012455,0.029373654687474306,0.09308381864097451,-0.08716475809290507,-0.14761206518966882,-0.24836811504780526,-0.14160717522875665,-0.08153973529063469,-0.01418722053247869,0.0797611623961619,0.3306024201804342,0.3273210354401774,0.23601412370641495,0.051015592882231994,-0.32961514730078456,0.007828578870415756,-0.05733745512110984,-0.037591038242079586,0.04024333551992666,0.029634373645258255,0.31500070115514855,0.04993948913808394,0.1510382956648369,0.3165720919952051,0.39913638036949145,0.4179762424317877,0.31359604984590256,0.23051043094910462,0.08069164916639708,0.06046636902469035,0.14653086311328017,0.203130626600525,0.1258341736107935,-0.09288229711053679,-0.06435770705075046,-0.04865850338000856,-0.01660234523463712,0.12198021196855467,0.3606621165967002,0.37950805004209603,0.2333694125199617,0.009776656056824049,-0.11590582615986945,0.02776137695566393,-0.1818814352009118,-0.19525591227936345,-0.13232320391580374,0.01614986036392975,0.1261445130664623,0.08983174638304643,0.06413121070670944,0.29586343748683014,0.42958328372317833,0.46320896221556423,0.4451017583213247,0.27438788875352044,0.15432067855718085,0.1286712613399412,0.321584678193217,0.4696078456427633,0.2996991151652771,0.0517957717951413,0.06467296304785566,0.12713072345955614,0.09699499965282951,0.29627786068915557,0.4740200494681653,0.3824529844459982,0.1609869836253315,-0.14055784785912426,-0.2015311364230929,-0.10785120221253279,0.03204321968974767,-0.016869307666731954,-0.04110080180283347,-0.02536829500778592,0.026752860580699565,0.026088669480724896,0.020091834996921677,0.2515068271327907,0.36367054460842835,0.41246534133312734,0.3723098848407597,0.24214721300204792,0.11804844110003357,0.1298929549473726,0.43349553849898176,0.35380989009529473,-0.012953434637122301,0.04103043382110569,0.36242023080740077,0.46562775406073686,0.32892811616235146,0.4050795682952134,0.4640319373439303,0.25860304502282494,0.049767308931663055,-0.15535975441091388,-0.09357653078476413,-0.2639659904084125,-0.1294784091182653,0.07724301604107241,-0.15456132586047774,-0.03439432029686503,0.0598291094566466,0.00017038122970714168,-0.09160134604304115,0.10120950798930237,0.29388371770955846,0.22615021477414682,0.09739807940968422,-0.22053497668885486,-0.3762115472955821,-0.3723069040124221,-0.22129803113056723,-0.44956589205998815,-0.4811187103177644,0.07464251728935907,0.7194621302081592,0.6875513703427506,0.5263490238087466,0.3940544094944025,0.2812746191352943,0.13235596024756482,-0.14043001968482519,-0.24860075425802836,-0.299390845562652,-0.12219865701062341,-0.08590323089059862,-0.1889063269333712,-0.009263859160404377,-0.06438613031746673,0.05438835113073937,-0.02427631350929094,-0.07586671026538132,0.061357270680904415,0.07856035449890521,-0.176880606245407,-0.6539497587026578,-1.0619212396476996,-1.297170593501251,-1.2729220967759485,-1.1083763934474173,-0.9796474908049363,-0.5906432911355112,0.5863319885934483,1.0540081005406754,0.7919075392440657,0.3923357914505884,0.2070505229523273,0.0896365261613441,-0.05276033266193582,-0.33220272169289056,-0.31979897130031915,-0.29707100361496996,-0.2293808277347401,-0.3356520334840982,0.04904456489116218,-0.14386857656097296,0.049688542399720086,-0.10403235495281024,0.005436227830921972,-0.04520877401367402,-0.025462496829498187,-0.14152828613387505,-0.6017996724734134,-1.151216440492045,-1.57074018442214,-1.7610782946147,-1.5649206951281516,-1.1909317256970842,-0.893141986626611,-0.04156241585521698,0.948136659124893,1.053771674434286,0.5778744555048272,0.25424601963179655,0.08494092346653838,-0.053631127360577166,-0.24721113689503843,-0.42741583342066336,-0.2640524354874474,-0.39347579177444814,-0.15511018645329544,-0.12521718218797054,-0.19478097029445957,0.03741276946236428,-0.07855220080316878,0.11565799856601418,0.12684268628933298,0.20638291516559773,0.17554484231789572,0.0037336268219827604,-0.5189285096910013,-1.2035978011292805,-1.4328383556226145,-1.3675355633618465,-1.269718044353762,-0.8730673792301389,-0.364581295401972,0.42703946465507037,1.0256803480053918,0.9261230001912298,0.40917235605898883,0.1975724038302105,0.028872156157726443,-0.09010997216236177,-0.28679929685683125,-0.4318791438251114,-0.32522285721760824,-0.1279305986078252,-0.1183761609429519,-0.049415052977626626,-0.09685992328821236,-0.01113596715964812,0.044339261948673214,0.1089497057741877,0.18802079651132755,0.30436801716701467,0.560929956797437,0.5407376600765142,0.2433426586629639,-0.49457707358370456,-0.9585674886453087,-0.921389386945102,-0.7860027757460448,-0.4824662312281993,0.14227516105157595,0.6122027926253691,0.7064060828462615,0.48473880257230345,0.22779754777613076,-0.008580465304994492,-0.11945292028468396,-0.19291401059441152,-0.3372616404600663,-0.3380900787455408,-0.3911899404305856,-0.2366443889885333,-0.011730508343001543,-0.01377189225499557,-0.04300269789846212,-0.1027592079488501,0.07282825663367412,0.030538590419598586,0.1611150860858252,0.33307346128142395,0.6147428303086302,0.9329604542646548,1.0112458879381427,0.7443432113468513,0.2287469723084543,-0.13742006447839392,-0.3351030062842516,-0.14525073245250394,0.25654440937848083,0.3481871025378369,0.22903203946019235,0.0832097739892653,-0.0705321337989689,-0.09798970337395975,-0.1431757282759752,-0.15710370339536453,-0.27574545052556265,-0.18836914819321837,-0.14630353474149843,0.014891260882872952,0.025800396753404082,0.020064657644341316,-0.0827725168341276,0.03684835378401082,-0.2723522146883922,0.1743111897926093,0.0798819849906355,0.24558412834573395,0.43547455649769495,0.6073222388107165,0.81594649624072,1.0405779633177363,0.9714296649035519,0.5890972382201582,0.16622659211407348,0.12967888275058062,0.1891917719378748,0.04200229791079346,-0.10124252592382327,-0.11717025818668848,-0.07482397845030955,-0.026370368879274866,-0.029656774025613158,-0.1464680098907146,0.043761272665208927,-0.21561784129597183,-0.12853575214180657,-0.01938579388707676,-0.15557709019469998,-0.05577113648968741,-0.098303149357102,-0.1641111768472598,-0.14253574157189136,0.04659448543772721,0.0171738681760761,0.02777388452979391,0.2925587388594521,0.3239437577382098,0.3840907480481749,0.39316794544271033,0.4811832834885296,0.4386764625327437,0.2450763181973428,0.31116519076816435,0.340846084133206,0.04478975447505116,-0.17327530656128826,-0.18607820437412112,-0.067616875704603,0.11425431395640122,0.11091631980948707,0.07123479555556292,-0.03680100799915981,0.05398925915098544,0.07265319063574678,-0.2739760470894368,0.03036798495376694,-0.11151255038013853,-0.05830850410927269,-0.019805692460262415,-0.21752850653152997,-0.11068717214225843,0.09330568690622426,-0.0700215733489614,-0.01555929049137042,0.06962190114549435,0.18198844067811584,0.09991817081990484,0.10750229865223616,0.07000231587716005,0.04180962074960553,0.2645295957622372,0.15744853803859574,-0.1362421832247189,-0.334613845949823,-0.10156434544961539,0.046981177317749825,0.24696548862077936,0.2612409322254284,0.1563141961170961,0.04708355767088803,0.042522670738081775,-0.1328519667764907,-0.18735691726325457,-0.04295364895303312,-0.16018702286082498,-0.020106068670534563,-0.15838551385914687,-0.11313911598890465,-0.06926250261556346,-0.08053336642316217,-0.02617289872266275,-0.2642277052280764,-0.2005202243743804,-0.21137671849785092,-0.11421799588496824,0.04204243328698872,0.0663993284163493,0.2085186735964196,0.32995230051331764,0.34327562878948426,0.13229060773244486,0.06249372166150182,0.1247913111989241,0.15589188141705201,0.31975115557847267,0.20958012141245022,0.1518377524433757,-0.17030942837592397,-0.03195098078114802,-0.0838712024299062,0.12277904474348611,0.07374907659255386,-0.039246959328911216,-0.019370613625189305,-0.15106560188740537,-0.05402277626542196,-0.10453058703383582,-0.1306635983064242,-0.08645171272388212,0.022707184969097287,0.07260708502881211,-0.05339535077282204,-0.10152705618580321,-0.13430720768947554,0.032373701097743436,0.07065114512718969,0.2656734467966717,0.1533233625944431,0.20409999614363963,0.17949982705473697,-0.019246424656264048,0.113353103081604,-0.024879167012686252,-0.13561527342529406,0.01046937835322827,-0.017223222206114296,-0.2308901973796372,-0.15859839174331744,-0.12637015344301342,-0.27902754021110243,-0.15874812452575016
-0.024587078195850355,-0.07538870066269489,-0.17685114016810596,-0.08999893208102458,-0.17276645595077852,-0.20769458666031765,-0.2618286594721879,-0.03851345603459464,-0.16519348253621366,-0.11219252879519186,-0.1354819985465361,-0.14229226863942576,0.005171491011116399,-0.19031392613794149,-0.1762034157872902,-0.015548569254927506,-0.15879633867726473,-0.1017917422452319,-0.0900129217860302,-0.1267980865410117,-0.29913848885622024,-0.15318572442295192,-0.1080601289354853,0.043175952276486525,-0.05416998545903423,-0.12267415334448845,-0.08544514718331726,-0.009944358994985684,-0.12767927680423236,0.015419304259252075,-0.04521532442210848,-0.10390111377812214,-0.2157123709725129,-0.0368175624884933,0.09178793921473634,-0.022015618800829254,-0.17200809686600038,-0.005534811363965496,0.03046896203201905,0.11073484252068233,0.14978346136311738,-0.052663429599361086,0.06575893648874709,-0.0726394001189884,-0.10910266726644886,-0.07558739375658446,0.12173599665865223,-0.056428722751173936,0.0323130714483822,0.04261632698453821,-0.04696758974758148,-0.15016112654404934,-0.05749893860421321,-0.15485682552936283,-0.1238460536029601,-0.3181096338339135,0.0649315024328936,-0.20387774051621932,-0.0023457750524102047,-0.3371577011552277,-0.14769218347857022,0.10837800259623814,0.1326106051988818,-0.059271567024799715,0.0033737808443629557,0.13023590852984837,0.20534520535511228,0.16504248566692253,0.05469473823934504,-0.054072090716398985,-0.1299500727291632,-0.10774372656466219,0.02112971574661888,0.11070231982324825,0.27492712939160574,0.12815860678865665,0.42171799371026997,0.3760200433577171,0.04744401818499838,-0.11239681688115162,-0.1338604223673652,-0.16428303530353455,0.09709748755131568,-0.03221842742448625,-0.11789853535191912,-0.08308189933943923,0.03580901932258503,-0.2507061980074307,-0.09007214576879641,-0.23087429488709407,0.06052120159989104,-0.016706628483597337,0.0439284510168337,0.30012082226620956,0.47947574539154497,0.37760153988242673,0.255435139920141,0.07913010067428286,-0.037133869462959115,-0.11646502754352947,0.027937741511465605,0.0633773971259881,0.15849685779351402,0.2136777085102562,0.30701066831618806,0.2371982277675748,0.13539244075129894,0.12836619046849432,0.07347974406554704,-0.15162988860186477,0.026943284607562963,-0.1606753883206917,-0.08471205652037427,-0.09428010183114917,-0.15936203852664024,-0.0792371102421706,-0.0958760777109725,-0.17444611030668117,0.08488666274980997,-0.08255221865717516,0.1604150454063535,0.3831268898954846,0.41314243423203534,0.3355817725670136,0.10329328271221415,-0.05511866264113028,-0.04262259464995275,-0.005483156649761657,-0.012667402917201859,-0.06776897309836521,0.03167816553545437,0.018574109252669776,0.08762711675365883,0.23182569243064435,0.14258935817165314,0.2720926799210186,0.17233323522621255,-0.14969287500613238,-0.17555078491675633,-0.0876272462254426,-0.05633705910442514,-0.2239687657604361,-0.009682329354432874,-0.008467926959954485,-0.0012765594749006152,-0.41491435933970156,-0.27292896488387125,-0.007071750102140203,0.18174018238324027,0.3448322822710731,0.20416243848816884,-0.06134476399226251,-0.22660947723064775,-0.30618305034884397,-0.19193106372117702,-0.1102676533995343,-0.18283167146359497,-0.14007867549793565,-0.04788189222455583,-0.0667327056831439,-0.13249495374676845,-0.13774221832353847,-0.1655119608582514,-0.13201674347564382,0.012921325366211862,0.07587171185753548,-0.02489080436408221,-0.11273258360613275,0.0026520880654032765,0.09928393969802485,-0.21732062624736473,-0.1823325808427782,-0.23811921707907027,-0.35115600621367515,-0.382713893472763,-0.13611506710851468,0.11695434705799677,0.13853923941314777,0.020704442113717216,-0.19723529823342112,-0.34955302246821357,-0.18255247814236042,-0.08171186870700338,-0.09888657963013292,-0.20063128805456446,-0.2111664050304332,-0.08348939203069894,-0.05211219077871125,-0.2108922349054828,-0.2563089052365711,-0.2988907067646554,-0.17927416511201752,0.08982820286568652,0.2463801024278638,0.0578736727049043,-0.07261701012476186,-0.1647143561890089,-0.013862152815848683,-0.06208758189287155,-0.028339787785578458,-0.33596904044689574,-0.3179542808177459,-0.2211193296178172,-0.07822088218310075,0.22596767180105107,0.239139198059312,0.14276633500508756,-0.058523068860608284,-0.1000970978591638,0.14902364153157358,0.2148383266042728,0.08173388757358363,-0.11280243671998544,-0.21069728609158953,-0.10008835195188079,-0.04897225029666071,-0.06014151230082813,-0.29837457413406027,-0.293621633521048,-0.10383579460913978,0.1991313240391817,0.4294012737138432,0.1906241701550713,-0.14611313703136275,-0.029458232163485188,-0.23564912800741053,-0.040578054161486764,-0.1991905724276129,-0.22493678900220354,-0.31687232527508147,-0.15724167771952913,0.04891709747437769,0.4194206964732876,0.4619824273943929,0.20168892600180383,0.04689367887628266,0.1386972561326801,0.27962939328264763,0.30590551715508135,0.22456577757395843,-0.03419377670141725,-0.18856720125817528,-0.10690190583670016,0.10301741525871594,0.062121141903241146,-0.10123028439850414,-0.04146996419301856,0.2067385741454658,0.4465538756295972,0.6922305809037971,0.2531696702021105,-0.12929397967328543,0.017315563174724054,-0.08524746876904468,-0.0428213134370759,-0.053990595489546864,-0.2975018457625153,-0.3867656502661245,-0.14287822003275533,0.11623285965085087,0.43863218606511817,0.4513686058777041,0.18889015527245734,0.04066816130221595,0.18456330571585813,0.22664067515155775,0.3307228417046959,0.31872619676758757,0.15237831459717363,-0.1320284654447526,-0.13497277091536994,0.1138059312266632,0.18618195391379072,-0.04341273001423123,-0.02248992465336509,0.2117922206899903,0.4621081594582795,0.5619157766552034,0.10426702253876446,-0.19583916046990144,-0.15065065333335131,-0.08429091698846977,0.182925419105903,-0.22976303184346533,-0.38535664729852465,-0.45804155898331617,-0.24207399087241374,0.12922967203916783,0.4361166401216933,0.42226261643537727,0.1725727143878559,-0.04937756416157417,0.03430697744514944,0.14061623277514432,0.3449753248888564,0.43314505472722964,0.23435369704215817,-0.19108108722511336,-0.2257878517756304,0.016429422762642483,-0.026424860920206135,-0.22697130216456032,-0.17407194965604245,0.13293059986030553,0.34525718165086594,0.26251581413362923,0.07779714455314618,0.048805807532577586,-0.24346983761485444,-0.1528687974673692,-0.04322497202840214,-0.29427825466245766,-0.4266837145700239,-0.445221659764738,-0.2463852749187086,0.11623900322754734,0.41976777351626376,0.44417945472502884,0.23910930353107937,0.051004719370008715,0.07786401928763283,0.19680571962247664,0.3978926865311982,0.4578426595951422,0.07455535515297892,-0.22769653077078855,-0.216032543312838,-0.033553822222771014,-0.12387661143044257,-0.39556092283910177,-0.32212236826908847,-0.03402120471443896,0.3751388397006033,0.0544512770053112,0.17230066915266748,-0.09747341554031061,-0.12204446058972042,-0.1760392134233815,-0.02865785370108701,-0.11477477476612194,-0.5142209134774075,-0.410804490162062,-0.24374919982723164,0.11380148573065745,0.4248241397757907,0.45609109937121295,0.3107560019246237,0.1417874600583193,0.08330624718671106,0.207303972219688,0.4223707718861636,0.4347752243856234,0.10562039767504847,-0.12784782594115462,-0.11288987230348778,-0.014825169336792635,-0.11133678304574057,-0.36729233201408645,-0.3652098819842317,-0.049246022407389727,0.3190775499384814,0.006702440659843421,0.001841649585729099,-0.07467414329648425,-0.13415025284689977,-0.0450581423692796,-0.15701382657292579,-0.2290189307839433,-0.46770060536709596,-0.3450735728095872,-0.19357565263765483,0.17794653113960296,0.46506450100024055,0.5286446300435504,0.30029465937949795,0.040369975698564174,0.016807711516867288,0.2034255789280764,0.2552052555176334,0.176838148842405,0.00887615684845895,-0.15134854237836956,-0.048600110947373425,0.04673664294985305,-0.14744331937732338,-0.3387230850097352,-0.30414513279786654,0.042474262786893785,0.2663533501776408,0.11761274240424602,-0.23929173444701413,0.015756609927777623,-0.15734269073399113,-0.06707335776022556,-0.15986238071464426,-0.2612868068558364,-0.5202626114117572,-0.4486609576177887,-0.2400916868443955,0.021122200385060207,0.472793476911698,0.48347818217235256,0.11948820676282494,-0.04849552459075294,0.001674896764824216,0.04392203101726064,0.09449512672985097,0.06099054760669265,-0.10413769377249754,-0.18262939566651598,-0.14588016586705813,0.003614618027549389,-0.05416051531891413,-0.2517496395346254,-0.10789967864890532,0.18590151571482172,0.342767583587196,0.15228841756212594,-0.024850988668237706,-0.32270176171892984,-0.06966978707967465,-0.09020733074279642,-0.2236262653969824,-0.3615374317871207,-0.5862975778376172,-0.5423220514511613,-0.3963501860204822,-0.07157017159231148,0.32732446993390585,0.30813588960386357,0.010306173110542523,-0.14893761918565418,-0.013963301784717793,0.019437827058628135,0.132802377044013,0.12839278063917708,-0.03731727792087271,-0.2063615751738985,-0.23935588938400523,-0.06407042929739985,0.07344282519770465,0.04382579716118705,0.1866711587102032,0.32165582542422083,0.46893133480549326,0.4324601308049919,0.13353680338684865,-0.07954040396842371,-0.05384832497918639,-0.12408734441353791,-0.2706072078468913,-0.3250351151930802,-0.6715933465086604,-0.5088303400621805,-0.4223959285046522,-0.036788209315991464,0.2831022815829217,0.23705274300260817,-0.06460706765496955,-0.17376265708519584,-0.031767515100837855,0.09219979879833913,0.1626177811039818,0.25962363590527293,0.2578016620645868,0.06291233906414712,-0.12023703950603187,0.0057686238088520405,0.2064454994859305,0.41307675015642875,0.4826293454871879,0.5273045235523083,0.5423170454556577,0.3163176340057893,0.14571623447651827,-0.08104157040593304,-0.310661592583687,-0.1508714811611561,-0.18612562594159068,-0.5365439714071362,-0.6885961378206441,-0.3878640806467565,-0.24545283302575996,0.15322832860831306,0.3969899180014906,0.3452601707861584,-0.12695054588231844,-0.289213043219993,-0.10442953282473218,0.0018608430125693503,0.006839154541570323,0.2461942146043885,0.4269329479541808,0.33770315742769563,0.08194471209053987,0.09861814089681703,0.21307804105780734,0.4780157554003063,0.5887741650253351,0.569951030639127,0.4542503583682489,0.5129767317071073,0.1882338212987351,-0.11808003334900022,-0.36351457209312016,-0.11532480327288752,-0.26111418825978217,-0.38722844262001,-0.7184831238582505,-0.37851768105604144,0.04859374740038798,0.45140102052568704,0.5039146925211812,0.3300489253020082,-0.11253460251532636,-0.4182297412406023,-0.380460896296762,-0.3427054727349433,-0.2042102241238208,0.21703483785461608,0.5195569859082707,0.426070408676929,0.19297261158649143,0.15607322592221187,0.1940063539700883,0.3208999277841478,0.39964058251075607,0.2968698569825503,0.10591024730428213,0.3262933879366789,-0.11150372129906802,-0.002977460463388789,-0.23423506588411575,-0.11173488434679775,-0.18901516096075024,-0.4422179925097413,-0.6633470047235457,-0.3415941482216835,0.2194378389248483,0.6059196877870631,0.6488391825496078,0.4465483946277712,0.04582135274568095,-0.41276773424645646,-0.5098582025036771,-0.4327189756055795,-0.2595424043814108,0.20734293932512893,0.5479033562970183,0.33048615903058326,0.05816568364828061,0.06782593161551342,0.04831366123794644,0.04658668505055605,-0.01809483182854811,-0.22280170166959784,-0.19933008148925901,0.0880731523823965,0.02892226188878116,-0.2894285969660523,-0.21873474135076235,-0.2166026152385429,-0.23257313192038737,-0.6059755863179535,-0.6982854152511202,-0.5288914043348075,0.08356219546207244,0.5191822818480786,0.7351115650589254,0.6835352298680352,0.410321305192566,0.07261261129430673,-0.24975804930088166,-0.3514219111247569,-0.16461104276117305,0.3347261668365078,0.38124817055829235,0.21700690129038833,-0.057592365398585275,-0.09228862701720404,-0.09932119826119147,-0.2606513240625823,-0.42475313742081683,-0.5287630407173636,-0.39390227363997643,-0.11001545031051259,-0.035101204317007584,-0.19757515772412013,0.005609871632601941,-0.26689582585765004,-0.3675540423391447,-0.42325899268030004,-0.7463790321146345,-0.7213605645992649,-0.4406442278857865,-0.12062077296899577,0.3670081365129077,0.7263958958354207,0.7809226995247147,0.5554266717064735,0.0999745330016236,-0.16999629389920928,0.10748462098213823,0.542029824578204,0.4436996734536319,0.1917368802218985,-0.07718069084012433,-0.21184847023645037,-0.32491757953049155,-0.5473559694629003,-0.6413083222054933,-0.7652025586632365,-0.45178617378149166,-0.19696505148750737,0.14616621209880853,0.06278072822981065,-0.10452269284721934,-0.17405689820091932,-0.14682149467732994,-0.5257806301417572,-0.7632063045339079,-0.8120992291698451,-0.8934734305043215,-0.8255087806278465,-0.47547764697538536,-0.0200183002779176,0.39378259746827116,0.3999440286982391,0.12196973367330836,0.1279682563280429,0.6717602893981541,0.7794571670291035,0.5935918103553872,0.16227441857537345,-0.3278232350711876,-0.4844144790898593,-0.48730314170332906,-0.6802327813812029,-0.739034938118165,-0.7918438375153305,-0.4144603400259227,-0.051037624664662495,0.0329455648241215,-0.22394735627056792,-0.14038204001725532,-0.17455660807383083,-0.027337460891342938,-0.39260718399779215,-0.5127057589938924,-0.7848825469074339,-0.9918262223451408,-1.0282196812825557,-1.0188875972272884,-0.8174881973666615,-0.53011709317387,-0.41538947903156304,-0.36201945285889153,0.07172000726803282,0.7742922181804178,0.7520415799792716,0.45643115047772825,-0.09732714322530045,-0.573909439703614,-0.6278629754926155,-0.72841308996293,-0.7438047536253487,-0.9146311775526088,-0.5093787934851448,-0.3477479122942779,-0.17115121258015745,-0.24579852135417846,-0.27956196750580636,0.10762208006726186,-0.04767462450054858,-0.11876359742428841,0.02344492340310344,-0.32536431406655897,-0.7923675448934036,-0.7581036658816325,-0.9436283583810535,-0.9502295159978358,-0.9329339770518246,-0.9417333791640545,-0.9026387159767826,-0.6620101704937448,0.009625728913523245,0.5121608874745144,0.4847668828833945,0.15349820149709814,-0.3113681590450001,-0.6625996940606932,-0.7309405346892917,-0.6495010924202131,-0.5269598406234152,-0.6235556951007389,-0.3754720866818113,-0.1312875280675504,-0.15710843360523186,-0.1622175504297022,-0.06958645003684191,-0.14137462838150852,0.07319817697305887,-0.07602074972718617,-0.28606666629594396,-0.30131175277755096,-0.4361863463834082,-0.39913076368798517,-0.6458501774883344,-0.7634111794284881,-0.7003321139531291,-0.8689671777394793,-0.8651551892978356,-0.4003576954746208,0.4076317595183171,0.7453865390463547,0.6913810232560441,0.27405012893978764,-0.07463814723771525,-0.40454608986860735,-0.4782944604649797,-0.3709673125922509,-0.3960392248859044,-0.29564111455052455,-0.2614755983270176,0.006190902985851774,-0.2357544697916065,0.032611345379693346,-0.2503315257225001,-0.1064060085196812,-0.09931012223620109,-0.23434646617556879,-0.01942810201320624,-0.19655009060179873,-0.15020680723260696,-0.2838584014731774,-0.3457284462279802,-0.5195900455933122,-0.5527076500690012,-0.5630993557042746,-0.40876585551142436,0.17576132539213618,0.6786444206267687,0.8006283714358524,0.7682054826405114,0.5314107206639388,0.111404767985573,-0.0949271068904375,-0.2819730060739811,-0.3228582680965082,-0.1746990140969347,-0.318375778158436,-0.23078678298594119,-0.10084841649069419,-0.049967688294759775,-0.10573637047066577,-0.09250940315237963,-0.12044970695584567,-0.03131240090875461,-0.03274584973413071,-0.10208413721676009,-0.25180091977878466,-0.05653749305972687,-0.07644594322405245,-0.12488470697339031,-0.13729255146816732,-0.18543496888634875,-0.32257470413381334,-0.1515059791367514,0.047625538508293284,0.2532819184482355,0.35497562601295957,0.2002076474087554,-0.015398051809127738,-0.08962626503708236,-0.1512659663348497,-0.2636822120705008,-0.04382013589131955,-0.10224113134326351,-0.018599605333355147,-0.17327378209096644,0.11593962726134303,-0.19642202765020947,-0.16020789375003683,-0.04468934922533524
-0.055807031287203754,-0.07986158082590794,-0.08185672561280194,-0.07247717199654831,-0.03304476283266724,-0.11589824595380209,0.014932634022042073,-0.08507231636884179,-0.03806149749798084,-0.040731864560721684,-0.12075644101862591,0.012114008043475592,-0.14257273432825118,-0.1967857389536135,0.1940863726283202,-0.029888779243142167,-0.050193275718409376,-0.23940448731554836,0.008845363344448647,0.034265157275908585,-0.24287640125857884,-0.2051705062889066,-0.009978321445095133,-0.1294357206195678,0.030653153089158554,-0.14972685198971475,-0.024768332843354654,-0.32095751153741103,-0.1525735429061097,-0.1106070174391078,-0.04380092493761609,0.006349372800602119,-0.16397269819334875,-0.15204809233335348,-0.06669684115260255,-0.0760039584580679,0.030593149758740373,0.013796129720418908,0.03925141895673127,-0.21813328248792083,-0.07868735570189958,-0.12599238403680735,-0.3543955352207145,-0.06461702555060758,-0.10574042042131782,-0.12852267043463983,-0.08439930241331803,-0.20333672958958052,-0.2532115544919827,-0.20825578191801294,-0.039310715357167736,-0.011776545701948917,-0.15625437576260107,-0.07698134319484426,-0.277789410972046,-0.000722460122321393,0.0028386453134130523,0.021795472675108958,-0.08918295720943846,-0.055647634835499234,-0.12866935820650374,-0.13655113192795768,0.028283750767138655,0.18491481715893857,0.13380112838807084,0.2113052391226826,0.08007570351633114,0.07011284484520772,0.0020081987588410166,-0.052033301678014586,-0.25559444268478504,-0.11573149178245884,-0.006609888988032176,-0.0674839125625066,-0.05941269431443777,-0.1109097484829589,-0.1551646294742693,-0.140766727375303,-0.20753019227593475,-0.07135946479213134,-0.1795489949855072,-0.04734126871055325,-0.14377009469996996,-0.09172781611179479,-0.08813464192330639,-0.03615032772467814,-0.029469023795126753,-0.19991189134262868,-0.02309617290263391,0.010365118671227112,0.08677588928275215,0.261371983131013,0.3413445529283736,0.4203258156161016,0.39697439761085573,0.31225614761365056,0.20518755404127095,0.022793630980326267,-0.049808249778100624,-0.034332031238550845,-0.030838766635666915,0.049304103350803506,0.17785525825441123,0.2013600420461091,0.32905828897046996,0.4250922899510263,0.19548350967678807,0.057912905980627837,0.0562379039329831,-0.3107763106467854,0.04869107989336177,-0.20941675951174388,-0.2644004971394497,-0.12321336255244865,-0.13590618732897364,-0.11145664274075118,0.08212919496993888,0.028214989042529694,0.42315910282328134,0.28328689065340323,0.33973900952448804,0.48316306381655344,0.346628152867575,0.06895156699192538,-0.11128713464506447,-0.2226063371958518,-0.26062104460257957,-0.22789066444171194,-0.24638852033419548,-0.16328330034381075,0.007221906995684043,0.31641399922940033,0.6912816915232838,0.899505772212782,0.9381922222887732,0.5682847941691476,0.17219519909969075,-0.010585309922118329,-0.029414584249367295,-0.3074680874637669,-0.027495306829579878,-0.14647040007267384,-0.1518351576142029,0.07565858944838312,0.09704508145296592,0.25496075860027473,0.27992183854695046,0.30133706224052925,0.2769439296483682,0.2653867167356754,0.06365312964573586,-0.23590321439501508,-0.3976330224327662,-0.36580490001247856,-0.2912487816264524,-0.37023170996379545,-0.45236745748921164,-0.46266466934311573,-0.26813367912319713,0.1647169738601102,0.6658956298685591,0.8741100928832557,0.7559812034963748,0.3527400766326112,0.027747535906972466,-0.012464232251347549,-0.11788604697028092,-0.24371999274525621,-0.10128058885058705,-0.01788570007735653,-0.04064077260122897,0.118083728186197,0.10592394966990375,0.1831542260659435,0.19315509872825237,0.08348972593392832,0.07617803329147063,0.036653134878781884,-0.16810390385164425,-0.2840093031117249,-0.32161256533678917,-0.25315812032806834,-0.17097615725616588,-0.21386142006744105,-0.31407098741395684,-0.4665382368026437,-0.372733519263552,-0.09851814235141848,0.3657313873663781,0.5656136186317252,0.30192232892787085,-0.12294970879574278,-0.4353420108371201,-0.26577467883932004,-0.17599378864430473,-0.09469998001624463,0.09151995956486425,0.0004287841050380387,-0.023970364294096245,-0.029795901161003766,0.1580246280251331,-0.0370733916795165,0.04286853420401791,-0.01943947714285407,0.02117801602612702,-0.042609171529897086,-0.10510314045536365,-0.17866027251795816,-0.12301401536355368,0.0836425536202531,0.1382933839387923,0.20137218755538708,0.039529495419003274,-0.07124743650214173,-0.19335828052080134,-0.04767412836909975,0.18121651387228369,0.20665378846127203,0.009021506559255092,-0.3701508038005965,-0.5438351980845151,-0.3583739234507795,-0.23383496549658353,-0.03031849750920217,-0.1396527790903032,-0.09690602442756902,-0.12716790871716693,-0.05330977159059669,0.02326055880384652,-0.10384082541409678,-0.08281053795434744,-0.023815823827791342,-0.028848265320847288,0.054733254856446506,-0.014591520470256771,-0.01885150369211103,0.1383955141275683,0.22363936038035595,0.10738146184757635,0.16642995195273386,0.1970836338468823,0.2523780321264389,0.25333157165511816,0.0932901796086945,0.16245389722476572,0.08979074077302067,-0.09000182711095048,-0.35448868363322505,-0.3688600247032493,-0.2791718339754876,-0.24409153956453739,-0.20576644498420196,0.0012975976766635615,0.03426359037697055,-0.20865334646352598,-0.0019106585204822213,0.020051918802821287,-0.05214846360469545,-0.005723803696268835,0.0355058514221047,0.05647308831082627,0.14199771027223734,0.08061611964712895,0.050537716497894986,0.12219238837973359,-0.010625356159554344,-0.15019159971383578,-0.1351114399247528,0.025664522363081123,0.2599728790969134,0.34855839463126836,0.1902750559103696,-0.011964628836335763,0.04076788861696054,0.01416216561058969,-0.17489486162099413,-0.20280626618415235,-0.14168495324254327,-0.08631089793438816,-0.10295933234261546,-0.07248980919226226,0.008513032413303787,-0.3076179862345403,-0.06998898327822328,0.016067050404944917,0.12949549702202634,0.16590162557671775,0.05220244188373677,-0.013811374006889865,0.015247167774856558,0.009914643026825237,0.0918598435992732,0.0004229368576904743,-0.2933691745515337,-0.41281929581931226,-0.3385794548947298,-0.11096681130386267,0.26909132172845973,0.4330515863674291,0.12854393653384993,-0.05134756810279762,-0.0028090854061461282,0.11295241183284871,0.020442510714931778,-0.04114709591564602,0.028472191463174784,-0.1543785759791081,-0.07317777411967245,-0.029728310275602188,-0.027751052786653557,-0.2691716052107858,-0.022846383149179264,0.09587816243487793,0.30552280755752675,0.24617114201651932,0.028090099299856588,-0.071588536480812,-0.13516558843771445,-0.04441643957064634,0.0008271127046374617,-0.10096510857851904,-0.2656712915994274,-0.3184476070844831,-0.2298570184670932,-0.042611117147784205,0.29426539224401593,0.3230067578744542,0.09259676118937084,-0.02790736872154513,0.10788194126413657,0.19513611726462876,0.08809201803347383,0.07005105119012117,-0.20790914914214478,-0.00536359193532366,-0.1713807595129472,-0.2286713064124288,-0.12246307606119627,-0.08934112965726802,-0.04429039410172118,0.26270670609819813,0.48406230150623053,0.3079117539546627,-0.07543363313052705,-0.2450439306924739,-0.277882426904106,-0.18102258389246362,-0.03006577946865676,-0.006050683190482386,0.06581766541760176,0.059398788069846185,0.038990808260786325,0.16283959498630562,0.33355922970250956,0.24887617374704304,0.026833461088865355,-0.037492349347589854,0.18678924197456523,0.29166815282783365,0.2985464495025401,0.16732698742269525,0.10876863162810178,-0.04976294686387505,-0.12091991941858692,-0.14862422836493597,-0.15968982413088964,-0.2462070362516107,-0.022819509148494472,0.5405354920240197,0.5023077976197164,0.26940371885276443,-0.11294680478957854,-0.33357274814074467,-0.2658210109298826,-0.15249593646212645,0.11531468530703776,0.26349404098576173,0.4005608084610365,0.5407037033074306,0.4953427055694029,0.4241745145978201,0.543622170021134,0.24563697899418002,-0.002141658412720442,0.033188187969862025,0.21770129877870004,0.398741715856304,0.3676142705422533,0.3786475452434767,0.15182855866990974,0.08377549520640509,-0.17448263220171947,-0.25507447517678306,-0.18048405410187174,-0.02599035188967523,-0.020508593584613544,0.5253946042452357,0.5649671213118589,0.21616452987683568,-0.17494575505662666,-0.3468974770302513,-0.22695696905554727,0.16620509185982488,0.32230057726149686,0.44735162660630257,0.5514032802945811,0.5711083927898093,0.5192524719461042,0.7426187757464577,0.7664145637292628,0.43277405813639697,0.010731318608262416,0.0009045579441635932,0.15077287711419024,0.5598234901237314,0.5431155812278765,0.4092877968149283,0.2412855896576224,-0.043686707961963486,0.0592643690994306,-0.27259690008602455,-0.07583756118836024,-0.07650627379469914,0.0833878621783036,0.49378908600681787,0.5295333461164182,0.15371040116541138,-0.19628566488606491,-0.24807690114825787,0.057747058135444916,0.4289109899834784,0.5804390237634757,0.4769505633104386,0.24196625863258028,-0.05440636955331677,-0.006153707166328387,0.5072717193499446,0.8199484523580283,0.36096216240035517,-0.13935683888016356,-0.1706068583449408,0.1200247227737519,0.4912980571683388,0.5049395621837854,0.3372209353441789,0.18488089525445012,-0.05530309225829502,-0.1508407665243035,0.12676873544726402,-0.11894800689392898,-0.12358246777365048,0.034713108768616815,0.644638325047082,0.5241785043495847,0.05407861248011949,-0.29898834278593966,-0.14213348512460702,0.335296470681923,0.709332434664163,0.7588134853975831,0.18169623748162653,-0.4264668177826443,-0.7046769140084876,-0.5079439380103173,0.17136874387494536,0.3861779521351765,-0.06827486923204329,-0.450618704048073,-0.4052122629439444,0.08983434038883283,0.5121348715823939,0.48852339069721024,0.2457054276405037,0.20704595724412816,-0.09336574452944063,-0.05814137273818872,-0.046548414407428754,0.004874578782599472,-0.016396436438769223,0.11962160604869446,0.5092900740604123,0.4389046271215698,-0.02697485165418263,-0.2886082042187859,-0.0778414841113888,0.4352455698115623,0.9089189802301585,0.5711050410998313,-0.36114719436644904,-0.8634882172849385,-0.8448597719993913,-0.49926147092165285,-0.06077934725463618,-0.14012394834470807,-0.5432922571799499,-0.7346411248618661,-0.4086456285342831,0.17927411375565125,0.4724248580512904,0.33540634041646344,0.14440107209589767,-0.01198840168779627,0.06872172367453132,-0.11811097197245321,-0.19586812644718654,-0.09802191021405644,0.1148460113579929,0.13493867611666713,0.3895207850216814,0.3788488618247437,-0.09112033377745088,-0.2963871863712634,-0.00800153509929943,0.5619965750919033,0.782844188673311,0.08825714505609275,-0.7432316672754248,-0.9084724257727782,-0.5680876966327124,-0.213884533884515,-0.15770407092795513,-0.4416344762241103,-0.6725453438905661,-0.6165664078758505,-0.1568046824644098,0.31249025541471265,0.38595382598271805,0.2151549622578076,0.056373558027623186,-0.10380162741791464,-0.20657380548821733,0.09307389432035731,-0.1414122937915719,-0.11576647496826925,-0.329124329405941,0.0680797819669957,0.3016221374588621,0.2560836823677053,0.0358098268084965,-0.06063782469747485,0.13551265921360653,0.5673798642008848,0.5389086225168054,-0.2710196202452636,-0.751218010921336,-0.5288609300067462,-0.10483269909906688,0.05191782865695825,-0.11207667958615868,-0.36867660507912436,-0.3865957901844569,-0.1015982129661998,0.46478819957266737,0.590363438547503,0.289927595755979,0.007689220857612984,-0.0848048712489142,-0.041621298460546484,-0.11915268614795772,0.042634587225827116,-0.30071087065850816,-0.2782843724221322,0.010392890488017724,-0.07077993421635397,0.12805749613712966,0.07694408032826111,0.09577622174846274,0.12178560112247316,0.3132564618942876,0.46446989999414695,0.3042194134217005,-0.21683535621825198,-0.24751579911220603,0.03950788335787981,0.326016212326663,0.2933463299515001,0.1877309189253941,0.015120893279420917,0.15218215115730305,0.40750184944468454,0.6085863683014705,0.4653969863484774,0.1386226158968749,-0.11423826896802021,-0.014326527510539783,-0.030022154207589486,-0.11487350365285358,-0.13633114695321244,-0.07546952898949269,-0.2534826097457918,-0.19427937742082915,-0.31580219270786697,-0.09984374204284273,-0.19956911745020275,-0.10304553383903799,0.06966071643511554,0.20788217016662836,0.3633641377900737,0.1656084477997873,0.05366277854862235,0.26640397388715203,0.4800968859529791,0.46367448163556313,0.397645121488244,0.40087516352808034,0.34568416862347395,0.35631521121526155,0.33989692397373344,0.17972919359421038,-0.027208174571324236,-0.12149182953875882,-0.042218421799414575,-0.023850585808729646,-0.1512939431536522,0.04361047299340793,-0.23026115136224898,-0.226019559553304,0.03110823493472618,-0.07068006850855575,-0.49577721201037833,-0.4348809487369783,-0.42221918651267126,-0.4509867532979794,-0.3071667963091169,-0.09813766762790524,0.04332413324998838,0.15704646088305352,0.3244383031902081,0.6517143994886503,0.6244949866315483,0.4386744276628183,0.42781725907966167,0.3246722069446484,0.25942389456200354,0.07336877273458879,-0.18458222657787463,-0.42873554742150144,-0.4239761091613548,-0.3941224862587589,-0.11855923726356589,0.07977885301862092,-0.06658833466594727,-0.23297651100078115,-0.15782170093361828,-0.08860933083268885,-0.1127728630654104,0.01572590706929926,-0.32336622939183624,-0.45489184975750463,-0.6629807159763925,-0.7256279605974096,-0.6887629279677118,-0.5760148390256355,-0.4052111638382574,-0.13388483066603482,0.3331339666969229,0.7015736762216175,0.5433099724040802,0.2728266181127158,0.16451504271194367,0.10598383307176024,-0.15726412388085048,-0.4114024099546622,-0.6027594772781953,-0.6970800588502041,-0.4785962054065161,-0.21743013635913935,-0.01408970056549613,0.06309143239576388,0.021888940305503424,-0.07967896832423103,-0.1486624658068438,-0.05853803969875382,-0.05471790731331096,-0.20760278007493138,-0.143464756360372,-0.29833637300225596,-0.5423879427234726,-0.7141821056833568,-0.8133853744556924,-0.8868957294833855,-0.7444250880669461,-0.2947281959178166,0.24179923098370815,0.5763159602471376,0.28589704411361566,0.11965858180809168,0.02687332028015587,-0.1619612787578927,-0.3913172949342942,-0.47394560544980135,-0.591213678193151,-0.6241009210531937,-0.36902048350782807,-0.057563474761270106,-0.033763704298317834,-0.12195500371234652,-0.24036548008123385,-0.20874337818529842,-0.18763374828837037,-0.1411876487108385,-0.1407655036804188,-0.12627844491354598,-0.04967427487917277,-0.02340185429944888,-0.2712269087175406,-0.5504701761110373,-0.5317950264439522,-0.6888342531274638,-0.6531768071679755,-0.26308623827071137,0.41408334262010627,0.5457629207709234,0.2231722619709642,0.12370324615998328,0.12984888173054795,-0.04900484689800291,-0.2836157540785776,-0.4233374199190075,-0.4816649514878928,-0.31673554370858886,-0.32390366953376937,-0.06969137521001766,-0.01589779964471732,-0.18666787807646051,-0.22288800809901785,-0.21293672501441419,-0.08736873157259455,-0.2607047790121986,-0.052360366044509575,0.011460130690905308,-0.08818217680989753,-0.13335929376640032,-0.17273983455266798,-0.2848772263522895,-0.6121418686164068,-0.4970360983062533,-0.28776789448135254,-0.06948696005057631,0.3829812167975807,0.5981243243109362,0.5362149095277529,0.2222484599805268,0.19341991474427245,0.006004617001733848,-0.2781106348429057,-0.2575210539561723,-0.3367992436978109,-0.11721079432813306,-0.229884933544222,0.06086857632239702,-0.05368213109666226,-0.10673787763624358,-0.21365802022995864,-0.1542299411717823,0.014649850392548774,0.026365948504694703,-0.14185525181806022,-0.23348000393460416,-0.005767825064751573,0.015982932647052542,-0.11908034050147867,-0.2115872750140359,-0.08019869105470666,-0.23006748258675902,-0.10242593745010514,-0.0646883858021135,0.05145285055212872,0.054810047341244526,-0.001057413201636922,-0.09795556207815787,-0.2181160394292057,-0.1606213416307294,-0.41093819962909606,-0.2861691487513414,-0.17238450274860515,0.09989183905358227,-0.17682999780779882,-0.13296102299930138,-0.28673973929857643,-0.053179637502038295,-0.024289907652051253,-0.13660645010359945,-0.21542525675984306
-0.024395887758585127,-0.03916696637929883,-0.19331032596497394,-0.10296729063584423,-0.16353579701532053,-0.18708070218598835,0.04047481427857189,-0.4182338119200824,-0.20726945663504487,-0.17214701082637265,-0.041060829814058765,-0.10927410753804054,-0.10177016725857142,-0.18790497198363015,-0.2380913203561844,-0.23130148461166308,-0.17151032589537515,-0.22724900399710563,-0.16418493580161994,0.00418910097298947,-0.14923115333609455,-0.12969438484834672,-0.30338206458708783,-0.21318326971272553,-0.12915609292246125,-0.04149626379569788,-0.32605485179027655,-0.06325503415084184,-0.10871446397944971,-0.25687328736673987,-0.13262457206830672,0.12336969631661117,-0.093707209760511,-0.09630022696710924,-0.015676656629039734,-0.19583617687309413,-0.35098138578710236,-0.08040660494069016,-0.10683261455585438,-0.16470142515175326,-0.12732321783356387,-0.12185234095595214,-0.0609636625110954,-0.049545710265575735,0.06013996975726746,-0.02786675502413278,0.10090305917818916,0.034481511591025735,-0.005063390699995073,-0.23691920296412486,-0.033369527512072374,-0.171792308797705,-0.20381722997962382,-0.22226740706214818,-0.3420961977338149,-0.12511827478148607,-0.1108927428630655,-0.14400836455838503,-0.18837177709658454,-0.18504254283214122,-0.06397132730535307,-0.19134214884400386,-0.18137885196635076,-0.04127647331405808,0.038300587283825155,0.10203359632071654,0.015546782312074913,0.01220770987734733,-0.06305560759466927,0.10253510086970727,0.3073355724977903,0.46593107092628655,0.3571468032848026,0.4064071051434733,0.3098463896158346,0.19415685501064547,0.13406292034433,0.030299573176651662,0.08814645525393629,0.06862055955065721,-0.05075540515838391,-0.20185871092434088,-0.11157603236863298,-0.052479794465176186,-0.033702128896660945,-0.05729882583556719,-0.1634965741337292,-0.15955594677260398,-0.1421995834508148,-0.11129469721218674,-0.022749520286488946,0.015085495881429755,0.12150342748061847,0.025758325968823468,0.06566604902068619,0.04225542512454269,0.09858672153124962,0.41154558427940696,0.5946502562880387,0.6518203666511656,0.6570739386642179,0.6059198464984717,0.509837662444804,0.4617233789109926,0.30762334219992166,0.046367533447307464,0.26582545385632805,-0.11242642583611497,-0.07508595225430403,-0.11575666721665516,-0.07010936188288595,-0.1547562071031161,-0.17507372569781532,-0.18353988663966442,0.08393639364259868,0.015753683061040143,-0.08810321408620869,0.10903932014290234,-0.006981005674621611,0.04784851697244244,0.06002476336815307,-0.11560458280306389,-0.2123554477562186,-0.23487899200153103,-0.11315425529342449,-0.008398791537758167,0.23297452306003189,0.45651929681490444,0.40543157875155467,0.27785133667641726,0.05723955689671749,-0.021602906157443716,-0.07483272005548657,0.008060109973219747,-0.008099842950069457,0.05540021712951808,-0.0789842161028269,0.09609879373402265,-0.336237916488693,-0.0051808370868907895,-0.19923819274330232,-0.32178463166255467,-0.21412191888942306,-0.16678570036893742,0.01196408473200159,-0.040040158046854235,0.04715204901272702,-0.01714027218107544,-0.18111545196639062,-0.3151879336233099,-0.4009028283542527,-0.2758003433738846,-0.23164167733556468,-0.15650638923144877,-0.012221505824711659,0.19044537002319922,0.16981009615535247,-0.03312109027734545,-0.2346617773747371,-0.2651465460281462,-0.04503657464541892,0.0923668735787454,0.20120490298920055,0.1704009285434474,0.12721588234553957,-0.09492474475653563,-0.17946126762400846,-0.3316841888341641,0.041090353233022965,-0.2987168955337146,-0.24778657549662103,-0.1671908096811863,-0.05680640588802709,-0.010343320905894057,-0.04469861647641274,-0.11842478643005808,-0.2875559866796974,-0.44050411877290335,-0.3800286470538016,-0.174639005519719,-0.1286979062273191,-0.1540598338154366,-0.11913223117184657,0.08027560140793591,0.03093734905582771,-0.3581947071979684,-0.5458943296854144,-0.4046700920432814,-0.02404818073236473,0.23400274249855588,0.2902542948733572,0.29509553044060327,0.14582298636338165,-0.09674480991670067,0.03117326608562238,-0.19214271372012734,0.04235042151946546,-0.20608917226043252,-0.20291198907523064,-0.05803538642492678,0.015495735676792912,0.08679105847710683,0.020529234978044725,0.01988961245730993,-0.12757459659255724,-0.19183982220579665,-0.14144258377408864,0.01499722375985993,-0.06349786317496331,-0.29131757759167853,-0.39636380456820314,-0.1469775577242527,-0.09180898253150667,-0.3747331093884132,-0.5188800244640047,-0.3949468745980387,0.059287514367159726,0.2767350249171469,0.3381876303327217,0.3476816042499835,0.2451503125365756,0.1550551059423435,-0.06275811562234193,-0.12593722139346147,-0.021116533258774564,0.10352166579072168,0.0019150531341550817,-0.10446730435573462,0.11506692636918167,0.13113310110213705,0.15787348749831107,0.09545416534911268,-0.03420035278930732,-0.059749727648302296,0.04921374037693675,0.05978507299347245,-0.10623336585074997,-0.436032979591182,-0.31262679225364787,0.11168894219581373,0.19354796832323368,-0.09133556662905701,-0.3197168820417974,-0.03617867923899592,0.2693840416591328,0.2824445303808628,0.3354015654813474,0.2362050775499336,0.0861992644621338,-0.04390929677709974,0.03292085628907628,-0.18849274748092779,-0.18961715559840317,-0.06149701297847956,0.18721530258729802,0.024195057279411663,0.11362830207754884,0.09519575757429033,0.2397926954260127,0.0936712203312876,0.019961620433771858,0.004275156415227694,0.06270519457151798,-0.06578687724484134,-0.166951500798353,-0.28227520361352,0.2154216265243636,0.5172595031837824,0.49801273103563687,0.21858112768382823,0.13283167153006062,0.28246849327218976,0.40433743489227336,0.23199793763043597,0.13019310846330595,-0.02945608238653031,-0.1359258605682332,0.0001472977708381985,-0.1776961686444732,-0.17610795714685482,-0.10494242460332454,-0.029091018795629583,0.15974185355195353,0.14651687659085064,0.058523720446928364,0.23419619550429852,0.2166451979292967,0.0753415119021968,0.04292740777888158,0.08602461044389112,0.10805513041312759,0.008349582721605383,-0.07313803189872042,0.13332024478579135,0.5348640011867811,0.6765641681077759,0.44264437223789355,0.15313165659853378,0.19157517780584654,0.4768086733287102,0.4055724415663504,0.0684700715289121,-0.12164193062129121,-0.24313332318824765,-0.31601107612477364,0.0688265108829515,-0.09513620917199213,-0.001847300535858819,0.0198005619530669,-0.10643066176932879,-0.0064679222476558195,0.009311241608563451,0.1529685309310516,0.24083949909445138,0.21239658620190796,0.14980607975220245,0.12323903937768457,0.13173188249300935,0.1398672219952477,0.13562973344918816,0.12088072234192529,0.3613225215871727,0.4627959033016269,0.3458614613224416,0.09695533415494166,-0.08964769378554259,0.25542211968538625,0.4728442827926334,0.2625260688421745,0.0069640652052110645,-0.23800386234090934,-0.4219926990571087,-0.3486096473914877,-0.07613464962818227,-0.03135119203463137,-0.07354256548085099,-0.10234759082646468,-0.13167739150844895,0.05914170384643117,0.08522317197095675,0.17924721416218328,0.2818801534526769,0.3163720383063546,0.13399170225175186,0.16372971979271592,0.1874944881203368,0.28254046258726856,0.2019934262064798,0.1847528705299711,0.19515705404110564,0.09217447614075014,0.038003764530880176,-0.14616152284760625,-0.08834353256639134,0.3113320119401761,0.43619190001852565,0.20914644901543564,-0.02402668365929835,-0.13098861939927417,-0.324683800021631,-0.3976749204092011,-0.2324052597091752,-0.06877818219399216,-0.18972891091368072,-0.056463745336537134,-0.13704208866617,0.02001117038805672,0.23315159688487122,0.15504814763821645,0.3604889863440793,0.28696499228282846,0.2470467193286785,0.2358251315493364,0.3081419626397486,0.37998932943276026,0.3044528972420024,0.2502353322002617,0.10657157864128954,-0.014222174173878126,-0.08286295088629969,-0.13966869976957488,0.1589987536607292,0.45342502144902724,0.39257419988999326,0.1739004101708442,0.03411931905693324,-0.06832637532086244,-0.2598496807470199,-0.2885543364965076,-0.23151471502971144,-0.1730042613956531,-0.00893316551000086,-0.13988598810254002,-0.2332629031783476,-0.078298130278544,0.274088782092968,0.27313066579816814,0.42508566485585025,0.281234790704544,0.2937244171665241,0.30321273759057393,0.42376091385899445,0.5059634793712421,0.3958236518171231,0.34390087753457144,0.19455370320460216,0.1676130281902685,0.18668900863850788,0.22375840065841415,0.377964537964379,0.4042126153229986,0.23521817705520448,0.09320490809516956,-0.039491129617304534,-0.03259475977693983,-0.10984976906932176,-0.2151037367600969,-0.3006307274732153,-0.14625866724588638,-0.11774339355968907,-0.15236094898441607,-0.10132082258702302,-0.043151073068487755,-0.017303168404518676,0.23284095068260277,0.3950906965093604,0.31623248560736034,0.20567160851772875,0.2429360393850485,0.3430292047765378,0.4092973438837344,0.36696157825962494,0.3107985431888799,0.2542986842619779,0.266908706975229,0.2547121131856923,0.30444661607138607,0.23393016617256698,0.06329992054124528,0.0034402969307506357,-0.13455263253058872,-0.18813233732535628,-0.15964424749144465,-0.17412512777161254,-0.31324608412276495,-0.235949468269716,-0.0698486532158826,-0.06951771353297186,-0.20842549509883634,-0.0979005803906392,-0.1533460984489724,0.0114159545430812,0.36329316265031136,0.3851693867786649,0.36195681666031665,0.22796908985764835,0.03823470224358195,-0.010881900485070732,-0.002430144745950158,-0.0735216311115205,0.020654085312678833,0.11888977591398273,0.19667137335447926,0.08144189292461525,-0.13991890789061376,-0.22617451878163491,-0.24218530231747365,-0.3345698095918126,-0.4643826366666889,-0.4646357239146005,-0.346931131951854,-0.16099899412406155,-0.2445165785912389,-0.37545084367152876,-0.2834802533130082,-0.3620358924919849,-0.16316605104026222,-0.1631345868424329,-0.2248704837242947,0.08260167045062582,0.33859239534645413,0.4871688042472123,0.38270097718605833,0.1561812591672667,-0.05938687030686633,-0.2587990506190577,-0.3005125295729546,-0.2000162910637889,0.056896084213394794,0.0765885477083847,0.0614507285380723,-0.22775273012369193,-0.4611226763309171,-0.5318500440499632,-0.44694137215099267,-0.4387244199420059,-0.5626162354479105,-0.5603438475291923,-0.2545594506729368,-0.07028254450457473,-0.07807632539715835,-0.3233652935555624,-0.1982790768478614,-0.09226244873854937,-0.15480165505977164,-0.03736776583056502,-0.06991131253862977,0.1477635332527629,0.2173072248125261,0.3019265126232921,0.3685334663528688,0.11834927732537875,-0.062043292147113266,-0.13836762906621586,-0.014301323596373105,0.21629256424401452,0.33416625607032446,0.2736932474120973,0.06489209293576506,-0.29129222998194876,-0.5328845367586006,-0.43278177624612163,-0.320114596739351,-0.22425466721497186,-0.4232320839813841,-0.29341064298112346,0.04011762494125675,0.021603409046838287,0.03268049888806935,-0.08902330868854177,0.029511502078037835,-0.01984998625836995,-0.135842102544718,-0.20044290093231282,-0.22659056846210984,0.1039923417639278,0.133769476149355,0.26955850556222793,0.34268940613720017,0.20429627948181858,0.04026609512255111,0.14343977435631514,0.40967156718048403,0.7034153434832995,0.6315138630097289,0.4824461654886695,0.17555237250067623,-0.13675312113620655,-0.2850887312500935,-0.16141373169496784,0.13320553034396848,0.15621430842759165,0.07648041305367423,0.22417530703998137,0.35607939834542274,0.2546284735996651,0.17030459498603942,-0.015339696914647613,-0.09629463209297426,-0.34211872386026915,-0.04439912727488227,-0.16186626865863937,-0.0713395679806735,0.013670399083374182,-0.10722085270988783,0.04110291192853065,0.15938684590729582,0.06751013997127103,0.0878671578396271,0.21260583541651118,0.4807077327709552,0.7342159243333487,0.7592658536895743,0.6202063586197608,0.35059628279942096,0.1224280708060465,0.05294107782137146,0.24759084672490528,0.5234550884072527,0.5809692464147267,0.5085891203136963,0.5387332210020149,0.528138729459504,0.4753149288131361,0.1795572390307197,0.09451642183690115,0.05203506188625642,-0.09758818751281964,-0.0645287076036718,-0.1812374413632886,-0.17362105473487835,-0.2722348996299944,-0.21017134987531538,-0.23098761997543785,-0.2362084506181963,-0.22830552319416653,-0.27695296966419813,-0.23341143940662773,-0.06123593818500654,0.211389351579838,0.44839956399005204,0.5473815840719606,0.541964373255456,0.3402559635874945,0.2672007110524018,0.27160180357309177,0.5668446940790801,0.5922124591834531,0.4710811696604301,0.5403597719679849,0.5528929214084509,0.45906765860810445,0.36414713781699865,-0.11869235273189184,-0.0731677858525184,-0.025577465971441112,-0.015604020971208403,0.07180364611224115,-0.17938116582018332,-0.22183161252707445,-0.37371262649726583,-0.49903169053985846,-0.5138506103629189,-0.6102289267397072,-0.6596625314284182,-0.6148831164103736,-0.5087063490388986,-0.3798476091215879,-0.03318925879819703,0.29095111730061707,0.3854058730561069,0.2268904592773207,-0.005608515454737224,-0.02891091940329181,0.15294882583724898,0.31797160226439136,0.33366369560471026,0.4408248043669876,0.4432156498730427,0.284519557243375,0.20263487797909427,0.024654630817543245,-0.13700756718724844,-0.26088508797234455,-0.2399660974649255,0.011967187018973553,0.04831928715171628,-0.3503150398041701,-0.5228255565996667,-0.5152513057791812,-0.6220455926231641,-0.6903479245725584,-0.6924708344132153,-0.6095582585016774,-0.5184436562689925,-0.37233939060438137,-0.07777439223283612,0.15803630653059025,0.2923313706219367,-0.018380444870871076,-0.3025660835750871,-0.41407776503593036,-0.20484761306062277,0.060399087962517826,0.15847895488977057,0.25901192295669884,0.3215366488647181,0.15256268679343254,-0.0032929987418429873,-0.15872733868280034,-0.15282130566031638,-0.06777937578456449,-0.09627190699125263,-0.20062021917321518,-0.23809923493988838,-0.08061473788289282,-0.3082768991181788,-0.42897137496638144,-0.3250371888089686,-0.39679296338120074,-0.5286302578483034,-0.5637229985961723,-0.6555072473524416,-0.42439196706616567,-0.09485314553115574,0.2639737674175092,0.2163776622022007,-0.10551855161454121,-0.43124977497183237,-0.5061876056840041,-0.24828057582732138,0.018084238843171306,0.19260963427796532,0.2277445372892222,0.20884522909432848,0.16209675243194482,0.054418888819024715,-0.10685228287481653,-0.3195782724339657,-0.07164441386029646,-0.23499787362215363,-0.0755306400406763,-0.30886122868843385,-0.23284228634152135,-0.1050959754640446,-0.14588552218790263,-0.30872667964638767,-0.32187825764059785,-0.3275222767787256,-0.5093340378813012,-0.6005258744419324,-0.354426116506756,0.1116285889648496,0.5674326710097582,0.4163402624692128,0.15631227138532,-0.160470012950785,-0.23280700900114165,-0.08903032752266837,0.05317565572385299,0.35896894959970493,0.21980041566667835,-0.01752605003823253,-0.02170921217421807,-0.17766159507289378,-0.3149774799066465,-0.18514687761412152,-0.2059916764349851,0.12521420922108203,-0.09972946180812374,-0.18354177569027524,-0.051596733616978314,-0.024635468667275093,-0.04493592041197603,-0.23561355189150104,-0.19481259455246858,-0.17066711471059223,-0.22898224081862356,-0.211806318486547,0.013315505655850837,0.29150147250452824,0.6030882664547441,0.5163014124120864,0.3166518624447556,0.2731004253090033,0.14455662525598545,0.1191025678161322,0.04985195294701789,0.20085504440837956,0.10263738513582067,-0.0828206620035146,-0.19196363247339113,-0.2340600130306882,-0.03886943329779284,-0.10964789294803957,-0.04446602522809332,-0.18476754494231298,-0.23691910803766122,-0.20058236033835464,-0.3109499410804208,-0.3333481314414379,-0.07142477932766524,-0.08230153821191077,-0.04764040535233328,-0.058039327912368495,-0.2009549669906112,-0.027604733741768278,0.07668032156985602,0.23606735323510264,0.2741231352690402,0.3797029865320105,0.22630616481745203,0.14457255039897124,0.10192694541105833,0.08666748012837507,-0.04363258823474151,-0.013140993500233856,-0.005856953620329713,-0.041795335329271856,-0.2416641898587606,-0.2099418427288423,-0.14355588440265982,-0.18561741212367158,-0.13907943796588726
